svm_type c_svc
kernel_type linear
nr_class 3
total_sv 601
rho 0.9999999980912346 -1.000000663689745 -1.000134909152984
label 0 1 2
nr_sv 240 235 126
SV
0.1 0.0 1:0.5 2:0.5 3:0.54 
0.1 0.0 1:0.5 2:0.5 3:0.54 
0.1 0.0 1:0.5 2:0.5 3:0.6666666666666666 
0.1 0.0 1:0.5 2:0.5 3:0.6666666666666666 
0.1 0.0 1:0.5 2:0.5 3:0.6666666666666666 
0.1 0.0 1:0.5 2:0.5 3:0.6666666666666666 
0.1 0.0 1:0.5 2:0.5 3:0.54 
0.0 0.1 1:0.5 2:0.5 3:0.8754 
0.1 0.0 1:0.5 2:0.5 3:0.6666666666666666 
0.1 0.0 1:0.5 2:0.5 3:0.54 
0.1 0.08611038864866317 1:0.5 2:0.5 3:0.54 
0.1 0.1 1:0.5 2:0.5 3:0.54 
0.1 0.0 1:0.5 2:0.5 3:0.8333333333333335 
0.1 0.0 1:0.5 2:0.5 3:0.754 
0.1 0.0 1:0.5 2:0.5 3:0.6666666666666666 
0.1 0.1 1:0.5 2:0.5 3:0.54 
0.1 0.0 1:0.5 2:0.5 3:0.6666666666666666 
0.1 0.1 1:0.5 2:0.5 3:0.54 
0.1 0.1 1:0.5 2:0.5 3:0.54 
0.1 0.0 1:0.5 2:0.5 3:0.84 
0.1 0.1 1:0.5 2:0.5 3:0.54 
0.1 0.0 1:0.5 2:0.5 3:0.6666666666666666 
0.1 0.0 1:0.5 2:0.5 3:0.6666666666666666 
0.1 0.1 1:0.5 2:0.5 3:0.54 
0.1 0.1 1:0.5 2:0.5 3:0.54 
0.1 0.0 1:0.5 2:0.5 3:0.84 
0.1 0.0 1:0.5 2:0.5 3:0.754 
0.1 0.0 1:0.5 2:0.5 3:0.6666666666666666 
0.1 0.1 1:0.5 2:0.5 3:0.54 
0.1 0.0 1:0.5 2:0.5 3:0.6666666666666666 
0.1 0.1 1:0.5 2:0.5 3:0.54 
0.1 0.1 1:0.5 2:0.5 3:0.54 
0.1 0.0 1:0.5 2:0.5 3:0.6666666666666666 
0.1 0.0 1:0.5 2:0.5 3:0.754 
0.1 0.0 1:0.5 2:0.5 3:0.754 
0.1 0.0 1:0.5 2:0.5 3:0.6666666666666666 
0.1 0.1 1:0.5 2:0.5 3:0.54 
0.1 0.0 1:0.5 2:0.5 3:0.6666666666666666 
0.1 0.0 1:0.5 2:0.5 3:0.6666666666666666 
0.1 0.0 1:0.5 2:0.5 3:0.7142857142857143 
0.1 0.1 1:0.5 2:0.5 3:0.54 
0.1 0.1 1:0.5 2:0.5 3:0.0019474196689386564 
0.1 0.0 1:0.5 2:0.5 3:0.754 
0.1 0.0 1:0.5 2:0.5 3:0.754 
0.1 0.0 1:0.5 2:0.5 3:0.6666666666666666 
0.1 0.1 1:0.5 2:0.5 3:0.54 
0.1 0.1 1:0.5 2:0.5 3:0.005819592628516004 
0.1 0.1 1:0.5 2:0.5 3:0.3333333333333333 
0.1 0.0 1:0.5 2:0.5 3:0.6666666666666666 
0.1 0.0 1:0.5 2:0.5 3:0.7142857142857143 
0.1 0.0 1:0.5 2:0.5 3:0.7777777777777778 
0.1 0.1 1:0.5 2:0.5 3:0.3333333333333333 
0.1 0.1 1:0.5 2:0.5 3:0.54 
0.1 0.0 1:0.5 2:0.5 3:0.8333333333333335 
0.1 0.1 1:0.5 2:0.5 3:0.54 
0.1 0.0 1:0.5 2:0.5 3:0.6666666666666666 
0.1 0.0 1:0.5 2:0.5 3:0.6666666666666666 
0.1 0.0 1:0.5 2:0.5 3:0.6666666666666666 
0.1 0.1 1:0.5 2:0.5 3:0.0038872691933916426 
0.1 0.0 1:0.5 2:0.5 3:0.6666666666666666 
0.1 0.0 1:0.5 2:0.5 3:0.754 
0.1 0.0 1:0.5 2:0.5 3:0.8333333333333335 
0.1 0.0 1:0.5 2:0.5 3:0.6666666666666666 
0.1 0.0 1:0.5 2:0.5 3:0.84 
0.1 0.0 1:0.5 2:0.5 3:0.754 
0.1 0.0 1:0.5 2:0.5 3:0.754 
0.1 0.0 1:0.5 2:0.5 3:0.6666666666666666 
0.1 0.0 1:0.5 2:0.5 3:0.8333333333333335 
0.1 0.1 1:0.5 2:0.5 3:0.54 
0.1 0.0 1:0.5 2:0.5 3:0.6666666666666666 
0.1 0.1 1:0.5 2:0.5 3:0.84 
0.1 0.1 1:0.5 2:0.5 3:0.0029182879377431907 
0.1 0.0 1:0.5 2:0.5 3:0.754 
0.1 0.0 1:0.5 2:0.5 3:0.6666666666666666 
0.1 0.1 1:0.5 2:0.5 3:0.54 
0.1 0.0 1:0.5 2:0.5 3:0.6666666666666666 
0.1 0.1 1:0.5 2:0.5 3:0.54 
0.1 0.1 1:0.5 2:0.5 3:0.54 
0.1 0.1 1:0.5 2:0.5 3:0.54 
0.1 0.0 1:0.5 2:0.5 3:0.6666666666666666 
0.1 0.1 1:0.5 2:0.5 3:0.84 
0.1 0.1 1:0.5 2:0.5 3:0.54 
0.1 0.0 1:0.5 2:0.5 3:0.754 
0.1 0.0 1:0.5 2:0.5 3:0.64 
0.1 0.0 1:0.5 2:0.5 3:0.6666666666666666 
0.1 0.1 1:0.5 2:0.5 3:0.84 
0.1 0.0 1:0.5 2:0.5 3:0.6666666666666666 
0.0 0.1 1:0.5 2:0.5 3:0.9166666666666666 
0.1 0.0 1:0.5 2:0.5 3:0.6666666666666666 
0.1 0.0 1:0.5 2:0.5 3:0.8333333333333335 
0.1 0.1 1:0.5 2:0.5 3:0.54 
0.1 0.0 1:0.5 2:0.5 3:0.6666666666666666 
0.1 0.0 1:0.5 2:0.5 3:0.6666666666666666 
0.1 0.0 1:0.5 2:0.5 3:0.6666666666666666 
0.1 0.0 1:0.5 2:0.5 3:0.8333333333333335 
0.1 0.0 1:0.5 2:0.5 3:0.6666666666666666 
0.1 0.1 1:0.5 2:0.5 3:0.54 
0.1 0.0 1:0.5 2:0.5 3:0.6666666666666666 
0.1 0.1 1:0.5 2:0.5 3:0.84 
0.1 0.0 1:0.5 2:0.5 3:0.754 
0.1 0.1 1:0.5 2:0.5 3:0.84 
0.1 0.0 1:0.5 2:0.5 3:0.6666666666666666 
0.1 0.0 1:0.5 2:0.5 3:0.6666666666666666 
0.1 0.1 1:0.5 2:0.5 3:0.54 
0.1 0.1 1:0.5 2:0.5 3:0.3333333333333333 
0.1 0.0 1:0.5 2:0.5 3:0.6666666666666666 
0.1 0.1 1:0.5 2:0.5 3:0.3333333333333333 
0.1 0.0 1:0.5 2:0.5 3:0.6666666666666666 
0.1 0.0 1:0.5 2:0.5 3:0.6666666666666666 
0.0 0.1 1:0.5 2:0.5 3:0.8754 
0.1 0.0 1:0.5 2:0.5 3:0.754 
0.1 0.1 1:0.5 2:0.5 3:0.84 
0.1 0.0 1:0.5 2:0.5 3:0.6666666666666666 
0.1 0.0 1:0.5 2:0.5 3:0.754 
0.1 0.0 1:0.5 2:0.5 3:0.6666666666666666 
0.1 0.1 1:0.5 2:0.5 3:0.54 
0.1 0.0 1:0.5 2:0.5 3:0.6666666666666666 
0.1 0.1 1:0.5 2:0.5 3:0.84 
0.1 0.1 1:0.5 2:0.5 3:0.8571428571428571 
0.1 0.0 1:0.5 2:0.5 3:0.6666666666666666 
0.0 0.1 1:0.5 2:0.5 3:0.8888888888888888 
0.1 0.1 1:0.5 2:0.5 3:0.54 
0.1 0.0 1:0.5 2:0.5 3:0.6666666666666666 
0.1 0.0 1:0.5 2:0.5 3:0.754 
0.1 0.0 1:0.5 2:0.5 3:0.754 
0.1 0.0 1:0.5 2:0.5 3:0.6666666666666666 
0.1 0.0 1:0.5 2:0.5 3:0.6666666666666666 
0.1 0.1 1:0.5 2:0.5 3:0.0019474196689386564 
0.1 0.0 1:0.5 2:0.5 3:0.7142857142857143 
0.1 0.0 1:0.5 2:0.5 3:0.6666666666666666 
0.1 0.0 1:0.5 2:0.5 3:0.64 
0.1 0.0 1:0.5 2:0.5 3:0.754 
0.1 0.1 1:0.5 2:0.5 3:0.84 
0.1 0.1 1:0.5 2:0.5 3:0.54 
0.1 0.1 1:0.5 2:0.5 3:0.54 
0.1 0.1 1:0.5 2:0.5 3:0.84 
0.1 0.1 1:0.5 2:0.5 3:0.8571428571428571 
0.1 0.1 1:0.5 2:0.5 3:0.3333333333333333 
0.1 0.0 1:0.5 2:0.5 3:0.6666666666666666 
0.1 0.0 1:0.5 2:0.5 3:0.6666666666666666 
0.0 0.1 1:0.5 2:0.5 3:0.8754 
0.1 0.1 1:0.5 2:0.5 3:0.54 
0.1 0.0 1:0.5 2:0.5 3:0.754 
0.1 0.1 1:0.5 2:0.5 3:0.84 
0.1 0.1 1:0.5 2:0.5 3:1.6934514233459215E-54 
0.1 0.0 1:0.5 2:0.5 3:0.754 
0.1 0.1 1:0.5 2:0.5 3:0.54 
0.1 0.1 1:0.5 2:0.5 3:0.8571428571428571 
0.1 0.0 1:0.5 2:0.5 3:0.6666666666666666 
0.1 0.0 1:0.5 2:0.5 3:0.6666666666666666 
0.1 0.1 1:0.5 2:0.5 3:0.54 
0.1 0.1 1:0.5 2:0.5 3:0.3333333333333333 
0.1 0.1 1:0.5 2:0.5 3:0.3333333333333333 
0.1 0.0 1:0.5 2:0.5 3:0.6666666666666666 
0.1 0.0 1:0.5 2:0.5 3:0.6666666666666666 
0.1 0.0 1:0.5 2:0.5 3:0.64 
0.1 0.0 1:0.5 2:0.5 3:0.8333333333333335 
0.1 0.0 1:0.5 2:0.5 3:0.754 
0.1 0.0 1:0.5 2:0.5 3:0.64 
0.1 0.0 1:0.5 2:0.5 3:0.6666666666666666 
0.08707381010864677 0.1 1:0.5 2:0.5 3:0.8754 
0.1 0.0 1:0.5 2:0.5 3:0.64 
0.1 0.0 1:0.5 2:0.5 3:0.754 
0.1 0.1 1:0.5 2:0.5 3:0.54 
0.1 0.1 1:0.5 2:0.5 3:0.54 
0.1 0.0 1:0.5 2:0.5 3:0.8333333333333335 
0.1 0.1 1:0.5 2:0.5 3:0.3333333333333333 
0.1 0.0 1:0.5 2:0.5 3:0.754 
0.1 0.0 1:0.5 2:0.5 3:0.754 
0.1 0.0 1:0.5 2:0.5 3:0.754 
0.1 0.0 1:0.5 2:0.5 3:0.6666666666666666 
0.1 0.0 1:0.5 2:0.5 3:0.754 
0.1 0.0 1:0.5 2:0.5 3:0.6666666666666666 
0.1 0.1 1:0.5 2:0.5 3:0.54 
0.1 0.1 1:0.5 2:0.5 3:0.54 
0.1 0.0 1:0.5 2:0.5 3:0.754 
0.1 0.0 1:0.5 2:0.5 3:0.6666666666666666 
0.1 0.1 1:0.5 2:0.5 3:0.54 
0.1 0.1 1:0.5 2:0.5 3:0.54 
0.1 0.1 1:0.5 2:0.5 3:0.54 
0.1 0.1 1:0.5 2:0.5 3:0.54 
0.1 0.1 1:0.5 2:0.5 3:0.54 
0.1 0.0 1:0.5 2:0.5 3:0.64 
0.1 0.0 1:0.5 2:0.5 3:0.64 
0.1 0.0 1:0.5 2:0.5 3:0.6666666666666666 
0.1 0.1 1:0.5 2:0.5 3:0.54 
0.1 0.1 1:0.5 2:0.5 3:0.54 
0.1 0.1 1:0.5 2:0.5 3:0.54 
0.1 0.0 1:0.5 2:0.5 3:0.754 
0.1 0.1 1:0.5 2:0.5 3:0.54 
0.1 0.1 1:0.5 2:0.5 3:0.54 
0.1 0.0 1:0.5 2:0.5 3:0.8333333333333335 
0.1 0.1 1:0.5 2:0.5 3:0.8754 
0.1 0.1 1:0.5 2:0.5 3:0.6666666666666666 
0.1 0.1 1:0.5 2:0.5 3:0.54 
0.1 0.1 1:0.5 2:0.5 3:0.754 
0.1 0.1 1:0.5 2:0.5 3:0.6666666666666666 
0.1 0.1 1:0.5 2:0.5 3:0.7142857142857143 
0.1 0.1 1:0.5 2:0.5 3:0.54 
0.1 0.1 1:0.5 2:0.5 3:0.54 
0.1 0.1 1:0.5 2:0.5 3:0.54 
0.1 0.1 1:0.5 2:0.5 3:0.754 
0.1 0.1 1:0.5 2:0.5 3:0.754 
0.1 0.1 1:0.5 2:0.5 3:0.54 
0.1 0.1 1:0.5 2:0.5 3:0.8333333333333335 
0.1 0.1 1:0.5 2:0.5 3:0.754 
0.1 0.1 1:0.5 2:0.5 3:0.8333333333333335 
0.1 0.1 1:0.5 2:0.5 3:0.6666666666666666 
0.1 0.1 1:0.5 2:0.5 3:0.6666666666666666 
0.1 0.1 1:0.5 2:0.5 3:0.754 
0.1 0.1 1:0.5 2:0.5 3:0.64 
0.1 0.1 1:0.5 2:0.5 3:0.3333333333333333 
0.1 0.1 1:0.5 2:0.5 3:0.754 
0.1 0.1 1:0.5 2:0.5 3:0.754 
0.1 0.1 1:0.5 2:0.5 3:0.54 
0.1 0.1 1:0.5 2:0.5 3:0.754 
0.1 0.1 1:0.5 2:0.5 3:0.54 
0.1 0.1 1:0.5 2:0.5 3:0.6666666666666666 
0.1 0.1 1:0.5 2:0.5 3:0.84 
0.1 0.01388961135133683 1:0.5 2:0.5 3:0.64 
0.1 0.1 1:0.5 2:0.5 3:0.84 
0.1 0.1 1:0.5 2:0.5 3:0.54 
0.1 0.1 1:0.5 2:0.5 3:0.6666666666666666 
0.1 0.1 1:0.5 2:0.5 3:0.754 
0.1 0.1 1:0.5 2:0.5 3:0.54 
0.1 0.1 1:0.5 2:0.5 3:6.773461577539203E-54 
0.1 0.1 1:0.5 2:0.5 3:0.6666666666666666 
0.1 0.1 1:0.5 2:0.5 3:0.6666666666666666 
0.1 0.1 1:0.5 2:0.5 3:0.84 
0.1 0.1 1:0.5 2:0.5 3:0.6666666666666666 
0.1 0.1 1:0.5 2:0.5 3:0.8571428571428571 
0.1 0.1 1:0.5 2:0.5 3:0.54 
0.1 0.1 1:0.5 2:0.5 3:0.54 
0.1 0.1 1:0.5 2:0.5 3:0.6666666666666666 
0.1 0.1 1:0.5 2:0.5 3:0.54 
0.1 0.1 1:0.5 2:0.5 3:0.54 
0.1 0.1 1:0.5 2:0.5 3:0.54 
0.1 0.1 1:0.5 2:0.5 3:0.6666666666666666 
0.1 0.1 1:0.5 2:0.5 3:0.6666666666666666 
0.1 0.1 1:0.5 2:0.5 3:0.54 
-0.1 0.1 1:0.5 2:0.5 3:0.6666666666666666 
-0.1 0.0 1:0.5 2:0.5 3:0.3333333333333333 
-0.1 0.1 1:0.5 2:0.5 3:0.6666666666666666 
-0.1 0.0 1:0.5 2:0.5 3:0.3333333333333333 
-0.1 0.0 1:0.5 2:0.5 3:0.54 
-0.1 0.1 1:0.5 2:0.5 3:0.6666666666666666 
-0.1 0.1 1:0.5 2:0.5 3:0.6666666666666666 
-0.1 0.1 1:0.5 2:0.5 3:0.754 
-0.1 0.1 1:0.5 2:0.5 3:0.84 
-0.1 0.1 1:0.5 2:0.5 3:0.6666666666666666 
-0.1 0.1 1:0.5 2:0.5 3:0.754 
-0.1 0.0 1:0.5 2:0.5 3:0.54 
-0.1 0.0 1:0.5 2:0.5 3:0.54 
-0.1 0.0 1:0.5 2:0.5 3:0.54 
-0.1 0.1 1:0.5 2:0.5 3:0.754 
-0.1 0.1 1:0.5 2:0.5 3:0.6666666666666666 
-0.1 0.0 1:0.5 2:0.5 3:0.3333333333333333 
-0.1 0.0 1:0.5 2:0.5 3:0.54 
-0.1 0.0 1:0.5 2:0.5 3:0.54 
-0.1 0.1 1:0.5 2:0.5 3:0.754 
-0.08707381010864677 0.1 1:0.5 2:0.5 3:9.746588693957114E-44 
-0.1 0.0 1:0.5 2:0.5 3:0.54 
-0.1 0.1 1:0.5 2:0.5 3:0.754 
-0.1 0.1 1:0.5 2:0.5 3:0.0038872691933916426 
-0.1 0.0 1:0.5 2:0.5 3:0.54 
-0.1 0.1 1:0.5 2:0.5 3:0.6666666666666666 
-0.1 0.0 1:0.5 2:0.5 3:0.64 
-0.1 0.0 1:0.5 2:0.5 3:0.54 
-0.1 0.1 1:0.5 2:0.5 3:0.6666666666666666 
-0.1 0.0 1:0.5 2:0.5 3:0.3333333333333333 
-0.1 0.1 1:0.5 2:0.5 3:0.754 
-0.1 0.1 1:0.5 2:0.5 3:0.7142857142857143 
-0.1 0.1 1:0.5 2:0.5 3:0.7142857142857143 
-0.1 0.0 1:0.5 2:0.5 3:0.54 
-0.1 0.1 1:0.5 2:0.5 3:0.6666666666666666 
-0.1 0.1 1:0.5 2:0.5 3:0.754 
-0.1 0.0 1:0.5 2:0.5 3:0.54 
-0.1 0.0 1:0.5 2:0.5 3:0.54 
-0.1 0.1 1:0.5 2:0.5 3:0.6666666666666666 
-0.1 0.1 1:0.5 2:0.5 3:0.6666666666666666 
-0.1 0.0 1:0.5 2:0.5 3:0.54 
-0.1 0.1 1:0.5 2:0.5 3:0.6666666666666666 
-0.1 0.1 1:0.5 2:0.5 3:2.047999370854593E-74 
-0.1 0.0 1:0.5 2:0.5 3:0.54 
-0.1 0.0 1:0.5 2:0.5 3:0.3333333333333333 
-0.1 0.0 1:0.5 2:0.5 3:0.3333333333333333 
-0.1 0.0 1:0.5 2:0.5 3:0.54 
-0.1 0.1 1:0.5 2:0.5 3:0.6666666666666666 
-0.1 0.0 1:0.5 2:0.5 3:0.54 
-0.1 0.0 1:0.5 2:0.5 3:0.54 
-0.1 0.0 1:0.5 2:0.5 3:0.3333333333333333 
-0.1 0.0 1:0.5 2:0.5 3:0.54 
-0.1 0.0 1:0.5 2:0.5 3:0.54 
-0.1 0.1 1:0.5 2:0.5 3:0.6666666666666666 
-0.1 0.1 1:0.5 2:0.5 3:0.0019474196689386564 
-0.1 0.0 1:0.5 2:0.5 3:0.54 
-0.1 0.0 1:0.5 2:0.5 3:0.54 
-0.1 0.1 1:0.5 2:0.5 3:0.6666666666666666 
-0.1 0.1 1:0.5 2:0.5 3:0.6666666666666666 
-0.1 0.0 1:0.5 2:0.5 3:0.54 
-0.1 0.1 1:0.5 2:0.5 3:0.0029182879377431907 
-0.1 0.0 1:0.5 2:0.5 3:0.54 
-0.1 0.1 1:0.5 2:0.5 3:0.6666666666666666 
-0.1 0.0 1:0.5 2:0.5 3:0.54 
-0.1 0.0 1:0.5 2:0.5 3:0.64 
-0.1 0.0 1:0.5 2:0.5 3:0.54 
-0.1 0.0 1:0.5 2:0.5 3:0.54 
-0.1 0.0 1:0.5 2:0.5 3:0.3333333333333333 
-0.1 0.0 1:0.5 2:0.5 3:0.54 
-0.1 0.0 1:0.5 2:0.5 3:0.54 
-0.1 0.1 1:0.5 2:0.5 3:0.6666666666666666 
-0.1 0.1 1:0.5 2:0.5 3:0.6666666666666666 
-0.1 0.1 1:0.5 2:0.5 3:0.6666666666666666 
-0.1 0.1 1:0.5 2:0.5 3:0.84 
-0.1 0.1 1:0.5 2:0.5 3:0.6666666666666666 
-0.1 0.0 1:0.5 2:0.5 3:0.3333333333333333 
-0.1 0.1 1:0.5 2:0.5 3:0.6666666666666666 
-0.1 0.1 1:0.5 2:0.5 3:0.84 
-0.1 0.1 1:0.5 2:0.5 3:0.84 
-0.1 0.0 1:0.5 2:0.5 3:0.54 
-0.1 0.1 1:0.5 2:0.5 3:0.754 
-0.1 0.1 1:0.5 2:0.5 3:0.754 
-0.1 0.0 1:0.5 2:0.5 3:0.3333333333333333 
-0.1 0.1 1:0.5 2:0.5 3:0.754 
-0.1 0.1 1:0.5 2:0.5 3:0.6666666666666666 
-0.1 0.0 1:0.5 2:0.5 3:0.54 
-0.1 0.1 1:0.5 2:0.5 3:0.0019474196689386564 
-0.1 0.1 1:0.5 2:0.5 3:0.7142857142857143 
-0.1 0.1 1:0.5 2:0.5 3:0.7142857142857143 
-0.1 0.1 1:0.5 2:0.5 3:0.6666666666666666 
-0.1 0.1 1:0.5 2:0.5 3:0.6666666666666666 
-0.1 0.0 1:0.5 2:0.5 3:0.54 
-0.1 0.1 1:0.5 2:0.5 3:9.746588693957114E-44 
-0.1 0.0 1:0.5 2:0.5 3:0.64 
-0.1 0.1 1:0.5 2:0.5 3:0.8333333333333335 
-0.1 0.1 1:0.5 2:0.5 3:0.754 
-0.1 0.1 1:0.5 2:0.5 3:0.754 
-0.1 0.1 1:0.5 2:0.5 3:0.6666666666666666 
-0.1 0.1 1:0.5 2:0.5 3:9.536724974203159E-74 
-0.1 0.0 1:0.5 2:0.5 3:0.54 
-0.1 0.1 1:0.5 2:0.5 3:0.6666666666666666 
-0.1 0.1 1:0.5 2:0.5 3:0.6666666666666666 
-0.1 0.1 1:0.5 2:0.5 3:0.8571428571428571 
-0.1 0.0 1:0.5 2:0.5 3:0.3333333333333333 
-0.1 0.0 1:0.5 2:0.5 3:0.3333333333333333 
-0.1 0.1 1:0.5 2:0.5 3:0.6666666666666666 
-0.1 0.0 1:0.5 2:0.5 3:0.54 
-0.1 0.0 1:0.5 2:0.5 3:0.54 
-0.1 0.1 1:0.5 2:0.5 3:8.466683600033866E-54 
-0.1 0.0 1:0.5 2:0.5 3:0.3333333333333333 
-0.1 0.1 1:0.5 2:0.5 3:0.6666666666666666 
-0.1 0.1 1:0.5 2:0.5 3:0.6666666666666666 
-0.1 0.0 1:0.5 2:0.5 3:0.3333333333333333 
-0.1 0.0 1:0.5 2:0.5 3:0.3333333333333333 
-0.1 0.0 1:0.5 2:0.5 3:0.54 
-0.1 0.0 1:0.5 2:0.5 3:0.54 
-0.1 0.1 1:0.5 2:0.5 3:9.536724974203159E-74 
-0.1 0.1 1:0.5 2:0.5 3:0.6666666666666666 
-0.1 0.0 1:0.5 2:0.5 3:0.3333333333333333 
-0.1 0.1 1:0.5 2:0.5 3:0.6666666666666666 
-0.1 0.1 1:0.5 2:0.5 3:0.754 
-0.1 0.0 1:0.5 2:0.5 3:0.54 
-0.1 0.1 1:0.5 2:0.5 3:0.6666666666666666 
-0.1 0.0 1:0.5 2:0.5 3:0.3333333333333333 
-0.1 0.1 1:0.5 2:0.5 3:0.6666666666666666 
-0.1 0.1 1:0.5 2:0.5 3:9.746588693957114E-44 
-0.1 0.1 1:0.5 2:0.5 3:0.6666666666666666 
-0.1 0.0 1:0.5 2:0.5 3:0.54 
-0.1 0.1 1:0.5 2:0.5 3:0.6666666666666666 
-0.1 0.1 1:0.5 2:0.5 3:0.6666666666666666 
-0.1 0.1 1:0.5 2:0.5 3:0.6666666666666666 
-0.1 0.1 1:0.5 2:0.5 3:0.6666666666666666 
-0.1 0.0 1:0.5 2:0.5 3:0.54 
-0.1 0.1 1:0.5 2:0.5 3:0.754 
-0.1 0.0 1:0.5 2:0.5 3:0.54 
-0.1 0.1 1:0.5 2:0.5 3:0.84 
-0.1 0.0 1:0.5 2:0.5 3:0.3333333333333333 
-0.1 0.1 1:0.5 2:0.5 3:0.6666666666666666 
-0.1 0.0 1:0.5 2:0.5 3:0.005819592628516004 
-0.1 0.1 1:0.5 2:0.5 3:0.84 
-0.1 0.0 1:0.5 2:0.5 3:0.54 
-0.1 0.1 1:0.5 2:0.5 3:0.84 
-0.1 0.0 1:0.5 2:0.5 3:0.3333333333333333 
-0.1 0.0 1:0.5 2:0.5 3:0.3333333333333333 
-0.1 0.1 1:0.5 2:0.5 3:0.84 
-0.1 0.1 1:0.5 2:0.5 3:0.6666666666666666 
-0.1 0.0 1:0.5 2:0.5 3:0.54 
-0.1 0.1 1:0.5 2:0.5 3:5.0801822092019033E-54 
-0.1 0.1 1:0.5 2:0.5 3:0.84 
-0.1 0.0 1:0.5 2:0.5 3:0.54 
-0.1 0.1 1:0.5 2:0.5 3:0.64 
-0.1 0.1 1:0.5 2:0.5 3:0.64 
-0.1 0.1 1:0.5 2:0.5 3:0.6666666666666666 
-0.1 0.0 1:0.5 2:0.5 3:0.54 
-0.1 0.0 1:0.5 2:0.5 3:0.54 
-0.1 0.1 1:0.5 2:0.5 3:0.6666666666666666 
-0.1 0.0 1:0.5 2:0.5 3:0.3333333333333333 
-0.1 0.0 1:0.5 2:0.5 3:0.54 
-0.1 0.0 1:0.5 2:0.5 3:0.54 
-0.1 0.1 1:0.5 2:0.5 3:0.8333333333333335 
-0.1 0.0 1:0.5 2:0.5 3:0.54 
-0.1 0.0 1:0.5 2:0.5 3:0.54 
-0.1 0.0 1:0.5 2:0.5 3:0.54 
-0.1 0.1 1:0.5 2:0.5 3:0.754 
-0.1 0.1 1:0.5 2:0.5 3:0.64 
-0.1 0.1 1:0.5 2:0.5 3:0.6666666666666666 
-0.1 0.0 1:0.5 2:0.5 3:0.3333333333333333 
-0.1 0.0 1:0.5 2:0.5 3:0.54 
-0.1 0.0 1:0.5 2:0.5 3:0.54 
-0.1 0.0 1:0.5 2:0.5 3:0.54 
-0.1 0.1 1:0.5 2:0.5 3:0.84 
-0.1 0.0 1:0.5 2:0.5 3:0.54 
-0.1 0.1 1:0.5 2:0.5 3:0.6666666666666666 
-0.1 0.0 1:0.5 2:0.5 3:0.54 
-0.1 0.0 1:0.5 2:0.5 3:0.54 
-0.1 0.1 1:0.5 2:0.5 3:0.6666666666666666 
-0.1 0.0 1:0.5 2:0.5 3:0.54 
-0.1 0.1 1:0.5 2:0.5 3:3.8146790758177E-64 
-0.1 0.1 1:0.5 2:0.5 3:0.7142857142857143 
-0.1 0.0 1:0.5 2:0.5 3:0.54 
-0.1 0.0 1:0.5 2:0.5 3:0.54 
-0.1 0.1 1:0.5 2:0.5 3:0.0019474196689386564 
-0.1 0.1 1:0.5 2:0.5 3:0.6666666666666666 
-0.1 0.0 1:0.5 2:0.5 3:0.54 
-0.1 0.0 1:0.5 2:0.5 3:0.54 
-0.1 0.1 1:0.5 2:0.5 3:0.0019474196689386564 
-0.1 0.1 1:0.5 2:0.5 3:0.6666666666666666 
-0.1 0.1 1:0.5 2:0.5 3:0.6666666666666666 
-0.1 0.0 1:0.5 2:0.5 3:0.54 
-0.1 0.0 1:0.5 2:0.5 3:0.3333333333333333 
-0.1 0.1 1:0.5 2:0.5 3:0.754 
-0.1 0.0 1:0.5 2:0.5 3:0.54 
-0.1 0.0 1:0.5 2:0.5 3:0.54 
-0.1 0.0 1:0.5 2:0.5 3:0.54 
-0.1 0.0 1:0.5 2:0.5 3:0.3333333333333333 
-0.1 0.0 1:0.5 2:0.5 3:0.54 
-0.1 0.1 1:0.5 2:0.5 3:9.746588693957114E-44 
-0.1 0.1 1:0.5 2:0.5 3:0.6666666666666666 
-0.1 0.0 1:0.5 2:0.5 3:0.54 
-0.1 0.0 1:0.5 2:0.5 3:0.54 
-0.1 0.1 1:0.5 2:0.5 3:0.6666666666666666 
-0.1 0.0 1:0.5 2:0.5 3:0.54 
-0.1 0.1 1:0.5 2:0.5 3:0.0029182879377431907 
-0.1 0.0 1:0.5 2:0.5 3:0.54 
-0.1 0.1 1:0.5 2:0.5 3:0.754 
-0.1 0.1 1:0.5 2:0.5 3:0.6666666666666666 
-0.1 0.0 1:0.5 2:0.5 3:0.3333333333333333 
-0.1 0.1 1:0.5 2:0.5 3:0.6666666666666666 
-0.1 0.1 1:0.5 2:0.5 3:0.6666666666666666 
-0.1 0.0 1:0.5 2:0.5 3:0.3333333333333333 
-0.1 0.1 1:0.5 2:0.5 3:0.84 
-0.1 0.0 1:0.5 2:0.5 3:0.54 
-0.1 0.1 1:0.5 2:0.5 3:0.0029182879377431907 
-0.1 0.0 1:0.5 2:0.5 3:0.54 
-0.1 0.1 1:0.5 2:0.5 3:0.64 
-0.1 0.0 1:0.5 2:0.5 3:0.54 
-0.1 0.0 1:0.5 2:0.5 3:0.54 
-0.1 0.1 1:0.5 2:0.5 3:5.0801822092019033E-54 
-0.1 0.1 1:0.5 2:0.5 3:0.64 
-0.1 0.1 1:0.5 2:0.5 3:0.6666666666666666 
-0.1 0.1 1:0.5 2:0.5 3:0.6666666666666666 
-0.1 0.1 1:0.5 2:0.5 3:0.6666666666666666 
-0.1 0.1 1:0.5 2:0.5 3:0.754 
-0.1 0.1 1:0.5 2:0.5 3:0.754 
-0.1 0.0 1:0.5 2:0.5 3:0.54 
-0.1 0.0 1:0.5 2:0.5 3:0.54 
-0.1 0.1 1:0.5 2:0.5 3:0.6666666666666666 
-0.1 0.1 1:0.5 2:0.5 3:0.6666666666666666 
-0.1 0.1 1:0.5 2:0.5 3:0.754 
-0.1 0.0 1:0.5 2:0.5 3:0.0048543689320388345 
-0.1 0.0 1:0.5 2:0.5 3:0.54 
-0.1 0.1 1:0.5 2:0.5 3:0.6666666666666666 
-0.1 0.1 1:0.5 2:0.5 3:1.9073431758599017E-64 
-0.1 0.0 1:0.5 2:0.5 3:0.3333333333333333 
-0.1 0.1 1:0.5 2:0.5 3:0.0019474196689386564 
-0.1 -0.1 1:0.5 2:0.5 3:0.754 
-0.1 -0.1 1:0.5 2:0.5 3:0.0029182879377431907 
-0.1 -0.1 1:0.5 2:0.5 3:0.54 
-0.1 -0.1 1:0.5 2:0.5 3:0.54 
-0.1 -0.1 1:0.5 2:0.5 3:0.7142857142857143 
-0.1 -0.1 1:0.5 2:0.5 3:0.0038872691933916426 
-0.1 -0.1 1:0.5 2:0.5 3:0.6666666666666666 
-0.1 -0.1 1:0.5 2:0.5 3:0.6666666666666666 
-0.1 -0.1 1:0.5 2:0.5 3:0.54 
-0.1 -0.1 1:0.5 2:0.5 3:0.754 
-0.1 -0.1 1:0.5 2:0.5 3:0.54 
-0.1 -0.1 1:0.5 2:0.5 3:0.54 
-0.1 -0.1 1:0.5 2:0.5 3:0.64 
-0.1 -0.1 1:0.5 2:0.5 3:0.64 
-0.1 -0.1 1:0.5 2:0.5 3:0.6666666666666666 
-0.1 -0.1 1:0.5 2:0.5 3:0.6666666666666666 
-0.1 -0.1 1:0.5 2:0.5 3:0.6666666666666666 
-0.1 -0.1 1:0.5 2:0.5 3:0.54 
-0.1 -0.1 1:0.5 2:0.5 3:0.6666666666666666 
-0.1 -0.1 1:0.5 2:0.5 3:0.54 
-0.1 -0.1 1:0.5 2:0.5 3:0.84 
-0.1 -0.1 1:0.5 2:0.5 3:0.3333333333333333 
-0.1 -0.1 1:0.5 2:0.5 3:0.54 
-0.1 -0.1 1:0.5 2:0.5 3:0.6666666666666666 
-0.1 -0.1 1:0.5 2:0.5 3:0.54 
-0.1 -0.1 1:0.5 2:0.5 3:0.64 
-0.1 -0.1 1:0.5 2:0.5 3:0.754 
-0.1 -0.1 1:0.5 2:0.5 3:0.54 
-0.1 -0.1 1:0.5 2:0.5 3:0.6666666666666666 
-0.1 -0.1 1:0.5 2:0.5 3:0.6666666666666666 
-0.1 -0.1 1:0.5 2:0.5 3:0.64 
-0.1 -0.1 1:0.5 2:0.5 3:0.3333333333333333 
-0.1 -0.1 1:0.5 2:0.5 3:0.54 
-0.1 -0.1 1:0.5 2:0.5 3:0.64 
-0.1 -0.1 1:0.5 2:0.5 3:0.0029182879377431907 
-0.1 -0.1 1:0.5 2:0.5 3:0.6666666666666666 
-0.1 -0.1 1:0.5 2:0.5 3:0.54 
-0.1 -0.1 1:0.5 2:0.5 3:0.754 
-0.1 -0.1 1:0.5 2:0.5 3:9.746588693957114E-44 
-0.1 -0.1 1:0.5 2:0.5 3:0.754 
-0.1 -0.1 1:0.5 2:0.5 3:0.54 
-0.1 -0.1 1:0.5 2:0.5 3:0.6666666666666666 
-0.1 -0.1 1:0.5 2:0.5 3:0.54 
-0.1 -0.1 1:0.5 2:0.5 3:0.54 
-0.1 -0.1 1:0.5 2:0.5 3:0.6666666666666666 
-0.1 -0.1 1:0.5 2:0.5 3:0.64 
-0.1 -0.1 1:0.5 2:0.5 3:0.54 
-0.1 -0.1 1:0.5 2:0.5 3:0.54 
-0.1 -0.1 1:0.5 2:0.5 3:0.6666666666666666 
-0.1 -0.1 1:0.5 2:0.5 3:0.7142857142857143 
-0.1 -0.1 1:0.5 2:0.5 3:0.3333333333333333 
-0.1 -0.1 1:0.5 2:0.5 3:0.54 
-0.1 -0.1 1:0.5 2:0.5 3:0.8888888888888888 
-0.1 -0.1 1:0.5 2:0.5 3:0.64 
-0.1 -0.1 1:0.5 2:0.5 3:0.6666666666666666 
-0.1 -0.1 1:0.5 2:0.5 3:0.3333333333333333 
-0.1 -0.1 1:0.5 2:0.5 3:0.84 
-0.1 -0.1 1:0.5 2:0.5 3:0.54 
-0.1 -0.1 1:0.5 2:0.5 3:0.754 
-0.1 -0.1 1:0.5 2:0.5 3:0.8333333333333335 
-0.1 -0.1 1:0.5 2:0.5 3:0.8333333333333335 
-0.1 -0.1 1:0.5 2:0.5 3:0.6666666666666666 
-0.1 -0.1 1:0.5 2:0.5 3:0.54 
-0.1 -0.1 1:0.5 2:0.5 3:0.54 
-0.1 -0.1 1:0.5 2:0.5 3:0.8333333333333335 
-0.1 -0.1 1:0.5 2:0.5 3:0.54 
-0.1 -0.1 1:0.5 2:0.5 3:0.54 
-0.1 -0.1 1:0.5 2:0.5 3:0.54 
-0.1 -0.1 1:0.5 2:0.5 3:0.54 
-0.1 -0.1 1:0.5 2:0.5 3:0.6666666666666666 
-0.1 -0.1 1:0.5 2:0.5 3:0.54 
-0.1 -0.1 1:0.5 2:0.5 3:0.54 
-0.1 -0.1 1:0.5 2:0.5 3:0.3333333333333333 
-0.1 -0.1 1:0.5 2:0.5 3:0.6666666666666666 
-0.1 -0.1 1:0.5 2:0.5 3:0.84 
-0.1 -0.1 1:0.5 2:0.5 3:0.754 
-0.1 -0.1 1:0.5 2:0.5 3:0.6666666666666666 
-0.1 -0.1 1:0.5 2:0.5 3:0.84 
-0.1 -0.1 1:0.5 2:0.5 3:0.8571428571428571 
-0.1 -0.1 1:0.5 2:0.5 3:0.8333333333333335 
-0.1 -0.1 1:0.5 2:0.5 3:0.6666666666666666 
-0.1 -0.1 1:0.5 2:0.5 3:0.54 
-0.1 -0.1 1:0.5 2:0.5 3:0.54 
-0.1 -0.1 1:0.5 2:0.5 3:0.64 
-0.1 -0.1 1:0.5 2:0.5 3:0.54 
-0.1 -0.1 1:0.5 2:0.5 3:0.54 
-0.1 -0.1 1:0.5 2:0.5 3:0.54 
-0.1 -0.1 1:0.5 2:0.5 3:0.54 
-0.1 -0.1 1:0.5 2:0.5 3:0.754 
-0.1 -0.1 1:0.5 2:0.5 3:0.7142857142857143 
-0.1 -0.1 1:0.5 2:0.5 3:0.64 
-0.1 -0.1 1:0.5 2:0.5 3:0.6666666666666666 
-0.1 -0.1 1:0.5 2:0.5 3:0.54 
-0.1 -0.1 1:0.5 2:0.5 3:0.54 
-0.1 -0.1 1:0.5 2:0.5 3:0.6666666666666666 
-0.1 -0.1 1:0.5 2:0.5 3:0.64 
-0.1 -0.1 1:0.5 2:0.5 3:0.54 
-0.1 -0.1 1:0.5 2:0.5 3:0.54 
-0.1 -0.1 1:0.5 2:0.5 3:0.54 
-0.1 -0.1 1:0.5 2:0.5 3:0.6666666666666666 
-0.1 -0.1 1:0.5 2:0.5 3:0.3333333333333333 
-0.1 -0.1 1:0.5 2:0.5 3:0.3333333333333333 
-0.1 -0.1 1:0.5 2:0.5 3:0.0038872691933916426 
-0.1 -0.1 1:0.5 2:0.5 3:0.84 
-0.1 -0.1 1:0.5 2:0.5 3:0.6666666666666666 
-0.1 -0.1 1:0.5 2:0.5 3:0.54 
-0.1 -0.1 1:0.5 2:0.5 3:0.8333333333333335 
-0.1 -0.1 1:0.5 2:0.5 3:0.54 
-0.1 -0.1 1:0.5 2:0.5 3:0.8333333333333335 
-0.1 -0.1 1:0.5 2:0.5 3:0.3333333333333333 
-0.1 -0.1 1:0.5 2:0.5 3:0.6666666666666666 
-0.1 -0.1 1:0.5 2:0.5 3:0.54 
-0.1 -0.1 1:0.5 2:0.5 3:0.54 
-0.1 -0.1 1:0.5 2:0.5 3:0.54 
-0.1 -0.1 1:0.5 2:0.5 3:0.6666666666666666 
-0.1 -0.1 1:0.5 2:0.5 3:0.54 
-0.1 -0.1 1:0.5 2:0.5 3:0.3333333333333333 
-0.1 -0.1 1:0.5 2:0.5 3:0.6666666666666666 
-0.1 -0.1 1:0.5 2:0.5 3:0.6666666666666666 
-0.1 -0.1 1:0.5 2:0.5 3:0.3333333333333333 
-0.1 -0.1 1:0.5 2:0.5 3:0.54 
-0.1 -0.1 1:0.5 2:0.5 3:0.6666666666666666 
-0.1 -0.1 1:0.5 2:0.5 3:0.64 
-0.1 -0.1 1:0.5 2:0.5 3:0.754 
-0.1 -0.1 1:0.5 2:0.5 3:0.54 
-0.1 -0.1 1:0.5 2:0.5 3:0.54 
