svm_type c_svc
kernel_type linear
nr_class 3
total_sv 600
rho -1.0 -1.0003738045692447 -0.9999993507085931
label 0 1 2
nr_sv 258 252 90
SV
0.1 0.0 1:0.5 2:0.5 3:8.466683600033866E-54 
0.1 0.0 1:0.5 2:0.5 3:0.54 
0.1 0.0 1:0.5 2:0.5 3:0.54 
0.1 0.0 1:0.5 2:0.5 3:0.64 
0.1 0.0 1:0.5 2:0.5 3:0.54 
0.1 0.0 1:0.5 2:0.5 3:0.54 
0.1 0.0 1:0.5 2:0.5 3:0.54 
0.1 0.0 1:0.5 2:0.5 3:0.3333333333333333 
0.1 0.0 1:0.5 2:0.5 3:0.54 
0.1 0.0 1:0.5 2:0.5 3:0.6666666666666666 
0.1 0.0 1:0.5 2:0.5 3:0.64 
0.1 0.1 1:0.5 2:0.5 3:0.8333333333333335 
0.1 0.0 1:0.5 2:0.5 3:0.54 
0.1 0.0 1:0.5 2:0.5 3:0.005819592628516004 
0.1 0.0 1:0.5 2:0.5 3:0.0038872691933916426 
0.1 0.0 1:0.5 2:0.5 3:8.269085023426814E-84 
0.1 0.0 1:0.5 2:0.5 3:0.3333333333333333 
0.1 0.0 1:0.5 2:0.5 3:0.3333333333333333 
0.1 0.0 1:0.5 2:0.5 3:0.54 
0.1 0.0 1:0.5 2:0.5 3:9.746588693957114E-44 
0.1 0.0 1:0.5 2:0.5 3:0.54 
0.1 0.1 1:0.5 2:0.5 3:0.8333333333333335 
0.1 0.0 1:0.5 2:0.5 3:1.6934514233459215E-54 
0.1 0.0 1:0.5 2:0.5 3:2.047999370854593E-74 
0.1 0.0 1:0.5 2:0.5 3:0.3333333333333333 
0.1 0.0 1:0.5 2:0.5 3:0.0029182879377431907 
0.1 0.0 1:0.5 2:0.5 3:0.0019474196689386564 
0.1 0.0 1:0.5 2:0.5 3:0.54 
0.1 0.0 1:0.5 2:0.5 3:0.54 
0.1 0.0 1:0.5 2:0.5 3:0.54 
0.1 0.0 1:0.5 2:0.5 3:0.6666666666666666 
0.1 0.0 1:0.5 2:0.5 3:0.6666666666666666 
0.1 0.0 1:0.5 2:0.5 3:0.0019474196689386564 
0.1 0.0 1:0.5 2:0.5 3:0.54 
0.1 0.0 1:0.5 2:0.5 3:5.0801822092019033E-54 
0.1 0.0 1:0.5 2:0.5 3:0.006782945736434108 
0.1 0.0 1:0.5 2:0.5 3:6.773461577539203E-54 
0.1 0.1 1:0.5 2:0.5 3:0.84 
0.1 0.0 1:0.5 2:0.5 3:0.0038872691933916426 
0.1 0.0 1:0.5 2:0.5 3:3.38684549210865E-54 
0.1 0.0 1:0.5 2:0.5 3:9.746588693957114E-44 
0.1 0.0 1:0.5 2:0.5 3:0.6666666666666666 
0.1 0.1 1:0.5 2:0.5 3:0.754 
0.1 0.0 1:0.5 2:0.5 3:0.54 
0.1 0.0 1:0.5 2:0.5 3:0.0048543689320388345 
0.1 0.0 1:0.5 2:0.5 3:0.6666666666666666 
0.1 0.0 1:0.5 2:0.5 3:0.64 
0.1 0.1 1:0.5 2:0.5 3:0.754 
0.1 0.0 1:0.5 2:0.5 3:0.005819592628516004 
0.1 0.0 1:0.5 2:0.5 3:0.6666666666666666 
0.1 0.0 1:0.5 2:0.5 3:0.3333333333333333 
0.1 0.0 1:0.5 2:0.5 3:0.6666666666666666 
0.1 0.0 1:0.5 2:0.5 3:0.6666666666666666 
0.1 0.0 1:0.5 2:0.5 3:0.6666666666666666 
0.1 0.0 1:0.5 2:0.5 3:0.6666666666666666 
0.1 0.0 1:0.5 2:0.5 3:0.54 
0.1 0.1 1:0.5 2:0.5 3:0.754 
0.1 0.0 1:0.5 2:0.5 3:0.6666666666666666 
0.1 0.0 1:0.5 2:0.5 3:0.6666666666666666 
0.1 0.0 1:0.5 2:0.5 3:0.0048543689320388345 
0.1 0.0 1:0.5 2:0.5 3:0.54 
0.1 0.0 1:0.5 2:0.5 3:0.54 
0.1 0.0 1:0.5 2:0.5 3:0.54 
0.1 0.0 1:0.5 2:0.5 3:3.38684549210865E-54 
0.1 0.0 1:0.5 2:0.5 3:0.54 
0.1 0.0 1:0.5 2:0.5 3:0.6666666666666666 
0.1 0.0 1:0.5 2:0.5 3:3.38684549210865E-54 
0.1 0.0 1:0.5 2:0.5 3:0.54 
0.1 0.0 1:0.5 2:0.5 3:0.005819592628516004 
0.1 0.0 1:0.5 2:0.5 3:9.746588693957114E-44 
0.1 0.0 1:0.5 2:0.5 3:0.54 
0.1 0.0 1:0.5 2:0.5 3:2.047999370854593E-74 
0.1 0.1 1:0.5 2:0.5 3:0.754 
0.1 0.0 1:0.5 2:0.5 3:0.54 
0.1 0.0 1:0.5 2:0.5 3:0.0019474196689386564 
0.1 0.0 1:0.5 2:0.5 3:0.0029182879377431907 
0.1 0.0 1:0.5 2:0.5 3:0.3333333333333333 
0.1 0.0 1:0.5 2:0.5 3:0.0019474196689386564 
0.1 0.0 1:0.5 2:0.5 3:1.6934514233459215E-54 
0.1 0.1 1:0.5 2:0.5 3:2.698803025174318E-104 
0.1 0.0 1:0.5 2:0.5 3:0.3333333333333333 
0.1 0.1 1:0.5 2:0.5 3:9.313225650744996E-94 
0.1 0.1 1:0.5 2:0.5 3:0.754 
0.1 0.0 1:0.5 2:0.5 3:0.6666666666666666 
0.1 0.1 1:0.5 2:0.5 3:5.0801822092019033E-54 
0.1 0.1 1:0.5 2:0.5 3:9.746588693957114E-44 
0.1 0.0 1:0.5 2:0.5 3:0.0038872691933916426 
0.1 0.0 1:0.5 2:0.5 3:0.54 
0.1 0.0 1:0.5 2:0.5 3:0.6666666666666666 
0.1 0.0 1:0.5 2:0.5 3:0.0029182879377431907 
0.1 0.0 1:0.5 2:0.5 3:0.54 
0.1 0.0 1:0.5 2:0.5 3:0.6666666666666666 
0.1 0.1 1:0.5 2:0.5 3:1.6934514233459215E-54 
0.1 0.1 1:0.5 2:0.5 3:9.746588693957114E-44 
0.1 0.0 1:0.5 2:0.5 3:0.3333333333333333 
0.1 0.0 1:0.5 2:0.5 3:0.0019474196689386564 
0.1 0.1 1:0.5 2:0.5 3:0.8571428571428571 
0.1 0.1 1:0.5 2:0.5 3:3.54013314957635E-94 
0.1 0.1 1:0.5 2:0.5 3:1.6934514233459215E-54 
0.1 0.0 1:0.5 2:0.5 3:0.54 
0.1 0.0 1:0.5 2:0.5 3:0.54 
0.1 0.1 1:0.5 2:0.5 3:0.7142857142857143 
0.1 0.0 1:0.5 2:0.5 3:0.6666666666666666 
0.1 0.0 1:0.5 2:0.5 3:0.005819592628516004 
0.1 0.0 1:0.5 2:0.5 3:0.6666666666666666 
0.1 0.1 1:0.5 2:0.5 3:6.773461577539203E-54 
0.1 0.0 1:0.5 2:0.5 3:0.6666666666666666 
0.1 0.1 1:0.5 2:0.5 3:0.754 
0.1 0.0 1:0.5 2:0.5 3:0.0019474196689386564 
0.1 0.0 1:0.5 2:0.5 3:0.54 
0.1 0.1 1:0.5 2:0.5 3:0.754 
0.1 0.0 1:0.5 2:0.5 3:0.54 
0.1 0.0 1:0.5 2:0.5 3:0.54 
0.1 0.1 1:0.5 2:0.5 3:1.6934514233459215E-54 
0.1 0.0 1:0.5 2:0.5 3:0.6666666666666666 
0.1 0.0 1:0.5 2:0.5 3:0.6666666666666666 
0.1 0.0 1:0.5 2:0.5 3:0.54 
0.1 0.1 1:0.5 2:0.5 3:0.754 
0.1 0.0 1:0.5 2:0.5 3:0.6666666666666666 
0.1 0.0 1:0.5 2:0.5 3:0.54 
0.1 0.0 1:0.5 2:0.5 3:0.3333333333333333 
0.1 0.0 1:0.5 2:0.5 3:0.6666666666666666 
0.1 0.0 1:0.5 2:0.5 3:0.6666666666666666 
0.1 0.0 1:0.5 2:0.5 3:0.54 
0.1 0.1 1:0.5 2:0.5 3:6.773461577539203E-54 
0.1 0.1 1:0.5 2:0.5 3:6.773461577539203E-54 
0.1 0.0 1:0.5 2:0.5 3:0.54 
0.1 0.1 1:0.5 2:0.5 3:1.77006654972309E-84 
0.1 0.1 1:0.5 2:0.5 3:0.8333333333333335 
0.1 0.0 1:0.5 2:0.5 3:0.0019474196689386564 
0.1 0.0 1:0.5 2:0.5 3:0.54 
0.1 0.0 1:0.5 2:0.5 3:0.6666666666666666 
0.1 0.0 1:0.5 2:0.5 3:0.54 
0.1 0.1 1:0.5 2:0.5 3:0.754 
0.1 0.1 1:0.5 2:0.5 3:3.9691595640347906E-74 
0.1 0.0 1:0.5 2:0.5 3:0.0038872691933916426 
0.1 0.0 1:0.5 2:0.5 3:0.0019474196689386564 
0.1 0.1 1:0.5 2:0.5 3:2.861012035323962E-64 
0.1 0.1 1:0.5 2:0.5 3:3.38684549210865E-54 
0.1 0.0 1:0.5 2:0.5 3:0.54 
0.1 0.0 1:0.5 2:0.5 3:0.6666666666666666 
0.1 0.0 1:0.5 2:0.5 3:0.54 
0.1 0.0 1:0.5 2:0.5 3:0.0019474196689386564 
0.1 0.0 1:0.5 2:0.5 3:0.54 
0.1 0.1 1:0.5 2:0.5 3:1.023999790284843E-74 
0.1 0.1 1:0.5 2:0.5 3:0.84 
0.1 0.0 1:0.5 2:0.5 3:0.54 
0.1 0.0 1:0.5 2:0.5 3:0.64 
0.1 0.0 1:0.5 2:0.5 3:0.54 
0.1 0.1 1:0.5 2:0.5 3:9.536724974203159E-74 
0.1 0.0 1:0.5 2:0.5 3:0.54 
0.1 0.0 1:0.5 2:0.5 3:0.54 
0.1 0.0 1:0.5 2:0.5 3:0.54 
0.1 0.0 1:0.5 2:0.5 3:0.54 
0.1 0.1 1:0.5 2:0.5 3:0.754 
0.1 0.0 1:0.5 2:0.5 3:0.0029182879377431907 
0.1 0.0 1:0.5 2:0.5 3:0.6666666666666666 
0.1 0.0 1:0.5 2:0.5 3:0.0038872691933916426 
0.1 0.1 1:0.5 2:0.5 3:0.754 
0.1 0.0 1:0.5 2:0.5 3:0.0019474196689386564 
0.1 0.1 1:0.5 2:0.5 3:1.6538171140897976E-84 
0.1 0.1 1:0.5 2:0.5 3:0.754 
0.1 0.0 1:0.5 2:0.5 3:0.3333333333333333 
0.1 0.1 1:0.5 2:0.5 3:1.6934514233459215E-54 
0.1 0.0 1:0.5 2:0.5 3:0.54 
0.1 0.0 1:0.5 2:0.5 3:0.64 
0.1 0.1 1:0.5 2:0.5 3:9.746588693957114E-44 
0.1 0.1 1:0.5 2:0.5 3:6.615268128145881E-84 
0.1 0.1 1:0.5 2:0.5 3:0.8888888888888888 
0.1 0.1 1:0.5 2:0.5 3:0.7142857142857143 
0.1 0.0 1:0.5 2:0.5 3:0.54 
0.1 0.0 1:0.5 2:0.5 3:0.6666666666666666 
0.1 0.0 1:0.5 2:0.5 3:0.3333333333333333 
0.1 0.1 1:0.5 2:0.5 3:6.143995595983957E-74 
0.1 0.1 1:0.5 2:0.5 3:0.84 
0.1 0.0 1:0.5 2:0.5 3:0.54 
0.1 0.0 1:0.5 2:0.5 3:0.54 
0.1 0.0 1:0.5 2:0.5 3:0.54 
0.1 0.0 1:0.5 2:0.5 3:0.54 
0.1 0.1 1:0.5 2:0.5 3:0.754 
0.1 0.0 1:0.5 2:0.5 3:0.3333333333333333 
0.1 0.1 1:0.5 2:0.5 3:8.466683600033866E-54 
0.1 0.0 1:0.5 2:0.5 3:0.0038872691933916426 
0.1 0.0 1:0.5 2:0.5 3:0.54 
0.1 0.1 1:0.5 2:0.5 3:0.8333333333333335 
0.1 0.0 1:0.5 2:0.5 3:0.54 
0.1 0.0 1:0.5 2:0.5 3:0.6666666666666666 
0.1 0.0 1:0.5 2:0.5 3:0.6666666666666666 
0.1 0.1 1:0.5 2:0.5 3:6.773461577539203E-54 
0.1 0.0 1:0.5 2:0.5 3:0.54 
0.1 0.0 1:0.5 2:0.5 3:0.54 
0.1 0.0 1:0.5 2:0.5 3:0.64 
0.1 0.0 1:0.5 2:0.5 3:0.64 
0.1 0.0 1:0.5 2:0.5 3:0.54 
0.1 0.0 1:0.5 2:0.5 3:0.54 
0.1 0.1 1:0.5 2:0.5 3:0.754 
0.1 0.1 1:0.5 2:0.5 3:0.6666666666666666 
0.1 0.0 1:0.5 2:0.5 3:0.54 
0.1 0.1 1:0.5 2:0.5 3:0.6666666666666666 
0.1 0.1 1:0.5 2:0.5 3:0.6666666666666666 
0.1 0.0 1:0.5 2:0.5 3:0.54 
0.1 0.1 1:0.5 2:0.5 3:0.6666666666666666 
0.0 0.1 1:0.5 2:0.5 3:9.746588693957114E-44 
0.1 0.1 1:0.5 2:0.5 3:0.8333333333333335 
0.1 0.0 1:0.5 2:0.5 3:0.54 
0.1 0.0 1:0.5 2:0.5 3:0.54 
0.1 0.0 1:0.5 2:0.5 3:0.0048543689320388345 
0.1 0.0 1:0.5 2:0.5 3:0.3333333333333333 
0.1 0.0 1:0.5 2:0.5 3:0.3333333333333333 
0.0 0.1 1:0.5 2:0.5 3:1.0159848279599025E-44 
0.1 0.1 1:0.5 2:0.5 3:0.6666666666666666 
0.1 0.1 1:0.5 2:0.5 3:0.6666666666666666 
0.1 0.0 1:0.5 2:0.5 3:0.54 
0.1 0.1 1:0.5 2:0.5 3:0.6666666666666666 
0.0 0.1 1:0.5 2:0.5 3:4.768344297346321E-64 
0.1 0.1 1:0.5 2:0.5 3:0.6666666666666666 
0.1 0.0 1:0.5 2:0.5 3:0.0019474196689386564 
0.1 0.0 1:0.5 2:0.5 3:0.54 
0.1 0.1 1:0.5 2:0.5 3:0.6666666666666666 
0.1 0.0 1:0.5 2:0.5 3:0.3333333333333333 
0.1 0.1 1:0.5 2:0.5 3:0.754 
0.1 0.0 1:0.5 2:0.5 3:0.54 
0.1 0.1 1:0.5 2:0.5 3:0.754 
0.1 0.1 1:0.5 2:0.5 3:0.84 
0.1 0.1 1:0.5 2:0.5 3:0.754 
0.1 0.1 1:0.5 2:0.5 3:0.6666666666666666 
0.1 0.1 1:0.5 2:0.5 3:0.6666666666666666 
0.1 0.0 1:0.5 2:0.5 3:0.64 
0.1 0.0 1:0.5 2:0.5 3:0.54 
0.1 0.0 1:0.5 2:0.5 3:0.54 
0.1 0.1 1:0.5 2:0.5 3:0.84 
0.0 0.1 1:0.5 2:0.5 3:1.6934514233459215E-54 
0.1 0.1 1:0.5 2:0.5 3:0.8571428571428571 
0.1 0.1 1:0.5 2:0.5 3:0.7142857142857143 
0.1 0.0 1:0.5 2:0.5 3:0.54 
0.1 0.1 1:0.5 2:0.5 3:0.6666666666666666 
0.1 0.0 1:0.5 2:0.5 3:0.54 
0.1 0.0 1:0.5 2:0.5 3:0.54 
0.0 0.1 1:0.5 2:0.5 3:8.269085023426814E-84 
0.1 0.1 1:0.5 2:0.5 3:0.754 
0.1 0.1 1:0.5 2:0.5 3:0.6666666666666666 
0.1 0.0 1:0.5 2:0.5 3:0.0019474196689386564 
0.1 0.1 1:0.5 2:0.5 3:0.754 
0.1 0.0 1:0.5 2:0.5 3:0.54 
0.1 0.1 1:0.5 2:0.5 3:0.6666666666666666 
0.1 0.1 1:0.5 2:0.5 3:0.754 
0.1 0.1 1:0.5 2:0.5 3:0.754 
0.1 0.1 1:0.5 2:0.5 3:0.6666666666666666 
0.1 0.0 1:0.5 2:0.5 3:0.3333333333333333 
0.1 0.1 1:0.5 2:0.5 3:0.754 
0.1 0.1 1:0.5 2:0.5 3:0.8333333333333335 
0.1 0.1 1:0.5 2:0.5 3:0.3333333333333333 
0.1 0.1 1:0.5 2:0.5 3:0.6666666666666666 
0.1 0.1 1:0.5 2:0.5 3:0.754 
0.0 0.1 1:0.5 2:0.5 3:2.861012035323962E-64 
0.1 0.1 1:0.5 2:0.5 3:0.6666666666666666 
0.1 0.0 1:0.5 2:0.5 3:0.54 
0.1 0.1 1:0.5 2:0.5 3:0.3333333333333333 
-0.1 0.1 1:0.5 2:0.5 3:0.84 
-0.1 0.0 1:0.5 2:0.5 3:8.269085023426814E-84 
-0.1 0.0 1:0.5 2:0.5 3:0.54 
-0.1 0.0 1:0.5 2:0.5 3:0.0029182879377431907 
-0.1 0.0 1:0.5 2:0.5 3:9.746588693957114E-44 
-0.1 0.0 1:0.5 2:0.5 3:3.38684549210865E-54 
-0.1 0.0 1:0.5 2:0.5 3:1.6934514233459215E-54 
-0.1 0.1 1:0.5 2:0.5 3:0.8754 
-0.1 0.0 1:0.5 2:0.5 3:0.3333333333333333 
-0.1 0.0 1:0.5 2:0.5 3:0.54 
-0.1 0.0 1:0.5 2:0.5 3:0.6666666666666666 
-0.1 0.0 1:0.5 2:0.5 3:0.3333333333333333 
-0.1 0.0 1:0.5 2:0.5 3:0.6666666666666666 
-0.1 0.0 1:0.5 2:0.5 3:0.3333333333333333 
-0.1 0.0 1:0.5 2:0.5 3:1.6934514233459215E-54 
-0.1 0.0 1:0.5 2:0.5 3:0.6666666666666666 
-0.1 0.1 1:0.5 2:0.5 3:0.7142857142857143 
-0.1 0.0 1:0.5 2:0.5 3:0.54 
-0.1 0.0 1:0.5 2:0.5 3:0.64 
-0.1 0.1 1:0.5 2:0.5 3:0.7142857142857143 
-0.1 0.0 1:0.5 2:0.5 3:0.54 
-0.1 0.0 1:0.5 2:0.5 3:0.6666666666666666 
-0.1 0.0 1:0.5 2:0.5 3:0.6666666666666666 
-0.1 0.0 1:0.5 2:0.5 3:0.3333333333333333 
-0.1 0.0 1:0.5 2:0.5 3:0.54 
-0.1 0.0 1:0.5 2:0.5 3:0.0048543689320388345 
-0.1 0.0 1:0.5 2:0.5 3:4.095997902849073E-74 
-0.1 0.0 1:0.5 2:0.5 3:0.0029182879377431907 
-0.1 0.0 1:0.5 2:0.5 3:0.6666666666666666 
-0.1 0.0 1:0.5 2:0.5 3:1.6934514233459215E-54 
-0.1 0.0 1:0.5 2:0.5 3:0.0029182879377431907 
-0.1 0.0 1:0.5 2:0.5 3:0.64 
-0.1 0.0 1:0.5 2:0.5 3:0.3333333333333333 
-0.1 0.0 1:0.5 2:0.5 3:0.3333333333333333 
-0.1 0.0 1:0.5 2:0.5 3:0.6666666666666666 
-0.1 0.1 1:0.5 2:0.5 3:3.0719987417093154E-74 
-0.1 0.0 1:0.5 2:0.5 3:0.54 
-0.1 0.0 1:0.5 2:0.5 3:0.54 
-0.1 0.0 1:0.5 2:0.5 3:0.54 
-0.1 0.0 1:0.5 2:0.5 3:0.6666666666666666 
-0.1 0.0 1:0.5 2:0.5 3:0.54 
-0.1 0.0 1:0.5 2:0.5 3:0.0019474196689386564 
-0.1 0.0 1:0.5 2:0.5 3:0.54 
-0.1 0.1 1:0.5 2:0.5 3:3.38684549210865E-54 
-0.1 0.0 1:0.5 2:0.5 3:0.54 
-0.1 0.0 1:0.5 2:0.5 3:0.54 
-0.1 0.0 1:0.5 2:0.5 3:0.54 
-0.1 0.0 1:0.5 2:0.5 3:0.6666666666666666 
-0.1 0.0 1:0.5 2:0.5 3:0.0029182879377431907 
-0.1 0.0 1:0.5 2:0.5 3:0.54 
-0.1 0.0 1:0.5 2:0.5 3:0.3333333333333333 
-0.1 0.1 1:0.5 2:0.5 3:0.84 
-0.1 0.0 1:0.5 2:0.5 3:0.54 
-0.1 0.0 1:0.5 2:0.5 3:0.54 
-0.1 0.0 1:0.5 2:0.5 3:0.54 
-0.1 0.1 1:0.5 2:0.5 3:6.773461577539203E-54 
-0.1 0.0 1:0.5 2:0.5 3:0.54 
-0.1 0.0 1:0.5 2:0.5 3:0.64 
-0.1 0.0 1:0.5 2:0.5 3:0.54 
-0.1 0.0 1:0.5 2:0.5 3:0.3333333333333333 
-0.1 0.1 1:0.5 2:0.5 3:9.746588693957114E-44 
-0.1 0.1 1:0.5 2:0.5 3:0.7142857142857143 
-0.1 0.1 1:0.5 2:0.5 3:5.119996854273933E-74 
-0.1 0.0 1:0.5 2:0.5 3:0.0029182879377431907 
-0.1 0.1 1:0.5 2:0.5 3:0.84 
-0.1 0.0 1:0.5 2:0.5 3:0.3333333333333333 
-0.1 0.1 1:0.5 2:0.5 3:0.754 
-0.1 0.1 1:0.5 2:0.5 3:1.77006654972309E-84 
-0.1 0.0 1:0.5 2:0.5 3:0.64 
-0.1 0.0 1:0.5 2:0.5 3:0.54 
-0.1 0.1 1:0.5 2:0.5 3:6.615268128145881E-84 
-0.1 0.0 1:0.5 2:0.5 3:0.54 
-0.1 0.0 1:0.5 2:0.5 3:0.6666666666666666 
-0.1 0.08718049287618596 1:0.5 2:0.5 3:0.6666666666666666 
-0.1 0.0 1:0.5 2:0.5 3:0.3333333333333333 
-0.1 0.0 1:0.5 2:0.5 3:0.3333333333333333 
-0.1 0.0 1:0.5 2:0.5 3:0.64 
-0.1 0.0 1:0.5 2:0.5 3:0.0019474196689386564 
-0.1 0.0 1:0.5 2:0.5 3:0.0019474196689386564 
-0.1 0.0 1:0.5 2:0.5 3:0.3333333333333333 
-0.1 0.0 1:0.5 2:0.5 3:0.54 
-0.1 0.1 1:0.5 2:0.5 3:0.6666666666666666 
-0.1 0.1 1:0.5 2:0.5 3:3.0719987417093154E-74 
-0.1 0.0 1:0.5 2:0.5 3:0.54 
-0.1 0.1 1:0.5 2:0.5 3:0.6666666666666666 
-0.1 0.1 1:0.5 2:0.5 3:0.754 
-0.1 0.1 1:0.5 2:0.5 3:9.746588693957114E-44 
-0.1 0.1 1:0.5 2:0.5 3:0.6666666666666666 
-0.1 0.0 1:0.5 2:0.5 3:0.54 
-0.1 0.0 1:0.5 2:0.5 3:0.54 
-0.1 0.0 1:0.5 2:0.5 3:0.64 
-0.1 0.1 1:0.5 2:0.5 3:0.6666666666666666 
-0.1 0.0 1:0.5 2:0.5 3:0.54 
-0.1 0.1 1:0.5 2:0.5 3:0.6666666666666666 
-0.1 0.1 1:0.5 2:0.5 3:0.754 
-0.1 0.0 1:0.5 2:0.5 3:0.64 
-0.1 0.0 1:0.5 2:0.5 3:0.54 
-0.1 0.0 1:0.5 2:0.5 3:0.3333333333333333 
-0.1 0.0 1:0.5 2:0.5 3:0.54 
-0.1 0.0 1:0.5 2:0.5 3:0.54 
-0.1 0.1 1:0.5 2:0.5 3:6.143995595983957E-74 
-0.1 0.0 1:0.5 2:0.5 3:0.3333333333333333 
-0.1 0.0 1:0.5 2:0.5 3:0.0019474196689386564 
-0.1 0.0 1:0.5 2:0.5 3:0.54 
-0.1 0.0 1:0.5 2:0.5 3:0.54 
-0.1 0.1 1:0.5 2:0.5 3:0.6666666666666666 
-0.1 0.0 1:0.5 2:0.5 3:0.3333333333333333 
-0.1 0.1 1:0.5 2:0.5 3:0.6666666666666666 
-0.1 0.0 1:0.5 2:0.5 3:0.3333333333333333 
-0.1 0.0 1:0.5 2:0.5 3:0.54 
-0.1 0.0 1:0.5 2:0.5 3:0.54 
-0.1 0.1 1:0.5 2:0.5 3:3.38684549210865E-54 
-0.1 0.0 1:0.5 2:0.5 3:0.54 
-0.1 0.1 1:0.5 2:0.5 3:0.84 
-0.1 0.1 1:0.5 2:0.5 3:0.84 
-0.1 0.1 1:0.5 2:0.5 3:9.746588693957114E-44 
-0.1 0.1 1:0.5 2:0.5 3:0.754 
-0.1 0.0 1:0.5 2:0.5 3:0.3333333333333333 
-0.1 0.1 1:0.5 2:0.5 3:0.754 
-0.1 0.0 1:0.5 2:0.5 3:0.3333333333333333 
-0.1 0.1 1:0.5 2:0.5 3:0.754 
-0.1 0.1 1:0.5 2:0.5 3:0.6666666666666666 
-0.1 0.0 1:0.5 2:0.5 3:0.54 
-0.1 0.1 1:0.5 2:0.5 3:1.9073431758599017E-64 
-0.1 0.0 1:0.5 2:0.5 3:0.54 
-0.1 0.1 1:0.5 2:0.5 3:0.6666666666666666 
-0.1 0.1 1:0.5 2:0.5 3:0.6666666666666666 
-0.1 0.0 1:0.5 2:0.5 3:0.54 
-0.1 0.0 1:0.5 2:0.5 3:0.54 
-0.1 0.0 1:0.5 2:0.5 3:0.0038872691933916426 
-0.1 0.1 1:0.5 2:0.5 3:0.84 
-0.1 0.0 1:0.5 2:0.5 3:0.54 
-0.1 0.0 1:0.5 2:0.5 3:0.54 
-0.1 0.0 1:0.5 2:0.5 3:0.3333333333333333 
-0.1 0.0 1:0.5 2:0.5 3:0.64 
-0.1 0.0 1:0.5 2:0.5 3:0.3333333333333333 
-0.1 0.0 1:0.5 2:0.5 3:0.54 
-0.1 0.0 1:0.5 2:0.5 3:0.3333333333333333 
-0.1 0.1 1:0.5 2:0.5 3:0.84 
-0.1 0.0 1:0.5 2:0.5 3:0.54 
-0.1 0.1 1:0.5 2:0.5 3:3.38684549210865E-54 
-0.1 0.1 1:0.5 2:0.5 3:0.6666666666666666 
-0.1 0.0 1:0.5 2:0.5 3:0.54 
-0.1 0.0 1:0.5 2:0.5 3:0.54 
-0.1 0.0 1:0.5 2:0.5 3:0.54 
-0.1 0.0 1:0.5 2:0.5 3:0.64 
-0.1 0.0 1:0.5 2:0.5 3:0.54 
-0.1 0.1 1:0.5 2:0.5 3:0.6666666666666666 
-0.1 0.1 1:0.5 2:0.5 3:0.84 
-0.1 0.0 1:0.5 2:0.5 3:0.54 
-0.1 0.1 1:0.5 2:0.5 3:0.7142857142857143 
-0.1 0.0 1:0.5 2:0.5 3:0.3333333333333333 
-0.1 0.1 1:0.5 2:0.5 3:0.84 
-0.1 0.1 1:0.5 2:0.5 3:2.7939677134380946E-94 
-0.1 0.0 1:0.5 2:0.5 3:0.64 
-0.1 0.1 1:0.5 2:0.5 3:9.746588693957114E-44 
-0.1 0.0 1:0.5 2:0.5 3:0.54 
-0.1 0.0 1:0.5 2:0.5 3:0.54 
-0.1 0.1 1:0.5 2:0.5 3:0.754 
-0.1 0.1 1:0.5 2:0.5 3:6.773461577539203E-54 
-0.1 0.0 1:0.5 2:0.5 3:0.3333333333333333 
-0.1 0.1 1:0.5 2:0.5 3:5.0801822092019033E-54 
-0.1 0.1 1:0.5 2:0.5 3:0.6666666666666666 
-0.1 0.1 1:0.5 2:0.5 3:0.6666666666666666 
-0.1 0.1 1:0.5 2:0.5 3:1.6934514233459215E-54 
-0.1 0.0 1:0.5 2:0.5 3:0.54 
-0.1 0.1 1:0.5 2:0.5 3:0.84 
-0.1 0.1 1:0.5 2:0.5 3:0.6666666666666666 
-0.1 0.0 1:0.5 2:0.5 3:0.54 
-0.1 0.0 1:0.5 2:0.5 3:0.0029182879377431907 
-0.1 0.0 1:0.5 2:0.5 3:0.64 
-0.1 0.1 1:0.5 2:0.5 3:1.1852955619147604E-44 
-0.1 0.0 1:0.5 2:0.5 3:0.3333333333333333 
-0.1 0.1 1:0.5 2:0.5 3:0.6666666666666666 
-0.1 0.1 1:0.5 2:0.5 3:0.6666666666666666 
-0.1 0.0 1:0.5 2:0.5 3:0.3333333333333333 
-0.1 0.1 1:0.5 2:0.5 3:0.6666666666666666 
-0.1 0.1 1:0.5 2:0.5 3:0.754 
-0.1 0.0 1:0.5 2:0.5 3:0.54 
-0.1 0.0 1:0.5 2:0.5 3:0.3333333333333333 
-0.1 0.0 1:0.5 2:0.5 3:0.64 
-0.1 0.1 1:0.5 2:0.5 3:0.754 
-0.1 0.1 1:0.5 2:0.5 3:0.6666666666666666 
-0.1 0.0 1:0.5 2:0.5 3:0.54 
-0.1 0.0 1:0.5 2:0.5 3:0.3333333333333333 
-0.1 0.0 1:0.5 2:0.5 3:0.54 
-0.1 0.0 1:0.5 2:0.5 3:0.54 
-0.1 0.0 1:0.5 2:0.5 3:0.54 
-0.1 0.0 1:0.5 2:0.5 3:0.54 
-0.1 0.0 1:0.5 2:0.5 3:0.54 
-0.1 0.1 1:0.5 2:0.5 3:0.84 
-0.1 0.0 1:0.5 2:0.5 3:0.54 
-0.1 0.0 1:0.5 2:0.5 3:0.54 
-0.1 0.0 1:0.5 2:0.5 3:0.54 
-0.1 0.0 1:0.5 2:0.5 3:0.54 
-0.1 0.0 1:0.5 2:0.5 3:0.54 
-0.1 0.0 1:0.5 2:0.5 3:0.54 
-0.1 0.1 1:0.5 2:0.5 3:0.6666666666666666 
-0.1 0.0 1:0.5 2:0.5 3:0.3333333333333333 
-0.1 0.0 1:0.5 2:0.5 3:0.54 
-0.1 0.1 1:0.5 2:0.5 3:9.746588693957114E-44 
-0.1 0.0 1:0.5 2:0.5 3:0.54 
-0.1 0.0 1:0.5 2:0.5 3:0.3333333333333333 
-0.1 0.1 1:0.5 2:0.5 3:0.6666666666666666 
-0.1 0.0 1:0.5 2:0.5 3:0.54 
-0.1 0.1 1:0.5 2:0.5 3:0.6666666666666666 
-0.1 0.0 1:0.5 2:0.5 3:0.54 
-0.1 0.0 1:0.5 2:0.5 3:0.54 
-0.1 0.0 1:0.5 2:0.5 3:0.54 
-0.1 0.0 1:0.5 2:0.5 3:0.3333333333333333 
-0.1 0.0 1:0.5 2:0.5 3:0.54 
-0.1 0.0 1:0.5 2:0.5 3:0.54 
-0.1 0.0 1:0.5 2:0.5 3:0.64 
-0.1 0.0 1:0.5 2:0.5 3:0.54 
-0.1 0.0 1:0.5 2:0.5 3:0.54 
-0.1 0.1 1:0.5 2:0.5 3:0.754 
-0.1 0.0 1:0.5 2:0.5 3:0.3333333333333333 
-0.1 0.0 1:0.5 2:0.5 3:0.54 
-0.1 0.0 1:0.5 2:0.5 3:0.54 
-0.1 0.0 1:0.5 2:0.5 3:0.54 
-0.1 0.1 1:0.5 2:0.5 3:9.536724974203159E-74 
-0.1 0.0 1:0.5 2:0.5 3:0.54 
-0.1 0.0 1:0.5 2:0.5 3:0.3333333333333333 
-0.1 0.1 1:0.5 2:0.5 3:9.746588693957114E-44 
-0.1 0.1 1:0.5 2:0.5 3:0.754 
-0.1 0.1 1:0.5 2:0.5 3:1.0490297428542002E-54 
-0.1 0.1 1:0.5 2:0.5 3:0.754 
-0.1 0.0 1:0.5 2:0.5 3:0.3333333333333333 
-0.1 0.1 1:0.5 2:0.5 3:0.754 
-0.1 0.0 1:0.5 2:0.5 3:0.3333333333333333 
-0.1 0.1 1:0.5 2:0.5 3:0.6666666666666666 
-0.1 0.1 1:0.5 2:0.5 3:9.746588693957114E-44 
-0.1 0.0 1:0.5 2:0.5 3:0.0038872691933916426 
-0.1 0.0 1:0.5 2:0.5 3:0.54 
-0.1 0.0 1:0.5 2:0.5 3:0.54 
-0.1 0.1 1:0.5 2:0.5 3:0.6666666666666666 
-0.1 0.1 1:0.5 2:0.5 3:0.7142857142857143 
-0.1 0.1 1:0.5 2:0.5 3:9.746588693957114E-44 
-0.1 0.1 1:0.5 2:0.5 3:9.746588693957114E-44 
-0.1 0.1 1:0.5 2:0.5 3:0.54 
-0.1 0.1 1:0.5 2:0.5 3:0.54 
-0.1 0.1 1:0.5 2:0.5 3:0.54 
-0.1 0.1 1:0.5 2:0.5 3:0.54 
-0.1 0.1 1:0.5 2:0.5 3:5.0801822092019033E-54 
-0.1 0.01281950712381405 1:0.5 2:0.5 3:0.54 
-0.1 0.0 1:0.5 2:0.5 3:0.54 
-0.1 0.1 1:0.5 2:0.5 3:0.3333333333333333 
-0.1 0.0 1:0.5 2:0.5 3:0.54 
-0.1 0.1 1:0.5 2:0.5 3:3.8146790758177E-64 
-0.1 0.1 1:0.5 2:0.5 3:0.6666666666666666 
-0.1 0.0 1:0.5 2:0.5 3:0.64 
-0.1 0.0 1:0.5 2:0.5 3:0.54 
-0.1 -0.1 1:0.5 2:0.5 3:0.6666666666666666 
-0.1 -0.1 1:0.5 2:0.5 3:0.754 
-0.1 -0.1 1:0.5 2:0.5 3:0.6666666666666666 
-0.1 -0.1 1:0.5 2:0.5 3:0.3333333333333333 
-0.1 -0.1 1:0.5 2:0.5 3:0.0019474196689386564 
-0.1 -0.1 1:0.5 2:0.5 3:0.54 
-0.1 -0.1 1:0.5 2:0.5 3:0.54 
-0.1 -0.1 1:0.5 2:0.5 3:9.746588693957114E-44 
-0.1 -0.1 1:0.5 2:0.5 3:0.6666666666666666 
-0.1 -0.1 1:0.5 2:0.5 3:0.64 
-0.1 -0.1 1:0.5 2:0.5 3:0.3333333333333333 
-0.1 -0.1 1:0.5 2:0.5 3:0.54 
-0.1 -0.1 1:0.5 2:0.5 3:0.54 
-0.1 -0.1 1:0.5 2:0.5 3:0.54 
-0.1 -0.1 1:0.5 2:0.5 3:0.6666666666666666 
-0.1 -0.1 1:0.5 2:0.5 3:0.54 
-0.1 -0.1 1:0.5 2:0.5 3:0.54 
-0.1 -0.1 1:0.5 2:0.5 3:4.095997902849073E-74 
-0.1 -0.1 1:0.5 2:0.5 3:0.6666666666666666 
-0.1 -0.1 1:0.5 2:0.5 3:0.6666666666666666 
-0.1 -0.1 1:0.5 2:0.5 3:0.64 
-0.1 -0.1 1:0.5 2:0.5 3:0.754 
-0.1 -0.1 1:0.5 2:0.5 3:0.54 
-0.1 -0.1 1:0.5 2:0.5 3:0.0019474196689386564 
-0.1 -0.1 1:0.5 2:0.5 3:0.54 
-0.1 -0.1 1:0.5 2:0.5 3:0.3333333333333333 
-0.1 -0.1 1:0.5 2:0.5 3:0.8571428571428571 
-0.1 -0.1 1:0.5 2:0.5 3:0.54 
-0.1 -0.1 1:0.5 2:0.5 3:0.3333333333333333 
-0.1 -0.1 1:0.5 2:0.5 3:0.54 
-0.1 -0.1 1:0.5 2:0.5 3:9.746588693957114E-44 
-0.1 -0.1 1:0.5 2:0.5 3:0.0029182879377431907 
-0.1 -0.1 1:0.5 2:0.5 3:0.54 
-0.1 -0.1 1:0.5 2:0.5 3:0.754 
-0.1 -0.1 1:0.5 2:0.5 3:9.746588693957114E-44 
-0.1 -0.1 1:0.5 2:0.5 3:0.3333333333333333 
-0.1 -0.1 1:0.5 2:0.5 3:0.84 
-0.1 -0.1 1:0.5 2:0.5 3:0.54 
-0.1 -0.1 1:0.5 2:0.5 3:0.3333333333333333 
-0.1 -0.1 1:0.5 2:0.5 3:9.536724974203159E-74 
-0.1 -0.1 1:0.5 2:0.5 3:0.54 
-0.1 -0.1 1:0.5 2:0.5 3:0.6666666666666666 
-0.1 -0.1 1:0.5 2:0.5 3:0.64 
-0.1 -0.1 1:0.5 2:0.5 3:0.754 
-0.1 -0.1 1:0.5 2:0.5 3:0.54 
-0.1 -0.1 1:0.5 2:0.5 3:0.6666666666666666 
-0.1 -0.1 1:0.5 2:0.5 3:0.54 
-0.1 -0.1 1:0.5 2:0.5 3:0.54 
-0.1 -0.1 1:0.5 2:0.5 3:0.6666666666666666 
-0.1 -0.1 1:0.5 2:0.5 3:0.64 
-0.1 -0.1 1:0.5 2:0.5 3:0.54 
-0.1 -0.1 1:0.5 2:0.5 3:0.54 
-0.1 -0.1 1:0.5 2:0.5 3:4.768344297346321E-64 
-0.1 -0.1 1:0.5 2:0.5 3:0.54 
-0.1 -0.1 1:0.5 2:0.5 3:1.0159848279599025E-44 
-0.1 -0.1 1:0.5 2:0.5 3:0.54 
-0.1 -0.1 1:0.5 2:0.5 3:0.0029182879377431907 
-0.1 -0.1 1:0.5 2:0.5 3:0.54 
-0.1 -0.1 1:0.5 2:0.5 3:0.0019474196689386564 
-0.1 -0.1 1:0.5 2:0.5 3:0.3333333333333333 
-0.1 -0.1 1:0.5 2:0.5 3:0.54 
-0.1 -0.1 1:0.5 2:0.5 3:4.768344297346321E-64 
-0.1 -0.1 1:0.5 2:0.5 3:3.38684549210865E-54 
-0.1 -0.1 1:0.5 2:0.5 3:0.54 
-0.1 -0.1 1:0.5 2:0.5 3:0.54 
-0.1 -0.1 1:0.5 2:0.5 3:0.54 
-0.1 -0.1 1:0.5 2:0.5 3:0.754 
-0.1 -0.1 1:0.5 2:0.5 3:0.754 
-0.1 -0.1 1:0.5 2:0.5 3:0.64 
-0.1 -0.1 1:0.5 2:0.5 3:0.754 
-0.1 -0.1 1:0.5 2:0.5 3:0.54 
-0.1 -0.1 1:0.5 2:0.5 3:0.0019474196689386564 
-0.1 -0.1 1:0.5 2:0.5 3:0.84 
-0.1 -0.1 1:0.5 2:0.5 3:0.8754 
-0.1 -0.1 1:0.5 2:0.5 3:0.754 
-0.1 -0.1 1:0.5 2:0.5 3:0.54 
-0.1 -0.1 1:0.5 2:0.5 3:0.54 
-0.1 -0.1 1:0.5 2:0.5 3:0.54 
-0.1 -0.1 1:0.5 2:0.5 3:0.3333333333333333 
-0.1 -0.1 1:0.5 2:0.5 3:0.54 
-0.1 -0.1 1:0.5 2:0.5 3:0.6666666666666666 
-0.1 -0.1 1:0.5 2:0.5 3:0.8888888888888888 
-0.1 -0.1 1:0.5 2:0.5 3:6.773461577539203E-54 
-0.1 -0.1 1:0.5 2:0.5 3:0.0048543689320388345 
-0.1 -0.1 1:0.5 2:0.5 3:0.84 
-0.1 -0.1 1:0.5 2:0.5 3:0.3333333333333333 
-0.1 -0.1 1:0.5 2:0.5 3:0.54 
-0.1 -0.1 1:0.5 2:0.5 3:0.54 
-0.1 -0.1 1:0.5 2:0.5 3:0.754 
-0.1 -0.1 1:0.5 2:0.5 3:0.6666666666666666 
