svm_type c_svc
kernel_type linear
nr_class 3
total_sv 602
rho 0.47109436392784054 -0.999999845944975 -1.0000000001874336
label 0 1 2
nr_sv 270 222 110
SV
0.1 0.0 1:0.5 2:0.5 3:0.6666666666666666 
0.1 0.1 1:0.5 2:0.5 3:0.8333333333333335 
0.1 0.1 1:0.5 2:0.5 3:9.746588693957114E-44 
0.1 0.0 1:0.5 2:0.5 3:0.754 
0.1 0.0 1:0.5 2:0.5 3:0.6666666666666666 
0.1 0.1 1:0.5 2:0.5 3:0.84 
0.1 0.1 1:0.5 2:0.5 3:0.0038872691933916426 
0.1 0.0 1:0.5 2:0.5 3:0.754 
0.1 0.1 1:0.5 2:0.5 3:0.84 
0.1 0.0 1:0.5 2:0.5 3:0.6666666666666666 
0.1 0.1 1:0.5 2:0.5 3:0.84 
0.1 0.0 1:0.5 2:0.5 3:0.6666666666666666 
0.0 0.1 1:0.5 2:0.5 3:0.84 
0.1 0.0 1:0.5 2:0.5 3:0.754 
0.1 0.1 1:0.5 2:0.5 3:0.0029182879377431907 
0.0 0.1 1:0.5 2:0.5 3:0.8754 
0.1 0.0 1:0.5 2:0.5 3:0.54 
0.1 0.0 1:0.5 2:0.5 3:0.64 
0.1 0.0 1:0.5 2:0.5 3:0.754 
0.1 0.0 1:0.5 2:0.5 3:0.3333333333333333 
0.1 0.0 1:0.5 2:0.5 3:0.754 
0.1 0.0 1:0.5 2:0.5 3:0.6666666666666666 
0.1 0.1 1:0.5 2:0.5 3:0.7777777777777778 
0.1 0.1 1:0.5 2:0.5 3:0.005819592628516004 
0.1 0.0 1:0.5 2:0.5 3:0.6666666666666666 
0.1 0.0 1:0.5 2:0.5 3:0.6666666666666666 
0.0 0.1 1:0.5 2:0.5 3:0.84 
0.0 0.1 1:0.5 2:0.5 3:0.8754 
0.1 0.0 1:0.5 2:0.5 3:0.6666666666666666 
0.1 0.0 1:0.5 2:0.5 3:0.54 
0.0 0.1 1:0.5 2:0.5 3:0.8571428571428571 
0.1 0.0 1:0.5 2:0.5 3:0.54 
0.0 0.1 1:0.5 2:0.5 3:0.8754 
0.0 0.1 1:0.5 2:0.5 3:0.8666666666666667 
0.1 0.0 1:0.5 2:0.5 3:0.754 
0.1 0.1 1:0.5 2:0.5 3:0.8333333333333335 
0.0 0.1 1:0.5 2:0.5 3:0.84 
0.1 0.0 1:0.5 2:0.5 3:0.6666666666666666 
0.0 0.1 1:0.5 2:0.5 3:0.84 
0.1 0.0 1:0.5 2:0.5 3:0.6666666666666666 
0.1 0.1 1:0.5 2:0.5 3:0.7777777777777778 
0.0 0.1 1:0.5 2:0.5 3:0.84 
0.1 0.0 1:0.5 2:0.5 3:0.54 
0.1 0.0 1:0.5 2:0.5 3:0.754 
0.1 0.0 1:0.5 2:0.5 3:0.3333333333333333 
0.1 0.0 1:0.5 2:0.5 3:0.754 
0.1 0.0 1:0.5 2:0.5 3:0.6666666666666666 
0.1 0.1 1:0.5 2:0.5 3:1.1443949917460512E-54 
0.1 0.1 1:0.5 2:0.5 3:0.005819592628516004 
0.1 0.0 1:0.5 2:0.5 3:0.6666666666666666 
0.0 0.1 1:0.5 2:0.5 3:0.8754 
0.0 0.1 1:0.5 2:0.5 3:0.8888888888888888 
0.1 0.0 1:0.5 2:0.5 3:0.7142857142857143 
0.1 0.0 1:0.5 2:0.5 3:0.54 
0.1 0.0 1:0.5 2:0.5 3:0.64 
0.1 0.1 1:0.5 2:0.5 3:0.0029182879377431907 
0.1 0.1 1:0.5 2:0.5 3:0.8333333333333335 
0.1 0.1 1:0.5 2:0.5 3:0.0019474196689386564 
0.1 0.0 1:0.5 2:0.5 3:0.54 
0.1 0.0 1:0.5 2:0.5 3:0.6666666666666666 
0.1 0.0 1:0.5 2:0.5 3:0.6666666666666666 
0.1 0.0 1:0.5 2:0.5 3:0.754 
0.1 0.0 1:0.5 2:0.5 3:0.6666666666666666 
0.1 0.0 1:0.5 2:0.5 3:0.754 
0.1 0.0 1:0.5 2:0.5 3:0.6666666666666666 
0.1 0.1 1:0.5 2:0.5 3:0.005819592628516004 
0.0 0.1 1:0.5 2:0.5 3:0.8571428571428571 
0.1 0.0 1:0.5 2:0.5 3:0.754 
0.1 0.1 1:0.5 2:0.5 3:0.0038872691933916426 
0.1 0.0 1:0.5 2:0.5 3:0.54 
0.1 0.0 1:0.5 2:0.5 3:0.6666666666666666 
0.0 0.1 1:0.5 2:0.5 3:0.8754 
0.1 0.0 1:0.5 2:0.5 3:0.54 
0.0 0.1 1:0.5 2:0.5 3:0.84 
0.0 0.1 1:0.5 2:0.5 3:0.84 
0.0 0.1 1:0.5 2:0.5 3:0.84 
0.1 0.0 1:0.5 2:0.5 3:0.006782945736434108 
0.0 0.1 1:0.5 2:0.5 3:0.8571428571428571 
0.1 0.0 1:0.5 2:0.5 3:0.6666666666666666 
0.1 0.0 1:0.5 2:0.5 3:0.54 
0.0 0.1 1:0.5 2:0.5 3:0.8571428571428571 
0.1 0.1 1:0.5 2:0.5 3:0.0038872691933916426 
0.0 0.1 1:0.5 2:0.5 3:0.8754 
0.0 0.1 1:0.5 2:0.5 3:0.8571428571428571 
0.0 0.1 1:0.5 2:0.5 3:0.84 
0.1 0.0 1:0.5 2:0.5 3:0.54 
0.1 0.0 1:0.5 2:0.5 3:0.6666666666666666 
0.1 0.1 1:0.5 2:0.5 3:6.675669283529026E-64 
0.0 0.1 1:0.5 2:0.5 3:0.84 
0.0 0.1 1:0.5 2:0.5 3:0.8754 
0.1 0.0 1:0.5 2:0.5 3:0.6666666666666666 
0.0 0.1 1:0.5 2:0.5 3:0.84 
0.0 0.1 1:0.5 2:0.5 3:0.8571428571428571 
0.0 0.1 1:0.5 2:0.5 3:0.94 
0.1 0.1 1:0.5 2:0.5 3:3.0719987417093154E-74 
0.1 0.0 1:0.5 2:0.5 3:0.6666666666666666 
0.0 0.1 1:0.5 2:0.5 3:0.84 
0.1 0.0 1:0.5 2:0.5 3:0.6666666666666666 
0.0 0.1 1:0.5 2:0.5 3:0.84 
0.1 0.0 1:0.5 2:0.5 3:0.64 
0.1 0.0 1:0.5 2:0.5 3:0.3333333333333333 
0.1 0.0 1:0.5 2:0.5 3:0.754 
0.0 0.1 1:0.5 2:0.5 3:0.84 
0.1 0.0 1:0.5 2:0.5 3:0.64 
0.1 0.0 1:0.5 2:0.5 3:0.754 
0.1 0.1 1:0.5 2:0.5 3:0.0029182879377431907 
0.1 0.0 1:0.5 2:0.5 3:0.754 
0.1 0.1 1:0.5 2:0.5 3:4.768344297346321E-64 
0.1 0.1 1:0.5 2:0.5 3:0.7777777777777778 
0.1 0.0 1:0.5 2:0.5 3:0.6666666666666666 
0.1 0.0 1:0.5 2:0.5 3:0.6666666666666666 
0.1 0.0 1:0.5 2:0.5 3:0.6666666666666666 
0.0 0.1 1:0.5 2:0.5 3:0.8754 
0.1 0.0 1:0.5 2:0.5 3:0.54 
0.1 0.0 1:0.5 2:0.5 3:0.64 
0.1 0.0 1:0.5 2:0.5 3:0.64 
0.0 0.1 1:0.5 2:0.5 3:0.8571428571428571 
0.1 0.0 1:0.5 2:0.5 3:0.54 
0.1 0.0 1:0.5 2:0.5 3:0.6666666666666666 
0.1 0.0 1:0.5 2:0.5 3:0.64 
0.1 0.0 1:0.5 2:0.5 3:0.6666666666666666 
0.1 0.0 1:0.5 2:0.5 3:0.7142857142857143 
0.0 0.1 1:0.5 2:0.5 3:0.8754 
0.1 0.1 1:0.5 2:0.5 3:0.0029182879377431907 
0.1 0.0 1:0.5 2:0.5 3:0.54 
0.1 0.0 1:0.5 2:0.5 3:0.754 
0.1 0.0 1:0.5 2:0.5 3:0.64 
0.1 0.0 1:0.5 2:0.5 3:0.6666666666666666 
0.0 0.1 1:0.5 2:0.5 3:0.84 
0.0 0.1 1:0.5 2:0.5 3:0.84 
0.0 0.1 1:0.5 2:0.5 3:0.84 
0.1 0.1 1:0.5 2:0.5 3:0.0019474196689386564 
0.0 0.1 1:0.5 2:0.5 3:0.84 
0.0 0.1 1:0.5 2:0.5 3:0.8754 
0.1 0.0 1:0.5 2:0.5 3:0.6666666666666666 
0.1 0.0 1:0.5 2:0.5 3:0.6666666666666666 
0.1 0.0 1:0.5 2:0.5 3:0.6666666666666666 
0.1 0.0 1:0.5 2:0.5 3:0.54 
0.1 0.0 1:0.5 2:0.5 3:0.6666666666666666 
0.1 0.1 1:0.5 2:0.5 3:8.269085023426814E-84 
0.1 0.0 1:0.5 2:0.5 3:0.6666666666666666 
0.0 0.1 1:0.5 2:0.5 3:0.84 
0.1 0.0 1:0.5 2:0.5 3:0.754 
0.0 0.1 1:0.5 2:0.5 3:0.84 
0.1 0.0 1:0.5 2:0.5 3:0.754 
0.0 0.1 1:0.5 2:0.5 3:0.8571428571428571 
0.1 0.1 1:0.5 2:0.5 3:1.5238998289845748E-44 
0.1 0.0 1:0.5 2:0.5 3:0.54 
0.0 0.1 1:0.5 2:0.5 3:0.8666666666666667 
0.1 0.0 1:0.5 2:0.5 3:0.6666666666666666 
0.1 0.0 1:0.5 2:0.5 3:0.6666666666666666 
0.1 0.0 1:0.5 2:0.5 3:0.54 
0.1 0.0 1:0.5 2:0.5 3:0.754 
0.1 0.0 1:0.5 2:0.5 3:0.6666666666666666 
0.1 0.0 1:0.5 2:0.5 3:0.6666666666666666 
0.1 0.0 1:0.5 2:0.5 3:0.7142857142857143 
0.1 0.0 1:0.5 2:0.5 3:0.754 
0.1 0.0 1:0.5 2:0.5 3:0.754 
0.0 0.1 1:0.5 2:0.5 3:0.84 
0.1 0.1 1:0.5 2:0.5 3:9.746588693957114E-44 
0.1 0.0 1:0.5 2:0.5 3:0.6666666666666666 
0.1 0.0 1:0.5 2:0.5 3:0.754 
0.1 0.0 1:0.5 2:0.5 3:0.6666666666666666 
0.1 0.1 1:0.5 2:0.5 3:0.0038872691933916426 
0.1 0.0 1:0.5 2:0.5 3:0.6666666666666666 
0.1 0.0 1:0.5 2:0.5 3:0.754 
0.0 0.1 1:0.5 2:0.5 3:0.84 
0.1 0.0 1:0.5 2:0.5 3:0.754 
0.1 0.0 1:0.5 2:0.5 3:0.6666666666666666 
0.1 0.0 1:0.5 2:0.5 3:0.6666666666666666 
0.1 0.1 1:0.5 2:0.5 3:0.84 
0.1 0.0 1:0.5 2:0.5 3:0.64 
0.1 0.0 1:0.5 2:0.5 3:0.754 
0.1 0.0 1:0.5 2:0.5 3:0.6666666666666666 
0.1 0.0 1:0.5 2:0.5 3:0.64 
0.1 0.0 1:0.5 2:0.5 3:0.54 
0.1 0.1 1:0.5 2:0.5 3:0.84 
0.1 0.0 1:0.5 2:0.5 3:0.6666666666666666 
0.1 0.1 1:0.5 2:0.5 3:0.0038872691933916426 
0.1 0.0 1:0.5 2:0.5 3:0.54 
0.1 0.1 1:0.5 2:0.5 3:0.8333333333333335 
0.1 0.0 1:0.5 2:0.5 3:0.6666666666666666 
0.1 0.0 1:0.5 2:0.5 3:0.54 
0.1 0.0 1:0.5 2:0.5 3:0.6666666666666666 
0.1 0.0 1:0.5 2:0.5 3:0.6666666666666666 
0.1 0.1 1:0.5 2:0.5 3:0.84 
0.1 0.0 1:0.5 2:0.5 3:0.6666666666666666 
0.1 0.0 1:0.5 2:0.5 3:0.64 
0.1 0.1 1:0.5 2:0.5 3:0.0029182879377431907 
0.1 0.1 1:0.5 2:0.5 3:0.84 
0.1 0.0 1:0.5 2:0.5 3:0.6666666666666666 
0.1 0.0 1:0.5 2:0.5 3:0.6666666666666666 
0.1 0.0 1:0.5 2:0.5 3:0.6666666666666666 
0.1 0.1 1:0.5 2:0.5 3:0.8333333333333335 
0.1 0.0 1:0.5 2:0.5 3:0.754 
0.1 0.0 1:0.5 2:0.5 3:0.6666666666666666 
0.1 0.0 1:0.5 2:0.5 3:0.7142857142857143 
0.1 0.0 1:0.5 2:0.5 3:0.7142857142857143 
0.1 0.1 1:0.5 2:0.5 3:0.84 
0.1 0.03977591946403955 1:0.5 2:0.5 3:0.0038872691933916426 
0.1 0.0 1:0.5 2:0.5 3:0.54 
0.1 0.0 1:0.5 2:0.5 3:0.006782945736434108 
0.1 0.0 1:0.5 2:0.5 3:0.754 
0.1 0.0 1:0.5 2:0.5 3:0.54 
0.1 0.1 1:0.5 2:0.5 3:0.8333333333333335 
0.1 0.1 1:0.5 2:0.5 3:0.8333333333333335 
0.1 0.1 1:0.5 2:0.5 3:0.84 
0.1 0.1 1:0.5 2:0.5 3:0.84 
0.1 0.0 1:0.5 2:0.5 3:0.3333333333333333 
0.1 0.1 1:0.5 2:0.5 3:0.84 
0.1 0.0 1:0.5 2:0.5 3:0.3333333333333333 
0.1 0.0 1:0.5 2:0.5 3:0.7142857142857143 
0.1 0.0 1:0.5 2:0.5 3:0.754 
0.1 0.1 1:0.5 2:0.5 3:0.8333333333333335 
0.1 0.0 1:0.5 2:0.5 3:0.754 
0.1 0.0 1:0.5 2:0.5 3:0.6666666666666666 
0.1 0.1 1:0.5 2:0.5 3:0.0029182879377431907 
0.1 0.0 1:0.5 2:0.5 3:0.754 
0.1 0.0 1:0.5 2:0.5 3:0.6666666666666666 
0.1 0.0 1:0.5 2:0.5 3:0.54 
0.1 0.1 1:0.5 2:0.5 3:0.84 
0.1 0.0 1:0.5 2:0.5 3:0.6666666666666666 
0.1 0.0 1:0.5 2:0.5 3:0.6666666666666666 
0.1 0.0 1:0.5 2:0.5 3:0.54 
0.1 0.0 1:0.5 2:0.5 3:0.6666666666666666 
0.1 0.0 1:0.5 2:0.5 3:0.754 
0.1 0.0 1:0.5 2:0.5 3:0.6666666666666666 
0.1 0.1 1:0.5 2:0.5 3:0.8333333333333335 
0.1 0.0 1:0.5 2:0.5 3:0.754 
0.0 0.1 1:0.5 2:0.5 3:0.8571428571428571 
0.1 0.0 1:0.5 2:0.5 3:0.54 
0.0 0.1 1:0.5 2:0.5 3:0.8571428571428571 
0.1 0.0 1:0.5 2:0.5 3:0.6666666666666666 
0.1 0.0 1:0.5 2:0.5 3:0.64 
0.1 0.0 1:0.5 2:0.5 3:0.54 
0.1 0.1 1:0.5 2:0.5 3:0.84 
0.1 0.0 1:0.5 2:0.5 3:0.6666666666666666 
0.1 0.0 1:0.5 2:0.5 3:0.54 
0.1 0.1 1:0.5 2:0.5 3:0.84 
0.1 0.0 1:0.5 2:0.5 3:0.754 
0.1 0.0 1:0.5 2:0.5 3:0.754 
0.1 0.0 1:0.5 2:0.5 3:0.754 
0.1 0.1 1:0.5 2:0.5 3:0.84 
0.1 0.0 1:0.5 2:0.5 3:0.754 
0.1 0.0 1:0.5 2:0.5 3:0.754 
0.1 0.0 1:0.5 2:0.5 3:0.754 
0.0 0.1 1:0.5 2:0.5 3:0.8666666666666667 
0.1 0.0 1:0.5 2:0.5 3:0.6666666666666666 
0.1 0.1 1:0.5 2:0.5 3:0.8333333333333335 
0.1 0.1 1:0.5 2:0.5 3:0.8333333333333335 
0.1 0.0 1:0.5 2:0.5 3:0.64 
0.1 0.0 1:0.5 2:0.5 3:0.64 
0.1 0.0 1:0.5 2:0.5 3:0.6666666666666666 
0.1 0.0 1:0.5 2:0.5 3:0.754 
0.1 0.0 1:0.5 2:0.5 3:0.754 
0.1 0.0 1:0.5 2:0.5 3:0.54 
0.1 0.0 1:0.5 2:0.5 3:0.754 
0.1 0.1 1:0.5 2:0.5 3:0.84 
0.0 0.1 1:0.5 2:0.5 3:0.8571428571428571 
0.1 0.1 1:0.5 2:0.5 3:0.8333333333333335 
0.1 0.060224080535960456 1:0.5 2:0.5 3:0.754 
0.1 0.0 1:0.5 2:0.5 3:0.6666666666666666 
0.1 0.1 1:0.5 2:0.5 3:0.006782945736434108 
0.1 0.1 1:0.5 2:0.5 3:0.6666666666666666 
0.1 0.1 1:0.5 2:0.5 3:0.54 
0.1 0.0 1:0.5 2:0.5 3:0.7142857142857143 
0.1 0.1 1:0.5 2:0.5 3:0.8333333333333335 
0.1 0.1 1:0.5 2:0.5 3:0.0019474196689386564 
0.1 0.0 1:0.5 2:0.5 3:0.7142857142857143 
0.1 0.1 1:0.5 2:0.5 3:0.6666666666666666 
-0.1 0.1 1:0.5 2:0.5 3:0.754 
-0.1 0.0 1:0.5 2:0.5 3:9.746588693957114E-44 
-0.1 0.0 1:0.5 2:0.5 3:6.773461577539203E-54 
-0.1 0.1 1:0.5 2:0.5 3:0.84 
-0.1 0.0 1:0.5 2:0.5 3:0.006782945736434108 
-0.1 0.0 1:0.5 2:0.5 3:0.0038872691933916426 
-0.1 0.1 1:0.5 2:0.5 3:0.8571428571428571 
-0.1 0.1 1:0.5 2:0.5 3:0.84 
-0.1 0.0 1:0.5 2:0.5 3:0.7142857142857143 
-0.1 0.0 1:0.5 2:0.5 3:1.0159848279599025E-44 
-0.1 0.1 1:0.5 2:0.5 3:0.8333333333333335 
-0.1 0.1 1:0.5 2:0.5 3:0.84 
-0.1 0.1 1:0.5 2:0.5 3:0.754 
-0.1 0.1 1:0.5 2:0.5 3:0.754 
-0.1 0.1 1:0.5 2:0.5 3:0.8571428571428571 
-0.1 0.0 1:0.5 2:0.5 3:0.0029182879377431907 
-0.1 0.1 1:0.5 2:0.5 3:0.8333333333333335 
-0.1 0.0 1:0.5 2:0.5 3:7.629329048193518E-64 
-0.1 0.016109692671941515 1:0.5 2:0.5 3:3.38684549210865E-54 
-0.1 0.1 1:0.5 2:0.5 3:0.754 
-0.1 0.0 1:0.5 2:0.5 3:0.0029182879377431907 
-0.1 0.1 1:0.5 2:0.5 3:0.8333333333333335 
-0.1 0.0 1:0.5 2:0.5 3:0.0048543689320388345 
-0.1 0.1 1:0.5 2:0.5 3:0.84 
-0.1 0.0 1:0.5 2:0.5 3:0.0048543689320388345 
-0.1 0.1 1:0.5 2:0.5 3:0.8333333333333335 
-0.1 0.0 1:0.5 2:0.5 3:0.6666666666666666 
-0.1 0.1 1:0.5 2:0.5 3:0.754 
-0.1 0.0 1:0.5 2:0.5 3:0.54 
-0.1 0.0 1:0.5 2:0.5 3:0.54 
-0.1 0.0 1:0.5 2:0.5 3:0.0038872691933916426 
-0.1 0.1 1:0.5 2:0.5 3:0.84 
-0.1 0.0 1:0.5 2:0.5 3:0.54 
-0.1 0.1 1:0.5 2:0.5 3:0.7777777777777778 
-0.1 0.0 1:0.5 2:0.5 3:0.54 
-0.1 0.0 1:0.5 2:0.5 3:0.54 
-0.1 0.1 1:0.5 2:0.5 3:0.84 
-0.1 0.0 1:0.5 2:0.5 3:0.64 
-0.1 0.0 1:0.5 2:0.5 3:0.54 
-0.1 0.1 1:0.5 2:0.5 3:0.8333333333333335 
-0.1 0.1 1:0.5 2:0.5 3:0.7142857142857143 
-0.1 0.1 1:0.5 2:0.5 3:0.8333333333333335 
-0.1 0.0 1:0.5 2:0.5 3:0.0029182879377431907 
-0.1 0.0 1:0.5 2:0.5 3:0.0038872691933916426 
-0.1 0.0 1:0.5 2:0.5 3:0.6666666666666666 
-0.1 0.0 1:0.5 2:0.5 3:0.54 
-0.1 0.0 1:0.5 2:0.5 3:0.64 
-0.1 0.1 1:0.5 2:0.5 3:0.8754 
-0.1 0.1 1:0.5 2:0.5 3:0.84 
-0.1 0.0 1:0.5 2:0.5 3:0.64 
-0.1 0.0 1:0.5 2:0.5 3:0.54 
-0.1 0.0 1:0.5 2:0.5 3:0.6666666666666666 
-0.1 0.1 1:0.5 2:0.5 3:0.94 
-0.1 0.0 1:0.5 2:0.5 3:0.0019474196689386564 
-0.1 0.1 1:0.5 2:0.5 3:6.773461577539203E-54 
-0.1 0.0 1:0.5 2:0.5 3:0.3333333333333333 
-0.1 0.0 1:0.5 2:0.5 3:0.3333333333333333 
-0.1 0.1 1:0.5 2:0.5 3:0.754 
-0.1 0.1 1:0.5 2:0.5 3:0.754 
-0.1 0.0 1:0.5 2:0.5 3:0.0048543689320388345 
-0.1 0.1 1:0.5 2:0.5 3:0.84 
-0.1 0.0 1:0.5 2:0.5 3:0.6666666666666666 
-0.1 0.1 1:0.5 2:0.5 3:0.84 
-0.1 0.1 1:0.5 2:0.5 3:0.8333333333333335 
-0.1 0.0 1:0.5 2:0.5 3:0.0038872691933916426 
-0.1 0.0 1:0.5 2:0.5 3:0.006782945736434108 
-0.1 0.1 1:0.5 2:0.5 3:0.84 
-0.1 0.1 1:0.5 2:0.5 3:0.7142857142857143 
-0.1 0.0 1:0.5 2:0.5 3:0.54 
-0.1 0.0 1:0.5 2:0.5 3:0.64 
-0.1 0.1 1:0.5 2:0.5 3:0.8571428571428571 
-0.1 0.1 1:0.5 2:0.5 3:1.3546005621592333E-44 
-0.1 0.0 1:0.5 2:0.5 3:0.54 
-0.1 0.1 1:0.5 2:0.5 3:0.8333333333333335 
-0.1 0.0 1:0.5 2:0.5 3:0.005819592628516004 
-0.1 0.0 1:0.5 2:0.5 3:0.6666666666666666 
-0.1 0.1 1:0.5 2:0.5 3:9.536724974203159E-74 
-0.1 0.0 1:0.5 2:0.5 3:0.54 
-0.1 0.0 1:0.5 2:0.5 3:0.0038872691933916426 
-0.1 0.0 1:0.5 2:0.5 3:0.0019474196689386564 
-0.1 0.1 1:0.5 2:0.5 3:0.8571428571428571 
-0.1 0.0 1:0.5 2:0.5 3:0.54 
-0.1 0.1 1:0.5 2:0.5 3:0.754 
-0.1 0.0 1:0.5 2:0.5 3:0.6666666666666666 
-0.1 0.0 1:0.5 2:0.5 3:0.54 
-0.1 0.1 1:0.5 2:0.5 3:6.773461577539203E-54 
-0.1 0.0 1:0.5 2:0.5 3:0.54 
-0.1 0.1 1:0.5 2:0.5 3:0.7142857142857143 
-0.1 0.0 1:0.5 2:0.5 3:0.6666666666666666 
-0.1 0.0 1:0.5 2:0.5 3:0.005819592628516004 
-0.1 0.1 1:0.5 2:0.5 3:0.754 
-0.1 0.0 1:0.5 2:0.5 3:0.0038872691933916426 
-0.1 0.0 1:0.5 2:0.5 3:0.64 
-0.1 0.1 1:0.5 2:0.5 3:0.754 
-0.1 0.1 1:0.5 2:0.5 3:0.754 
-0.1 0.1 1:0.5 2:0.5 3:0.754 
-0.1 0.1 1:0.5 2:0.5 3:0.8333333333333335 
-0.1 0.0 1:0.5 2:0.5 3:0.6666666666666666 
-0.1 0.0 1:0.5 2:0.5 3:0.6666666666666666 
-0.1 0.1 1:0.5 2:0.5 3:7.629329048193518E-64 
-0.1 0.1 1:0.5 2:0.5 3:0.754 
-0.1 0.1 1:0.5 2:0.5 3:0.84 
-0.1 0.1 1:0.5 2:0.5 3:1.9073431758599017E-64 
-0.1 0.1 1:0.5 2:0.5 3:0.84 
-0.1 0.0 1:0.5 2:0.5 3:0.005819592628516004 
-0.1 0.0 1:0.5 2:0.5 3:0.3333333333333333 
-0.1 0.1 1:0.5 2:0.5 3:1.2397600587455536E-54 
-0.1 0.1 1:0.5 2:0.5 3:0.8571428571428571 
-0.1 0.0 1:0.5 2:0.5 3:0.0029182879377431907 
-0.1 0.0 1:0.5 2:0.5 3:0.6666666666666666 
-0.1 0.1 1:0.5 2:0.5 3:0.754 
-0.1 0.1 1:0.5 2:0.5 3:0.8333333333333335 
-0.1 0.1 1:0.5 2:0.5 3:5.119996854273933E-74 
-0.1 0.1 1:0.5 2:0.5 3:6.773461577539203E-54 
-0.1 0.1 1:0.5 2:0.5 3:0.754 
-0.1 0.0 1:0.5 2:0.5 3:0.54 
-0.1 0.0 1:0.5 2:0.5 3:0.6666666666666666 
-0.1 0.1 1:0.5 2:0.5 3:0.84 
-0.1 0.0 1:0.5 2:0.5 3:0.0048543689320388345 
-0.1 0.0 1:0.5 2:0.5 3:0.6666666666666666 
-0.1 0.1 1:0.5 2:0.5 3:0.8888888888888888 
-0.1 0.1 1:0.5 2:0.5 3:0.8888888888888888 
-0.1 0.0 1:0.5 2:0.5 3:0.007744433688286544 
-0.1 0.0 1:0.5 2:0.5 3:0.6666666666666666 
-0.1 0.0 1:0.5 2:0.5 3:0.6666666666666666 
-0.1 0.1 1:0.5 2:0.5 3:0.8888888888888888 
-0.1 0.0 1:0.5 2:0.5 3:0.54 
-0.1 0.0 1:0.5 2:0.5 3:0.6666666666666666 
-0.1 0.1 1:0.5 2:0.5 3:6.773461577539203E-54 
-0.1 0.0 1:0.5 2:0.5 3:0.6666666666666666 
-0.1 0.0 1:0.5 2:0.5 3:0.54 
-0.1 0.1 1:0.5 2:0.5 3:0.754 
-0.1 0.1 1:0.5 2:0.5 3:0.754 
-0.1 0.0 1:0.5 2:0.5 3:0.0019474196689386564 
-0.1 0.1 1:0.5 2:0.5 3:0.7142857142857143 
-0.1 0.1 1:0.5 2:0.5 3:0.8754 
-0.1 0.1 1:0.5 2:0.5 3:0.8333333333333335 
-0.1 0.0 1:0.5 2:0.5 3:0.54 
-0.1 0.0 1:0.5 2:0.5 3:0.54 
-0.1 0.0 1:0.5 2:0.5 3:0.0038872691933916426 
-0.1 0.0 1:0.5 2:0.5 3:0.54 
-0.1 0.1 1:0.5 2:0.5 3:0.84 
-0.1 0.1 1:0.5 2:0.5 3:0.8333333333333335 
-0.1 0.1 1:0.5 2:0.5 3:3.8146790758177E-64 
-0.1 0.0 1:0.5 2:0.5 3:0.64 
-0.1 0.1 1:0.5 2:0.5 3:0.7142857142857143 
-0.1 0.0 1:0.5 2:0.5 3:0.54 
-0.1 0.1 1:0.5 2:0.5 3:0.8754 
-0.1 0.1 1:0.5 2:0.5 3:0.754 
-0.1 0.0 1:0.5 2:0.5 3:0.6666666666666666 
-0.1 0.1 1:0.5 2:0.5 3:0.8571428571428571 
-0.1 0.1 1:0.5 2:0.5 3:0.84 
-0.1 0.0 1:0.5 2:0.5 3:0.6666666666666666 
-0.1 0.0 1:0.5 2:0.5 3:0.54 
-0.1 0.0 1:0.5 2:0.5 3:0.6666666666666666 
-0.1 0.0 1:0.5 2:0.5 3:0.64 
-0.1 0.0 1:0.5 2:0.5 3:0.64 
-0.1 0.0 1:0.5 2:0.5 3:0.54 
-0.1 0.1 1:0.5 2:0.5 3:0.7142857142857143 
-0.1 0.1 1:0.5 2:0.5 3:0.754 
-0.1 0.0 1:0.5 2:0.5 3:0.0019474196689386564 
-0.1 0.1 1:0.5 2:0.5 3:0.8754 
-0.1 0.1 1:0.5 2:0.5 3:0.8333333333333335 
-0.1 0.1 1:0.5 2:0.5 3:1.3546005621592333E-44 
-0.1 0.1 1:0.5 2:0.5 3:0.84 
-0.1 0.0 1:0.5 2:0.5 3:0.64 
-0.1 0.1 1:0.5 2:0.5 3:0.754 
-0.1 0.0 1:0.5 2:0.5 3:0.6666666666666666 
-0.1 0.1 1:0.5 2:0.5 3:0.754 
-0.1 0.1 1:0.5 2:0.5 3:1.0159848279599025E-44 
-0.1 0.0 1:0.5 2:0.5 3:0.6666666666666666 
-0.1 0.1 1:0.5 2:0.5 3:0.754 
-0.1 0.0 1:0.5 2:0.5 3:0.0038872691933916426 
-0.1 0.1 1:0.5 2:0.5 3:0.754 
-0.1 0.1 1:0.5 2:0.5 3:3.8146790758177E-64 
-0.1 0.1 1:0.5 2:0.5 3:1.0159848279599025E-44 
-0.1 0.0 1:0.5 2:0.5 3:0.0019474196689386564 
-0.1 0.1 1:0.5 2:0.5 3:0.754 
-0.1 0.0 1:0.5 2:0.5 3:0.6666666666666666 
-0.1 0.1 1:0.5 2:0.5 3:0.84 
-0.1 0.1 1:0.5 2:0.5 3:0.8754 
-0.1 0.1 1:0.5 2:0.5 3:1.3546005621592333E-44 
-0.1 0.1 1:0.5 2:0.5 3:9.746588693957114E-44 
-0.1 0.0838903073280585 1:0.5 2:0.5 3:0.84 
-0.1 0.0 1:0.5 2:0.5 3:0.6666666666666666 
-0.1 0.0 1:0.5 2:0.5 3:0.64 
-0.1 0.0 1:0.5 2:0.5 3:0.54 
-0.1 0.1 1:0.5 2:0.5 3:0.8333333333333335 
-0.1 0.0 1:0.5 2:0.5 3:0.6666666666666666 
-0.1 0.1 1:0.5 2:0.5 3:0.7142857142857143 
-0.1 0.0 1:0.5 2:0.5 3:0.54 
-0.1 0.0 1:0.5 2:0.5 3:0.64 
-0.1 0.0 1:0.5 2:0.5 3:0.6666666666666666 
-0.1 0.1 1:0.5 2:0.5 3:0.8333333333333335 
-0.1 0.0 1:0.5 2:0.5 3:0.6666666666666666 
-0.1 0.0 1:0.5 2:0.5 3:0.54 
-0.1 0.1 1:0.5 2:0.5 3:5.0801822092019033E-54 
-0.1 0.0 1:0.5 2:0.5 3:0.0019474196689386564 
-0.1 0.0 1:0.5 2:0.5 3:0.6666666666666666 
-0.1 0.0 1:0.5 2:0.5 3:0.6666666666666666 
-0.1 0.1 1:0.5 2:0.5 3:6.773461577539203E-54 
-0.1 0.1 1:0.5 2:0.5 3:0.8333333333333335 
-0.1 0.1 1:0.5 2:0.5 3:5.0801822092019033E-54 
-0.1 0.0 1:0.5 2:0.5 3:0.54 
-0.1 0.0 1:0.5 2:0.5 3:0.54 
-0.1 0.0 1:0.5 2:0.5 3:0.64 
-0.1 0.0 1:0.5 2:0.5 3:0.6666666666666666 
-0.1 0.0 1:0.5 2:0.5 3:0.0038872691933916426 
-0.1 0.1 1:0.5 2:0.5 3:0.754 
-0.1 0.1 1:0.5 2:0.5 3:5.0801822092019033E-54 
-0.1 0.0 1:0.5 2:0.5 3:0.009661835748792274 
-0.1 0.0 1:0.5 2:0.5 3:0.0048543689320388345 
-0.1 0.1 1:0.5 2:0.5 3:5.0801822092019033E-54 
-0.1 0.1 1:0.5 2:0.5 3:2.861012035323962E-64 
-0.1 0.1 1:0.5 2:0.5 3:0.7142857142857143 
-0.1 0.0 1:0.5 2:0.5 3:0.007744433688286544 
-0.1 0.0 1:0.5 2:0.5 3:0.0038872691933916426 
-0.1 0.1 1:0.5 2:0.5 3:0.7777777777777778 
-0.1 0.0 1:0.5 2:0.5 3:0.6666666666666666 
-0.1 0.1 1:0.5 2:0.5 3:0.94 
-0.1 0.1 1:0.5 2:0.5 3:0.6666666666666666 
-0.1 0.1 1:0.5 2:0.5 3:0.9230769230769231 
-0.1 -0.1 1:0.5 2:0.5 3:0.8754 
-0.1 -0.1 1:0.5 2:0.5 3:0.6666666666666666 
-0.1 -0.1 1:0.5 2:0.5 3:0.54 
-0.1 -0.1 1:0.5 2:0.5 3:0.54 
-0.1 -0.1 1:0.5 2:0.5 3:0.6666666666666666 
-0.1 -0.1 1:0.5 2:0.5 3:0.0029182879377431907 
-0.1 -0.1 1:0.5 2:0.5 3:0.0019474196689386564 
-0.1 -0.1 1:0.5 2:0.5 3:1.0159848279599025E-44 
-0.1 -0.1 1:0.5 2:0.5 3:0.6666666666666666 
-0.1 -0.1 1:0.5 2:0.5 3:0.6666666666666666 
-0.1 -0.1 1:0.5 2:0.5 3:0.8333333333333335 
-0.1 -0.1 1:0.5 2:0.5 3:0.0019474196689386564 
-0.1 -0.1 1:0.5 2:0.5 3:0.9230769230769231 
-0.1 -0.1 1:0.5 2:0.5 3:0.7142857142857143 
-0.1 -0.1 1:0.5 2:0.5 3:5.0801822092019033E-54 
-0.1 -0.1 1:0.5 2:0.5 3:0.754 
-0.1 -0.1 1:0.5 2:0.5 3:0.6666666666666666 
-0.1 -0.1 1:0.5 2:0.5 3:0.6666666666666666 
-0.1 -0.1 1:0.5 2:0.5 3:0.6666666666666666 
-0.1 -0.1 1:0.5 2:0.5 3:0.8333333333333335 
-0.1 -0.1 1:0.5 2:0.5 3:0.0048543689320388345 
-0.1 -0.1 1:0.5 2:0.5 3:0.6666666666666666 
-0.1 -0.1 1:0.5 2:0.5 3:0.84 
-0.1 -0.1 1:0.5 2:0.5 3:0.6666666666666666 
-0.1 -0.1 1:0.5 2:0.5 3:0.6666666666666666 
-0.1 -0.1 1:0.5 2:0.5 3:0.6666666666666666 
-0.1 -0.1 1:0.5 2:0.5 3:0.54 
-0.1 -0.1 1:0.5 2:0.5 3:0.6666666666666666 
-0.1 -0.1 1:0.5 2:0.5 3:0.64 
-0.1 -0.1 1:0.5 2:0.5 3:0.754 
-0.1 -0.1 1:0.5 2:0.5 3:0.6666666666666666 
-0.1 -0.1 1:0.5 2:0.5 3:0.8333333333333335 
-0.1 -0.1 1:0.5 2:0.5 3:0.6666666666666666 
-0.1 -0.1 1:0.5 2:0.5 3:0.6666666666666666 
-0.1 -0.1 1:0.5 2:0.5 3:0.8888888888888888 
-0.1 -0.1 1:0.5 2:0.5 3:0.8333333333333335 
-0.1 -0.1 1:0.5 2:0.5 3:0.84 
-0.1 -0.1 1:0.5 2:0.5 3:0.54 
-0.1 -0.1 1:0.5 2:0.5 3:0.84 
-0.1 -0.1 1:0.5 2:0.5 3:0.754 
-0.1 -0.1 1:0.5 2:0.5 3:0.54 
-0.1 -0.1 1:0.5 2:0.5 3:0.3333333333333333 
-0.1 -0.1 1:0.5 2:0.5 3:0.754 
-0.1 -0.1 1:0.5 2:0.5 3:0.8571428571428571 
-0.1 -0.1 1:0.5 2:0.5 3:0.6666666666666666 
-0.1 -0.1 1:0.5 2:0.5 3:0.8333333333333335 
-0.1 -0.1 1:0.5 2:0.5 3:0.6666666666666666 
-0.1 -0.1 1:0.5 2:0.5 3:0.754 
-0.1 -0.1 1:0.5 2:0.5 3:8.466683600033866E-54 
-0.1 -0.1 1:0.5 2:0.5 3:3.8146790758177E-64 
-0.1 -0.1 1:0.5 2:0.5 3:0.7142857142857143 
-0.1 -0.1 1:0.5 2:0.5 3:0.6666666666666666 
-0.1 -0.1 1:0.5 2:0.5 3:0.54 
-0.1 -0.1 1:0.5 2:0.5 3:0.754 
-0.1 -0.1 1:0.5 2:0.5 3:0.64 
-0.1 -0.1 1:0.5 2:0.5 3:0.0019474196689386564 
-0.1 -0.1 1:0.5 2:0.5 3:0.754 
-0.1 -0.1 1:0.5 2:0.5 3:0.8333333333333335 
-0.1 -0.1 1:0.5 2:0.5 3:0.754 
-0.1 -0.1 1:0.5 2:0.5 3:0.54 
-0.1 -0.1 1:0.5 2:0.5 3:0.754 
-0.1 -0.1 1:0.5 2:0.5 3:0.84 
-0.1 -0.1 1:0.5 2:0.5 3:0.6666666666666666 
-0.1 -0.1 1:0.5 2:0.5 3:0.8333333333333335 
-0.1 -0.1 1:0.5 2:0.5 3:0.84 
-0.1 -0.1 1:0.5 2:0.5 3:0.6666666666666666 
-0.1 -0.1 1:0.5 2:0.5 3:0.8571428571428571 
-0.1 -0.1 1:0.5 2:0.5 3:0.8571428571428571 
-0.1 -0.1 1:0.5 2:0.5 3:0.54 
-0.1 -0.1 1:0.5 2:0.5 3:0.754 
-0.1 -0.1 1:0.5 2:0.5 3:0.54 
-0.1 -0.1 1:0.5 2:0.5 3:0.54 
-0.1 -0.1 1:0.5 2:0.5 3:0.84 
-0.1 -0.1 1:0.5 2:0.5 3:0.754 
-0.1 -0.1 1:0.5 2:0.5 3:0.6666666666666666 
-0.1 -0.1 1:0.5 2:0.5 3:0.6666666666666666 
-0.1 -0.1 1:0.5 2:0.5 3:0.6666666666666666 
-0.1 -0.1 1:0.5 2:0.5 3:0.6666666666666666 
-0.1 -0.1 1:0.5 2:0.5 3:0.754 
-0.1 -0.1 1:0.5 2:0.5 3:0.8333333333333335 
-0.1 -0.1 1:0.5 2:0.5 3:0.0029182879377431907 
-0.1 -0.1 1:0.5 2:0.5 3:0.54 
-0.1 -0.1 1:0.5 2:0.5 3:2.861012035323962E-64 
-0.1 -0.1 1:0.5 2:0.5 3:0.84 
-0.1 -0.1 1:0.5 2:0.5 3:0.6666666666666666 
-0.1 -0.1 1:0.5 2:0.5 3:0.0019474196689386564 
-0.1 -0.1 1:0.5 2:0.5 3:0.84 
-0.1 -0.1 1:0.5 2:0.5 3:0.754 
-0.1 -0.1 1:0.5 2:0.5 3:0.754 
-0.1 -0.1 1:0.5 2:0.5 3:0.8181818181818182 
-0.1 -0.1 1:0.5 2:0.5 3:0.54 
-0.1 -0.1 1:0.5 2:0.5 3:0.6666666666666666 
-0.1 -0.1 1:0.5 2:0.5 3:0.8571428571428571 
-0.1 -0.1 1:0.5 2:0.5 3:0.7142857142857143 
-0.1 -0.1 1:0.5 2:0.5 3:0.54 
-0.1 -0.1 1:0.5 2:0.5 3:0.754 
-0.1 -0.1 1:0.5 2:0.5 3:0.754 
-0.1 -0.1 1:0.5 2:0.5 3:0.84 
-0.1 -0.1 1:0.5 2:0.5 3:0.84 
-0.1 -0.1 1:0.5 2:0.5 3:0.6666666666666666 
-0.1 -0.1 1:0.5 2:0.5 3:0.754 
-0.1 -0.1 1:0.5 2:0.5 3:0.84 
-0.1 -0.1 1:0.5 2:0.5 3:0.6666666666666666 
-0.1 -0.1 1:0.5 2:0.5 3:0.6666666666666666 
-0.1 -0.1 1:0.5 2:0.5 3:0.6666666666666666 
-0.1 -0.1 1:0.5 2:0.5 3:0.754 
-0.1 -0.1 1:0.5 2:0.5 3:0.6666666666666666 
-0.1 -0.1 1:0.5 2:0.5 3:0.54 
-0.1 -0.1 1:0.5 2:0.5 3:0.84 
-0.1 -0.1 1:0.5 2:0.5 3:0.84 
