svm_type c_svc
kernel_type linear
nr_class 3
total_sv 598
rho 1.0 -0.9999999998490794 -0.9999999968686664
label 0 1 2
nr_sv 254 255 89
SV
0.1 0.1 1:0.5 2:0.5 3:3.38684549210865E-54 
0.1 0.0 1:0.5 2:0.5 3:0.0038872691933916426 
0.1 0.0 1:0.5 2:0.5 3:0.54 
0.1 0.0 1:0.5 2:0.5 3:0.8333333333333335 
0.1 0.0 1:0.5 2:0.5 3:0.754 
0.1 0.0 1:0.5 2:0.5 3:0.8333333333333335 
0.1 0.0 1:0.5 2:0.5 3:0.64 
0.1 0.1 1:0.5 2:0.5 3:0.8754 
0.1 0.1 1:0.5 2:0.5 3:0.94 
0.1 0.0 1:0.5 2:0.5 3:0.54 
0.1 0.1 1:0.5 2:0.5 3:3.8146790758177E-64 
0.1 0.1 1:0.5 2:0.5 3:0.8571428571428571 
0.1 0.0 1:0.5 2:0.5 3:0.54 
0.1 0.0 1:0.5 2:0.5 3:0.0048543689320388345 
0.1 0.0 1:0.5 2:0.5 3:0.6666666666666666 
0.1 0.0 1:0.5 2:0.5 3:0.84 
0.1 0.0 1:0.5 2:0.5 3:0.8333333333333335 
0.1 0.0 1:0.5 2:0.5 3:0.54 
0.1 0.1 1:0.5 2:0.5 3:0.8888888888888888 
0.1 0.0 1:0.5 2:0.5 3:0.84 
0.1 0.0 1:0.5 2:0.5 3:0.6666666666666666 
0.1 0.0 1:0.5 2:0.5 3:0.7777777777777778 
0.1 0.0 1:0.5 2:0.5 3:0.64 
0.1 0.0 1:0.5 2:0.5 3:0.6666666666666666 
0.1 0.0 1:0.5 2:0.5 3:0.84 
0.1 0.0 1:0.5 2:0.5 3:0.8333333333333335 
0.1 0.012971452371876422 1:0.5 2:0.5 3:0.84 
0.1 0.0 1:0.5 2:0.5 3:0.64 
0.1 0.1 1:0.5 2:0.5 3:0.8888888888888888 
0.1 0.0 1:0.5 2:0.5 3:0.6666666666666666 
0.1 0.0 1:0.5 2:0.5 3:0.6666666666666666 
0.1 0.0 1:0.5 2:0.5 3:0.009661835748792274 
0.1 0.0 1:0.5 2:0.5 3:0.6666666666666666 
0.1 0.0 1:0.5 2:0.5 3:0.54 
0.1 0.0 1:0.5 2:0.5 3:0.3333333333333333 
0.1 0.0 1:0.5 2:0.5 3:0.8181818181818182 
0.1 0.1 1:0.5 2:0.5 3:0.84 
0.1 0.0 1:0.5 2:0.5 3:0.54 
0.1 0.1 1:0.5 2:0.5 3:0.84 
0.1 0.1 1:0.5 2:0.5 3:0.84 
0.1 0.1 1:0.5 2:0.5 3:0.84 
0.1 0.1 1:0.5 2:0.5 3:0.0019474196689386564 
0.1 0.0 1:0.5 2:0.5 3:0.6666666666666666 
0.1 0.0 1:0.5 2:0.5 3:0.0038872691933916426 
0.1 0.0 1:0.5 2:0.5 3:0.8333333333333335 
0.1 0.0 1:0.5 2:0.5 3:0.64 
0.1 0.1 1:0.5 2:0.5 3:3.38684549210865E-54 
0.1 0.1 1:0.5 2:0.5 3:0.8754 
0.1 0.1 1:0.5 2:0.5 3:0.84 
0.1 0.0 1:0.5 2:0.5 3:0.6666666666666666 
0.1 0.0 1:0.5 2:0.5 3:0.6666666666666666 
0.1 0.0 1:0.5 2:0.5 3:0.754 
0.1 0.0 1:0.5 2:0.5 3:0.6666666666666666 
0.1 0.1 1:0.5 2:0.5 3:0.0019474196689386564 
0.1 0.0 1:0.5 2:0.5 3:0.007744433688286544 
0.1 0.1 1:0.5 2:0.5 3:0.0019474196689386564 
0.1 0.0 1:0.5 2:0.5 3:0.8333333333333335 
0.1 0.0 1:0.5 2:0.5 3:0.6666666666666666 
0.1 0.0 1:0.5 2:0.5 3:0.0048543689320388345 
0.1 0.0 1:0.5 2:0.5 3:0.754 
0.1 0.1 1:0.5 2:0.5 3:1.6931933626820185E-44 
0.1 0.0 1:0.5 2:0.5 3:0.54 
0.1 0.1 1:0.5 2:0.5 3:0.8571428571428571 
0.1 0.0 1:0.5 2:0.5 3:0.54 
0.1 0.0 1:0.5 2:0.5 3:0.54 
0.1 0.1 1:0.5 2:0.5 3:0.94 
0.1 0.0 1:0.5 2:0.5 3:0.754 
0.1 0.1 1:0.5 2:0.5 3:0.84 
0.1 0.0 1:0.5 2:0.5 3:0.005819592628516004 
0.1 0.1 1:0.5 2:0.5 3:0.9333333333333333 
0.1 0.1 1:0.5 2:0.5 3:8.191992450259758E-74 
0.1 0.1 1:0.5 2:0.5 3:0.9090909090909092 
0.1 0.0 1:0.5 2:0.5 3:0.54 
0.1 0.0 1:0.5 2:0.5 3:0.7777777777777778 
0.1 0.0 1:0.5 2:0.5 3:0.8333333333333335 
0.1 0.1 1:0.5 2:0.5 3:0.84 
0.1 0.0 1:0.5 2:0.5 3:0.8333333333333335 
0.1 0.0 1:0.5 2:0.5 3:0.54 
0.1 0.0 1:0.5 2:0.5 3:0.6666666666666666 
0.1 0.0 1:0.5 2:0.5 3:0.7777777777777778 
0.1 0.0 1:0.5 2:0.5 3:0.6666666666666666 
0.1 0.0 1:0.5 2:0.5 3:0.8333333333333335 
0.1 0.0 1:0.5 2:0.5 3:0.0038872691933916426 
0.1 0.0 1:0.5 2:0.5 3:0.8333333333333335 
0.1 0.1 1:0.5 2:0.5 3:0.8571428571428571 
0.1 0.0 1:0.5 2:0.5 3:0.754 
0.1 0.1 1:0.5 2:0.5 3:0.0019474196689386564 
0.1 0.1 1:0.5 2:0.5 3:0.84 
0.1 0.0 1:0.5 2:0.5 3:0.6666666666666666 
0.1 0.0 1:0.5 2:0.5 3:0.54 
0.1 0.0 1:0.5 2:0.5 3:0.8333333333333335 
0.1 0.1 1:0.5 2:0.5 3:4.768344297346321E-64 
0.1 0.1 1:0.5 2:0.5 3:0.84 
0.1 0.0 1:0.5 2:0.5 3:0.6666666666666666 
0.1 0.0 1:0.5 2:0.5 3:0.54 
0.1 0.0 1:0.5 2:0.5 3:0.007744433688286544 
0.1 0.0 1:0.5 2:0.5 3:0.754 
0.1 0.0 1:0.5 2:0.5 3:0.0048543689320388345 
0.1 0.1 1:0.5 2:0.5 3:0.84 
0.1 0.1 1:0.5 2:0.5 3:0.0019474196689386564 
0.1 0.0 1:0.5 2:0.5 3:0.0048543689320388345 
0.1 0.0 1:0.5 2:0.5 3:0.0048543689320388345 
0.1 0.1 1:0.5 2:0.5 3:0.8888888888888888 
0.1 0.1 1:0.5 2:0.5 3:6.773461577539203E-54 
0.1 0.0 1:0.5 2:0.5 3:0.3333333333333333 
0.1 0.1 1:0.5 2:0.5 3:1.1852955619147604E-44 
0.1 0.0 1:0.5 2:0.5 3:0.6666666666666666 
0.1 0.0 1:0.5 2:0.5 3:0.754 
0.1 0.1 1:0.5 2:0.5 3:6.675669283529026E-64 
0.1 0.1 1:0.5 2:0.5 3:3.38684549210865E-54 
0.1 0.0 1:0.5 2:0.5 3:0.6666666666666666 
0.1 0.0 1:0.5 2:0.5 3:0.6666666666666666 
0.1 0.1 1:0.5 2:0.5 3:0.9285714285714286 
0.1 0.0 1:0.5 2:0.5 3:0.754 
0.1 0.1 1:0.5 2:0.5 3:0.84 
0.1 0.1 1:0.5 2:0.5 3:0.8888888888888888 
0.1 0.0 1:0.5 2:0.5 3:0.8333333333333335 
0.1 0.0 1:0.5 2:0.5 3:0.6666666666666666 
0.1 0.0 1:0.5 2:0.5 3:0.0038872691933916426 
0.1 0.0 1:0.5 2:0.5 3:0.6666666666666666 
0.1 0.1 1:0.5 2:0.5 3:0.8754 
0.1 0.1 1:0.5 2:0.5 3:0.9166666666666666 
0.1 0.1 1:0.5 2:0.5 3:0.8571428571428571 
0.1 0.0 1:0.5 2:0.5 3:0.7142857142857143 
0.1 0.1 1:0.5 2:0.5 3:0.8754 
0.1 0.0 1:0.5 2:0.5 3:0.54 
0.1 0.0 1:0.5 2:0.5 3:0.7142857142857143 
0.1 0.0 1:0.5 2:0.5 3:0.0038872691933916426 
0.1 0.0 1:0.5 2:0.5 3:0.8333333333333335 
0.1 0.0 1:0.5 2:0.5 3:0.54 
0.1 0.1 1:0.5 2:0.5 3:0.84 
0.1 0.1 1:0.5 2:0.5 3:0.84 
0.1 0.1 1:0.5 2:0.5 3:0.8571428571428571 
0.1 0.0 1:0.5 2:0.5 3:0.0048543689320388345 
0.1 0.0 1:0.5 2:0.5 3:0.754 
0.1 0.0 1:0.5 2:0.5 3:0.6666666666666666 
0.1 0.1 1:0.5 2:0.5 3:6.773461577539203E-54 
0.1 0.0 1:0.5 2:0.5 3:0.54 
0.1 0.1 1:0.5 2:0.5 3:0.84 
0.1 0.0 1:0.5 2:0.5 3:0.6666666666666666 
0.1 0.0 1:0.5 2:0.5 3:0.8333333333333335 
0.1 0.0 1:0.5 2:0.5 3:0.6666666666666666 
0.1 0.0 1:0.5 2:0.5 3:0.3333333333333333 
0.1 0.1 1:0.5 2:0.5 3:0.84 
0.1 0.0 1:0.5 2:0.5 3:0.754 
0.1 0.0 1:0.5 2:0.5 3:0.754 
0.1 0.1 1:0.5 2:0.5 3:6.143995595983957E-74 
0.1 0.0 1:0.5 2:0.5 3:0.005819592628516004 
0.1 0.1 1:0.5 2:0.5 3:6.143995595983957E-74 
0.1 0.0 1:0.5 2:0.5 3:0.754 
0.1 0.0 1:0.5 2:0.5 3:0.6666666666666666 
0.1 0.0 1:0.5 2:0.5 3:0.6666666666666666 
0.1 0.1 1:0.5 2:0.5 3:8.191992450259758E-74 
0.1 0.1 1:0.5 2:0.5 3:0.84 
0.1 0.0 1:0.5 2:0.5 3:0.64 
0.1 0.0 1:0.5 2:0.5 3:0.754 
0.1 0.1 1:0.5 2:0.5 3:1.0159848279599025E-44 
0.1 0.0 1:0.5 2:0.5 3:0.54 
0.1 0.1 1:0.5 2:0.5 3:3.38684549210865E-54 
0.1 0.0 1:0.5 2:0.5 3:0.6666666666666666 
0.1 0.1 1:0.5 2:0.5 3:0.84 
0.1 0.0 1:0.5 2:0.5 3:0.6666666666666666 
0.1 0.0 1:0.5 2:0.5 3:0.54 
0.1 0.1 1:0.5 2:0.5 3:0.84 
0.1 0.1 1:0.5 2:0.5 3:0.8754 
0.1 0.1 1:0.5 2:0.5 3:0.84 
0.1 0.1 1:0.5 2:0.5 3:0.94 
0.1 0.0 1:0.5 2:0.5 3:0.754 
0.1 0.0 1:0.5 2:0.5 3:0.0029182879377431907 
0.1 0.0 1:0.5 2:0.5 3:0.6666666666666666 
0.1 0.0 1:0.5 2:0.5 3:0.0029182879377431907 
0.1 0.0 1:0.5 2:0.5 3:0.754 
0.1 0.0 1:0.5 2:0.5 3:0.6666666666666666 
0.1 0.0 1:0.5 2:0.5 3:0.0029182879377431907 
0.1 0.1 1:0.5 2:0.5 3:0.8571428571428571 
0.1 0.1 1:0.5 2:0.5 3:0.84 
0.1 0.0 1:0.5 2:0.5 3:0.6666666666666666 
0.1 0.0 1:0.5 2:0.5 3:0.54 
0.1 0.0 1:0.5 2:0.5 3:0.64 
0.1 0.1 1:0.5 2:0.5 3:1.0159848279599025E-44 
0.1 0.1 1:0.5 2:0.5 3:0.8571428571428571 
0.1 0.0 1:0.5 2:0.5 3:0.754 
0.1 0.1 1:0.5 2:0.5 3:1.6934514233459215E-54 
0.1 0.0 1:0.5 2:0.5 3:0.3333333333333333 
0.1 0.1 1:0.5 2:0.5 3:0.84 
0.1 0.0 1:0.5 2:0.5 3:0.7142857142857143 
0.1 0.1 1:0.5 2:0.5 3:0.8571428571428571 
0.1 0.0 1:0.5 2:0.5 3:0.3333333333333333 
0.1 0.0 1:0.5 2:0.5 3:0.8333333333333335 
0.1 0.1 1:0.5 2:0.5 3:0.84 
0.1 0.1 1:0.5 2:0.5 3:9.922901864005538E-84 
0.1 0.1 1:0.5 2:0.5 3:8.466683600033866E-54 
0.1 0.0 1:0.5 2:0.5 3:0.754 
0.1 0.0 1:0.5 2:0.5 3:0.7142857142857143 
0.1 0.0 1:0.5 2:0.5 3:0.0038872691933916426 
0.1 0.0 1:0.5 2:0.5 3:0.754 
0.1 0.0 1:0.5 2:0.5 3:0.6666666666666666 
0.1 0.0 1:0.5 2:0.5 3:0.7142857142857143 
0.1 0.0 1:0.5 2:0.5 3:0.7777777777777778 
0.1 0.0 1:0.5 2:0.5 3:0.8333333333333335 
0.1 0.0 1:0.5 2:0.5 3:0.54 
0.1 0.1 1:0.5 2:0.5 3:5.722007699915028E-64 
0.1 0.1 1:0.5 2:0.5 3:1.0159848279599025E-44 
0.1 0.1 1:0.5 2:0.5 3:3.38684549210865E-54 
0.1 0.0 1:0.5 2:0.5 3:0.6666666666666666 
0.1 0.0 1:0.5 2:0.5 3:0.8333333333333335 
0.1 0.1 1:0.5 2:0.5 3:0.8571428571428571 
0.1 0.1 1:0.5 2:0.5 3:0.84 
0.1 0.0 1:0.5 2:0.5 3:0.0029182879377431907 
0.1 0.0 1:0.5 2:0.5 3:0.8333333333333335 
0.1 0.0 1:0.5 2:0.5 3:0.0029182879377431907 
0.1 0.0 1:0.5 2:0.5 3:0.0029182879377431907 
0.1 0.0 1:0.5 2:0.5 3:0.7777777777777778 
0.1 0.0 1:0.5 2:0.5 3:0.6666666666666666 
0.1 0.0 1:0.5 2:0.5 3:0.6666666666666666 
0.1 0.0 1:0.5 2:0.5 3:0.6666666666666666 
0.1 0.0 1:0.5 2:0.5 3:0.54 
0.1 0.0 1:0.5 2:0.5 3:0.6666666666666666 
0.1 0.1 1:0.5 2:0.5 3:0.8754 
0.1 0.1 1:0.5 2:0.5 3:0.84 
0.1 0.0 1:0.5 2:0.5 3:0.6666666666666666 
0.1 0.0 1:0.5 2:0.5 3:0.64 
0.1 0.0 1:0.5 2:0.5 3:0.8333333333333335 
0.1 0.0 1:0.5 2:0.5 3:0.7142857142857143 
0.1 0.1 1:0.5 2:0.5 3:9.746588693957114E-44 
0.1 0.0 1:0.5 2:0.5 3:0.754 
0.1 0.1 1:0.5 2:0.5 3:0.8754 
0.1 0.0 1:0.5 2:0.5 3:0.54 
0.1 0.1 1:0.5 2:0.5 3:0.8754 
0.1 0.0 1:0.5 2:0.5 3:0.7777777777777778 
0.1 0.1 1:0.5 2:0.5 3:0.8754 
0.1 0.0 1:0.5 2:0.5 3:0.0029182879377431907 
0.1 0.0 1:0.5 2:0.5 3:0.6666666666666666 
0.1 0.0 1:0.5 2:0.5 3:0.7777777777777778 
0.1 0.1 1:0.5 2:0.5 3:0.9285714285714286 
0.1 0.0 1:0.5 2:0.5 3:0.7777777777777778 
0.1 0.0 1:0.5 2:0.5 3:0.3333333333333333 
0.1 0.0 1:0.5 2:0.5 3:0.005819592628516004 
0.1 0.1 1:0.5 2:0.5 3:5.0801822092019033E-54 
0.1 0.0 1:0.5 2:0.5 3:0.6666666666666666 
0.1 0.0 1:0.5 2:0.5 3:0.0038872691933916426 
0.1 0.0 1:0.5 2:0.5 3:0.754 
0.1 0.0 1:0.5 2:0.5 3:0.54 
0.1 0.1 1:0.5 2:0.5 3:8.466683600033866E-54 
0.1 0.0 1:0.5 2:0.5 3:0.8333333333333335 
0.1 0.08702854762812358 1:0.5 2:0.5 3:4.768344297346321E-64 
0.1 0.0 1:0.5 2:0.5 3:0.7777777777777778 
0.1 0.0 1:0.5 2:0.5 3:0.64 
0.1 0.0 1:0.5 2:0.5 3:0.54 
0.1 0.0 1:0.5 2:0.5 3:0.0029182879377431907 
0.1 0.0 1:0.5 2:0.5 3:0.54 
0.1 0.1 1:0.5 2:0.5 3:0.9230769230769231 
0.1 0.1 1:0.5 2:0.5 3:0.6666666666666666 
0.1 0.1 1:0.5 2:0.5 3:0.8181818181818182 
-0.1 0.0 1:0.5 2:0.5 3:0.6666666666666666 
-0.1 0.0 1:0.5 2:0.5 3:0.64 
-0.1 0.0 1:0.5 2:0.5 3:0.54 
-0.1 0.0 1:0.5 2:0.5 3:0.64 
-0.1 0.0 1:0.5 2:0.5 3:0.54 
-0.1 0.0 1:0.5 2:0.5 3:0.0019474196689386564 
-0.1 0.0 1:0.5 2:0.5 3:0.54 
-0.1 0.0 1:0.5 2:0.5 3:0.7777777777777778 
-0.1 0.1 1:0.5 2:0.5 3:0.84 
-0.1 0.0 1:0.5 2:0.5 3:0.6666666666666666 
-0.1 0.0 1:0.5 2:0.5 3:0.6666666666666666 
-0.1 0.0 1:0.5 2:0.5 3:0.6666666666666666 
-0.1 0.0 1:0.5 2:0.5 3:0.6666666666666666 
-0.1 0.0 1:0.5 2:0.5 3:0.0019474196689386564 
-0.1 0.0 1:0.5 2:0.5 3:0.3333333333333333 
-0.1 0.0 1:0.5 2:0.5 3:0.54 
-0.1 0.0 1:0.5 2:0.5 3:0.6666666666666666 
-0.1 0.0 1:0.5 2:0.5 3:0.6666666666666666 
-0.1 0.0 1:0.5 2:0.5 3:0.54 
-0.1 0.1 1:0.5 2:0.5 3:0.84 
-0.1 0.1 1:0.5 2:0.5 3:0.84 
-0.1 0.0 1:0.5 2:0.5 3:0.54 
-0.0 0.1 1:0.5 2:0.5 3:9.746588693957114E-44 
-0.1 0.0 1:0.5 2:0.5 3:0.64 
-0.1 0.0 1:0.5 2:0.5 3:0.0029182879377431907 
-0.1 0.0 1:0.5 2:0.5 3:0.6666666666666666 
-0.1 0.1 1:0.5 2:0.5 3:5.0801822092019033E-54 
-0.1 0.0 1:0.5 2:0.5 3:0.8333333333333335 
-0.1 0.0 1:0.5 2:0.5 3:0.7142857142857143 
-0.1 0.0 1:0.5 2:0.5 3:0.54 
-0.1 0.0 1:0.5 2:0.5 3:0.54 
-0.1 0.0 1:0.5 2:0.5 3:0.6666666666666666 
-0.1 0.0 1:0.5 2:0.5 3:0.3333333333333333 
-0.1 0.0 1:0.5 2:0.5 3:0.54 
-0.1 0.0 1:0.5 2:0.5 3:0.0019474196689386564 
-0.1 0.0 1:0.5 2:0.5 3:0.0029182879377431907 
-0.1 0.0 1:0.5 2:0.5 3:0.006782945736434108 
-0.1 0.0 1:0.5 2:0.5 3:0.8333333333333335 
-0.1 0.1 1:0.5 2:0.5 3:5.0801822092019033E-54 
-0.1 0.0 1:0.5 2:0.5 3:0.6666666666666666 
-0.1 0.1 1:0.5 2:0.5 3:0.8888888888888888 
-0.1 0.0 1:0.5 2:0.5 3:0.754 
-0.1 0.0 1:0.5 2:0.5 3:0.754 
-0.1 0.0 1:0.5 2:0.5 3:0.0029182879377431907 
-0.1 0.0 1:0.5 2:0.5 3:0.754 
-0.1 0.0 1:0.5 2:0.5 3:0.006782945736434108 
-0.1 0.0 1:0.5 2:0.5 3:0.7142857142857143 
-0.1 0.0 1:0.5 2:0.5 3:0.0029182879377431907 
-0.1 0.0 1:0.5 2:0.5 3:0.6666666666666666 
-0.1 0.1 1:0.5 2:0.5 3:5.0801822092019033E-54 
-0.1 0.0 1:0.5 2:0.5 3:0.64 
-0.1 0.1 1:0.5 2:0.5 3:6.773461577539203E-54 
-0.1 0.0 1:0.5 2:0.5 3:0.64 
-0.1 0.0 1:0.5 2:0.5 3:0.64 
-0.1 0.0 1:0.5 2:0.5 3:0.7142857142857143 
-0.1 0.0 1:0.5 2:0.5 3:0.6666666666666666 
-0.1 0.1 1:0.5 2:0.5 3:0.8571428571428571 
-0.1 0.0 1:0.5 2:0.5 3:0.010617760617760617 
-0.1 0.0 1:0.5 2:0.5 3:0.0029182879377431907 
-0.1 0.0 1:0.5 2:0.5 3:0.6666666666666666 
-0.1 0.1 1:0.5 2:0.5 3:0.94 
-0.1 0.1 1:0.5 2:0.5 3:0.8888888888888888 
-0.1 0.0 1:0.5 2:0.5 3:0.54 
-0.1 0.0 1:0.5 2:0.5 3:0.005819592628516004 
-0.1 0.0 1:0.5 2:0.5 3:0.6666666666666666 
-0.1 0.1 1:0.5 2:0.5 3:0.9166666666666666 
-0.1 0.1 1:0.5 2:0.5 3:8.466683600033866E-54 
-0.1 0.0 1:0.5 2:0.5 3:0.54 
-0.1 0.0 1:0.5 2:0.5 3:0.54 
-0.1 0.1 1:0.5 2:0.5 3:8.466683600033866E-54 
-0.1 0.0 1:0.5 2:0.5 3:0.64 
-0.1 0.1 1:0.5 2:0.5 3:6.143995595983957E-74 
-0.1 0.1 1:0.5 2:0.5 3:0.8571428571428571 
-0.1 0.0 1:0.5 2:0.5 3:0.6666666666666666 
-0.1 0.1 1:0.5 2:0.5 3:3.8146790758177E-64 
-0.1 0.1 1:0.5 2:0.5 3:0.8571428571428571 
-0.1 0.0 1:0.5 2:0.5 3:0.6666666666666666 
-0.1 0.0 1:0.5 2:0.5 3:0.54 
-0.1 0.0 1:0.5 2:0.5 3:0.007744433688286544 
-0.1 0.0 1:0.5 2:0.5 3:0.7142857142857143 
-0.1 0.1 1:0.5 2:0.5 3:0.84 
-0.1 0.0 1:0.5 2:0.5 3:0.754 
-0.1 0.0 1:0.5 2:0.5 3:0.6666666666666666 
-0.1 0.1 1:0.5 2:0.5 3:0.8888888888888888 
-0.1 0.0 1:0.5 2:0.5 3:0.754 
-0.1 0.0 1:0.5 2:0.5 3:0.64 
-0.1 0.1 1:0.5 2:0.5 3:0.84 
-0.1 0.0 1:0.5 2:0.5 3:0.754 
-0.1 0.1 1:0.5 2:0.5 3:1.9073431758599017E-64 
-0.1 0.0 1:0.5 2:0.5 3:0.0048543689320388345 
-0.1 0.0 1:0.5 2:0.5 3:0.6666666666666666 
-0.1 0.0 1:0.5 2:0.5 3:0.754 
-0.1 0.0 1:0.5 2:0.5 3:0.3333333333333333 
-0.1 0.0 1:0.5 2:0.5 3:0.6666666666666666 
-0.1 0.0 1:0.5 2:0.5 3:0.0019474196689386564 
-0.1 0.0 1:0.5 2:0.5 3:0.64 
-0.1 0.1 1:0.5 2:0.5 3:9.746588693957114E-44 
-0.1 0.0 1:0.5 2:0.5 3:0.6666666666666666 
-0.1 0.1 1:0.5 2:0.5 3:0.8571428571428571 
-0.1 0.0 1:0.5 2:0.5 3:0.0019474196689386564 
-0.1 0.0 1:0.5 2:0.5 3:0.8333333333333335 
-0.1 0.0 1:0.5 2:0.5 3:0.0029182879377431907 
-0.1 0.0 1:0.5 2:0.5 3:0.7142857142857143 
-0.1 0.1 1:0.5 2:0.5 3:0.94 
-0.1 0.1 1:0.5 2:0.5 3:0.84 
-0.1 0.0 1:0.5 2:0.5 3:0.54 
-0.1 0.0 1:0.5 2:0.5 3:0.6666666666666666 
-0.1 0.1 1:0.5 2:0.5 3:8.269085023426814E-84 
-0.1 0.0 1:0.5 2:0.5 3:0.6666666666666666 
-0.1 0.1 1:0.5 2:0.5 3:1.416053244791489E-84 
-0.1 0.0 1:0.5 2:0.5 3:0.3333333333333333 
-0.1 0.0 1:0.5 2:0.5 3:0.8333333333333335 
-0.1 0.0 1:0.5 2:0.5 3:0.0019474196689386564 
-0.1 0.0 1:0.5 2:0.5 3:0.54 
-0.1 0.1 1:0.5 2:0.5 3:0.94 
-0.1 0.1 1:0.5 2:0.5 3:0.84 
-0.1 0.0 1:0.5 2:0.5 3:0.7142857142857143 
-0.1 0.0 1:0.5 2:0.5 3:0.6666666666666666 
-0.1 0.1 1:0.5 2:0.5 3:0.8571428571428571 
-0.1 0.0 1:0.5 2:0.5 3:0.54 
-0.1 0.0 1:0.5 2:0.5 3:0.754 
-0.1 0.1 1:0.5 2:0.5 3:5.0801822092019033E-54 
-0.1 0.1 1:0.5 2:0.5 3:6.773461577539203E-54 
-0.1 0.1 1:0.5 2:0.5 3:0.8754 
-0.1 0.0 1:0.5 2:0.5 3:0.6666666666666666 
-0.1 0.0 1:0.5 2:0.5 3:0.0029182879377431907 
-0.1 0.0 1:0.5 2:0.5 3:0.754 
-0.1 0.0 1:0.5 2:0.5 3:0.54 
-0.1 0.1 1:0.5 2:0.5 3:0.84 
-0.1 0.0 1:0.5 2:0.5 3:0.6666666666666666 
-0.1 0.0 1:0.5 2:0.5 3:0.0038872691933916426 
-0.1 0.0 1:0.5 2:0.5 3:0.3333333333333333 
-0.1 0.1 1:0.5 2:0.5 3:0.84 
-0.1 0.0 1:0.5 2:0.5 3:0.0038872691933916426 
-0.1 0.1 1:0.5 2:0.5 3:2.7939677134380946E-94 
-0.1 0.0 1:0.5 2:0.5 3:0.754 
-0.1 0.0 1:0.5 2:0.5 3:0.7777777777777778 
-0.1 0.1 1:0.5 2:0.5 3:0.84 
-0.1 0.0 1:0.5 2:0.5 3:0.64 
-0.1 0.0 1:0.5 2:0.5 3:0.64 
-0.1 0.1 1:0.5 2:0.5 3:6.143995595983957E-74 
-0.1 0.0 1:0.5 2:0.5 3:0.6666666666666666 
-0.1 0.0 1:0.5 2:0.5 3:0.54 
-0.1 0.1 1:0.5 2:0.5 3:5.119996854273933E-74 
-0.1 0.0 1:0.5 2:0.5 3:0.754 
-0.1 0.0 1:0.5 2:0.5 3:0.54 
-0.1 0.0 1:0.5 2:0.5 3:0.6666666666666666 
-0.1 0.1 1:0.5 2:0.5 3:0.8571428571428571 
-0.1 0.1 1:0.5 2:0.5 3:0.84 
-0.1 0.0 1:0.5 2:0.5 3:0.0019474196689386564 
-0.1 0.0 1:0.5 2:0.5 3:0.64 
-0.1 0.0 1:0.5 2:0.5 3:0.754 
-0.1 0.0 1:0.5 2:0.5 3:0.754 
-0.1 0.1 1:0.5 2:0.5 3:1.0159848279599025E-44 
-0.1 0.1 1:0.5 2:0.5 3:1.0490297428542002E-54 
-0.1 0.0 1:0.5 2:0.5 3:0.54 
-0.1 0.0 1:0.5 2:0.5 3:0.754 
-0.1 0.0 1:0.5 2:0.5 3:0.6666666666666666 
-0.1 0.0 1:0.5 2:0.5 3:0.6666666666666666 
-0.1 0.0 1:0.5 2:0.5 3:0.006782945736434108 
-0.1 0.1 1:0.5 2:0.5 3:0.84 
-0.1 0.1 1:0.5 2:0.5 3:0.84 
-0.1 0.0 1:0.5 2:0.5 3:0.7142857142857143 
-0.1 0.0 1:0.5 2:0.5 3:0.0019474196689386564 
-0.1 0.0 1:0.5 2:0.5 3:0.7142857142857143 
-0.1 0.0 1:0.5 2:0.5 3:0.8333333333333335 
-0.1 0.0 1:0.5 2:0.5 3:0.3333333333333333 
-0.1 0.0 1:0.5 2:0.5 3:0.005819592628516004 
-0.1 0.0 1:0.5 2:0.5 3:0.6666666666666666 
-0.1 0.0 1:0.5 2:0.5 3:0.754 
-0.1 0.0 1:0.5 2:0.5 3:0.754 
-0.1 0.1 1:0.5 2:0.5 3:0.8571428571428571 
-0.1 0.1 1:0.5 2:0.5 3:3.38684549210865E-54 
-0.1 0.04169115757428139 1:0.5 2:0.5 3:0.8333333333333335 
-0.1 0.1 1:0.5 2:0.5 3:0.84 
-0.1 0.0 1:0.5 2:0.5 3:0.6666666666666666 
-0.1 0.0 1:0.5 2:0.5 3:0.6666666666666666 
-0.1 0.0 1:0.5 2:0.5 3:0.0048543689320388345 
-0.1 0.1 1:0.5 2:0.5 3:0.8333333333333335 
-0.1 0.1 1:0.5 2:0.5 3:8.191992450259758E-74 
-0.1 0.0 1:0.5 2:0.5 3:0.64 
-0.1 0.1 1:0.5 2:0.5 3:0.84 
-0.1 0.0 1:0.5 2:0.5 3:0.6666666666666666 
-0.1 0.0 1:0.5 2:0.5 3:0.754 
-0.1 0.0 1:0.5 2:0.5 3:0.0038872691933916426 
-0.1 0.0 1:0.5 2:0.5 3:0.0029182879377431907 
-0.1 0.0 1:0.5 2:0.5 3:0.6666666666666666 
-0.1 0.0 1:0.5 2:0.5 3:0.6666666666666666 
-0.1 0.0 1:0.5 2:0.5 3:0.54 
-0.1 0.1 1:0.5 2:0.5 3:0.84 
-0.1 0.1 1:0.5 2:0.5 3:0.8571428571428571 
-0.1 0.1 1:0.5 2:0.5 3:1.0159848279599025E-44 
-0.1 0.1 1:0.5 2:0.5 3:0.84 
-0.1 0.0 1:0.5 2:0.5 3:0.3333333333333333 
-0.1 0.1 1:0.5 2:0.5 3:0.8461538461538461 
-0.1 0.1 1:0.5 2:0.5 3:0.94 
-0.1 0.1 1:0.5 2:0.5 3:5.0801822092019033E-54 
-0.1 0.1 1:0.5 2:0.5 3:0.8571428571428571 
-0.1 0.0 1:0.5 2:0.5 3:0.64 
-0.1 0.0 1:0.5 2:0.5 3:0.3333333333333333 
-0.1 0.0 1:0.5 2:0.5 3:0.54 
-0.1 0.0 1:0.5 2:0.5 3:0.007744433688286544 
-0.1 0.0 1:0.5 2:0.5 3:0.754 
-0.1 0.0 1:0.5 2:0.5 3:0.54 
-0.1 0.1 1:0.5 2:0.5 3:1.9073431758599017E-64 
-0.1 0.1 1:0.5 2:0.5 3:1.9073431758599017E-64 
-0.1 0.0 1:0.5 2:0.5 3:0.6666666666666666 
-0.1 0.1 1:0.5 2:0.5 3:3.0719987417093154E-74 
-0.1 0.1 1:0.5 2:0.5 3:5.0801822092019033E-54 
-0.1 0.1 1:0.5 2:0.5 3:0.8571428571428571 
-0.1 0.0 1:0.5 2:0.5 3:0.6666666666666666 
-0.1 0.1 1:0.5 2:0.5 3:0.8888888888888888 
-0.1 0.0 1:0.5 2:0.5 3:0.54 
-0.1 0.0 1:0.5 2:0.5 3:0.009661835748792274 
-0.1 0.0 1:0.5 2:0.5 3:0.754 
-0.1 0.0 1:0.5 2:0.5 3:0.0019474196689386564 
-0.1 0.1 1:0.5 2:0.5 3:0.84 
-0.1 0.1 1:0.5 2:0.5 3:0.94 
-0.1 0.0 1:0.5 2:0.5 3:0.54 
-0.1 0.1 1:0.5 2:0.5 3:0.8571428571428571 
-0.1 0.1 1:0.5 2:0.5 3:0.84 
-0.1 0.1 1:0.5 2:0.5 3:0.84 
-0.1 0.1 1:0.5 2:0.5 3:0.8888888888888888 
-0.1 0.0 1:0.5 2:0.5 3:0.6666666666666666 
-0.1 0.1 1:0.5 2:0.5 3:0.84 
-0.1 0.1 1:0.5 2:0.5 3:0.8571428571428571 
-0.1 0.1 1:0.5 2:0.5 3:8.466683600033866E-54 
-0.1 0.0 1:0.5 2:0.5 3:0.6666666666666666 
-0.1 0.1 1:0.5 2:0.5 3:0.8333333333333335 
-0.1 0.0 1:0.5 2:0.5 3:0.754 
-0.1 0.0 1:0.5 2:0.5 3:0.6666666666666666 
-0.1 0.0 1:0.5 2:0.5 3:0.6666666666666666 
-0.1 0.0 1:0.5 2:0.5 3:0.64 
-0.1 0.1 1:0.5 2:0.5 3:0.84 
-0.1 0.0 1:0.5 2:0.5 3:0.6666666666666666 
-0.1 0.1 1:0.5 2:0.5 3:0.8461538461538461 
-0.1 0.1 1:0.5 2:0.5 3:2.861012035323962E-64 
-0.1 0.0 1:0.5 2:0.5 3:0.6666666666666666 
-0.1 0.0 1:0.5 2:0.5 3:0.6666666666666666 
-0.1 0.1 1:0.5 2:0.5 3:0.8333333333333335 
-0.1 0.1 1:0.5 2:0.5 3:0.8571428571428571 
-0.1 0.0 1:0.5 2:0.5 3:0.54 
-0.1 0.0 1:0.5 2:0.5 3:0.754 
-0.1 0.0 1:0.5 2:0.5 3:0.754 
-0.1 0.1 1:0.5 2:0.5 3:0.8571428571428571 
-0.1 0.1 1:0.5 2:0.5 3:0.84 
-0.1 0.0 1:0.5 2:0.5 3:0.754 
-0.1 0.1 1:0.5 2:0.5 3:0.8888888888888888 
-0.1 0.0 1:0.5 2:0.5 3:0.54 
-0.1 0.0 1:0.5 2:0.5 3:0.54 
-0.1 0.1 1:0.5 2:0.5 3:0.9166666666666666 
-0.1 0.0 1:0.5 2:0.5 3:0.7777777777777778 
-0.1 0.1 1:0.5 2:0.5 3:1.3546005621592333E-44 
-0.1 0.05830884242571861 1:0.5 2:0.5 3:0.0048543689320388345 
-0.1 0.1 1:0.5 2:0.5 3:0.6666666666666666 
-0.1 -0.1 1:0.5 2:0.5 3:0.754 
-0.1 -0.1 1:0.5 2:0.5 3:0.54 
-0.1 -0.1 1:0.5 2:0.5 3:0.6666666666666666 
-0.1 -0.1 1:0.5 2:0.5 3:4.095997902849073E-74 
-0.1 -0.1 1:0.5 2:0.5 3:0.6666666666666666 
-0.1 -0.1 1:0.5 2:0.5 3:0.54 
-0.1 -0.1 1:0.5 2:0.5 3:1.6934514233459215E-54 
-0.1 -0.1 1:0.5 2:0.5 3:3.0719987417093154E-74 
-0.1 -0.1 1:0.5 2:0.5 3:1.9073431758599017E-64 
-0.1 -0.1 1:0.5 2:0.5 3:0.3333333333333333 
-0.1 -0.1 1:0.5 2:0.5 3:0.8571428571428571 
-0.1 -0.1 1:0.5 2:0.5 3:0.6666666666666666 
-0.1 -0.1 1:0.5 2:0.5 3:0.3333333333333333 
-0.1 -0.1 1:0.5 2:0.5 3:1.1852955619147604E-44 
-0.1 -0.1 1:0.5 2:0.5 3:0.9090909090909092 
-0.1 -0.1 1:0.5 2:0.5 3:8.466683600033866E-54 
-0.1 -0.1 1:0.5 2:0.5 3:0.84 
-0.1 -0.1 1:0.5 2:0.5 3:0.8571428571428571 
-0.1 -0.1 1:0.5 2:0.5 3:0.54 
-0.1 -0.1 1:0.5 2:0.5 3:0.7777777777777778 
-0.1 -0.1 1:0.5 2:0.5 3:0.54 
-0.1 -0.1 1:0.5 2:0.5 3:0.8333333333333335 
-0.1 -0.1 1:0.5 2:0.5 3:0.6666666666666666 
-0.1 -0.1 1:0.5 2:0.5 3:0.6666666666666666 
-0.1 -0.1 1:0.5 2:0.5 3:0.6666666666666666 
-0.1 -0.1 1:0.5 2:0.5 3:0.0019474196689386564 
-0.1 -0.1 1:0.5 2:0.5 3:0.3333333333333333 
-0.1 -0.1 1:0.5 2:0.5 3:5.0801822092019033E-54 
-0.1 -0.1 1:0.5 2:0.5 3:0.84 
-0.1 -0.1 1:0.5 2:0.5 3:0.0038872691933916426 
-0.1 -0.1 1:0.5 2:0.5 3:0.6666666666666666 
-0.1 -0.1 1:0.5 2:0.5 3:0.8333333333333335 
-0.1 -0.1 1:0.5 2:0.5 3:0.8333333333333335 
-0.1 -0.1 1:0.5 2:0.5 3:0.754 
-0.1 -0.1 1:0.5 2:0.5 3:0.3333333333333333 
-0.1 -0.1 1:0.5 2:0.5 3:0.3333333333333333 
-0.1 -0.1 1:0.5 2:0.5 3:6.773461577539203E-54 
-0.1 -0.1 1:0.5 2:0.5 3:0.754 
-0.1 -0.1 1:0.5 2:0.5 3:0.6666666666666666 
-0.1 -0.1 1:0.5 2:0.5 3:0.8181818181818182 
-0.1 -0.1 1:0.5 2:0.5 3:0.6666666666666666 
-0.1 -0.1 1:0.5 2:0.5 3:0.3333333333333333 
-0.1 -0.1 1:0.5 2:0.5 3:0.0038872691933916426 
-0.1 -0.1 1:0.5 2:0.5 3:0.754 
-0.1 -0.1 1:0.5 2:0.5 3:0.754 
-0.1 -0.1 1:0.5 2:0.5 3:0.6666666666666666 
-0.1 -0.1 1:0.5 2:0.5 3:0.84 
-0.1 -0.1 1:0.5 2:0.5 3:0.64 
-0.1 -0.1 1:0.5 2:0.5 3:0.6666666666666666 
-0.1 -0.1 1:0.5 2:0.5 3:0.6666666666666666 
-0.1 -0.1 1:0.5 2:0.5 3:0.64 
-0.1 -0.1 1:0.5 2:0.5 3:0.0038872691933916426 
-0.1 -0.1 1:0.5 2:0.5 3:6.773461577539203E-54 
-0.1 -0.1 1:0.5 2:0.5 3:0.54 
-0.1 -0.1 1:0.5 2:0.5 3:0.754 
-0.1 -0.1 1:0.5 2:0.5 3:0.6666666666666666 
-0.1 -0.1 1:0.5 2:0.5 3:0.84 
-0.1 -0.1 1:0.5 2:0.5 3:0.7142857142857143 
-0.1 -0.1 1:0.5 2:0.5 3:0.8888888888888888 
-0.1 -0.1 1:0.5 2:0.5 3:0.8571428571428571 
-0.1 -0.1 1:0.5 2:0.5 3:0.54 
-0.1 -0.1 1:0.5 2:0.5 3:0.754 
-0.1 -0.1 1:0.5 2:0.5 3:0.8571428571428571 
-0.1 -0.1 1:0.5 2:0.5 3:0.0029182879377431907 
-0.1 -0.1 1:0.5 2:0.5 3:0.8571428571428571 
-0.1 -0.1 1:0.5 2:0.5 3:0.8333333333333335 
-0.1 -0.1 1:0.5 2:0.5 3:0.754 
-0.1 -0.1 1:0.5 2:0.5 3:0.8571428571428571 
-0.1 -0.1 1:0.5 2:0.5 3:0.64 
-0.1 -0.1 1:0.5 2:0.5 3:0.84 
-0.1 -0.1 1:0.5 2:0.5 3:0.54 
-0.1 -0.1 1:0.5 2:0.5 3:0.8571428571428571 
-0.1 -0.1 1:0.5 2:0.5 3:0.6666666666666666 
-0.1 -0.1 1:0.5 2:0.5 3:7.629329048193518E-64 
-0.1 -0.1 1:0.5 2:0.5 3:0.54 
-0.1 -0.1 1:0.5 2:0.5 3:0.0029182879377431907 
-0.1 -0.1 1:0.5 2:0.5 3:0.0029182879377431907 
-0.1 -0.1 1:0.5 2:0.5 3:0.7142857142857143 
-0.1 -0.1 1:0.5 2:0.5 3:0.754 
-0.1 -0.1 1:0.5 2:0.5 3:0.8571428571428571 
-0.1 -0.1 1:0.5 2:0.5 3:0.6666666666666666 
-0.1 -0.1 1:0.5 2:0.5 3:0.6666666666666666 
-0.1 -0.1 1:0.5 2:0.5 3:0.8333333333333335 
-0.1 -0.1 1:0.5 2:0.5 3:0.754 
-0.1 -0.1 1:0.5 2:0.5 3:0.6666666666666666 
-0.1 -0.1 1:0.5 2:0.5 3:0.6666666666666666 
-0.1 -0.1 1:0.5 2:0.5 3:0.6666666666666666 
-0.1 -0.1 1:0.5 2:0.5 3:0.0019474196689386564 
-0.1 -0.1 1:0.5 2:0.5 3:0.754 
