svm_type c_svc
kernel_type linear
nr_class 3
total_sv 473
rho 0.9998111665248871 -0.9999996721008455 -0.9999995771442328
label 0 1 2
nr_sv 168 190 115
SV
0.1 0.0 1:0.5 2:0.5 3:0.54 
0.1 0.1 1:0.5 2:0.5 3:0.6666666666666666 
0.1 0.1 1:0.5 2:0.5 3:0.6666666666666666 
0.1 0.0 1:0.5 2:0.5 3:0.54 
0.1 0.0 1:0.5 2:0.5 3:0.54 
0.1 0.0 1:0.5 2:0.5 3:0.64 
0.1 0.1 1:0.5 2:0.5 3:0.6666666666666666 
0.1 0.1 1:0.5 2:0.5 3:0.6666666666666666 
0.1 0.1 1:0.5 2:0.5 3:1.2287983642236174E-64 
0.1 0.0 1:0.5 2:0.5 3:0.54 
0.1 0.1 1:0.5 2:0.5 3:0.754 
0.1 0.1 1:0.5 2:0.5 3:1.6934514233459215E-54 
0.1 0.1 1:0.5 2:0.5 3:0.754 
0.1 0.1 1:0.5 2:0.5 3:0.7142857142857143 
0.1 0.1 1:0.5 2:0.5 3:6.773461577539203E-54 
0.1 0.0 1:0.5 2:0.5 3:0.54 
0.1 0.1 1:0.5 2:0.5 3:3.8146790758177E-64 
0.1 0.0 1:0.5 2:0.5 3:0.54 
0.1 0.0 1:0.5 2:0.5 3:0.3333333333333333 
0.1 0.0 1:0.5 2:0.5 3:0.54 
0.1 0.1 1:0.5 2:0.5 3:5.0801822092019033E-54 
0.1 0.1 1:0.5 2:0.5 3:2.047999370854593E-74 
0.1 0.0 1:0.5 2:0.5 3:0.54 
0.1 0.0 1:0.5 2:0.5 3:0.54 
0.1 0.0 1:0.5 2:0.5 3:0.54 
0.1 0.1 1:0.5 2:0.5 3:0.754 
0.1 0.1 1:0.5 2:0.5 3:0.754 
0.1 0.1 1:0.5 2:0.5 3:0.754 
0.1 0.0 1:0.5 2:0.5 3:0.54 
0.1 0.1 1:0.5 2:0.5 3:5.0801822092019033E-54 
0.1 0.1 1:0.5 2:0.5 3:0.8333333333333335 
0.1 0.06954920840501991 1:0.5 2:0.5 3:0.64 
0.1 0.1 1:0.5 2:0.5 3:0.6666666666666666 
0.1 0.1 1:0.5 2:0.5 3:0.64 
0.1 0.1 1:0.5 2:0.5 3:0.6666666666666666 
0.1 0.0 1:0.5 2:0.5 3:0.0038872691933916426 
0.1 0.1 1:0.5 2:0.5 3:0.6666666666666666 
0.1 0.1 1:0.5 2:0.5 3:0.6666666666666666 
0.1 0.1 1:0.5 2:0.5 3:0.84 
0.1 0.1 1:0.5 2:0.5 3:0.6666666666666666 
0.1 0.1 1:0.5 2:0.5 3:0.64 
0.1 0.1 1:0.5 2:0.5 3:1.6934514233459215E-54 
0.1 0.0 1:0.5 2:0.5 3:0.54 
0.1 0.1 1:0.5 2:0.5 3:5.0801822092019033E-54 
0.1 0.1 1:0.5 2:0.5 3:0.8947368421052633 
0.1 0.0 1:0.5 2:0.5 3:0.3333333333333333 
0.1 0.0 1:0.5 2:0.5 3:0.3333333333333333 
0.1 0.0 1:0.5 2:0.5 3:0.54 
0.1 0.0 1:0.5 2:0.5 3:0.3333333333333333 
0.1 0.0 1:0.5 2:0.5 3:0.54 
0.1 0.0 1:0.5 2:0.5 3:0.54 
0.1 0.0 1:0.5 2:0.5 3:0.0029182879377431907 
0.1 0.1 1:0.5 2:0.5 3:0.64 
0.1 0.1 1:0.5 2:0.5 3:5.735943976649725E-104 
0.1 0.0 1:0.5 2:0.5 3:0.3333333333333333 
0.1 0.1 1:0.5 2:0.5 3:1.6538171140897976E-84 
0.1 0.1 1:0.5 2:0.5 3:0.754 
0.1 0.0 1:0.5 2:0.5 3:0.0038872691933916426 
0.1 0.1 1:0.5 2:0.5 3:0.754 
0.1 0.0 1:0.5 2:0.5 3:0.0019474196689386564 
0.1 0.0 1:0.5 2:0.5 3:0.54 
0.1 0.1 1:0.5 2:0.5 3:8.466683600033866E-54 
0.1 0.0 1:0.5 2:0.5 3:0.3333333333333333 
0.1 0.1 1:0.5 2:0.5 3:0.6666666666666666 
0.1 0.1 1:0.5 2:0.5 3:0.84 
0.1 0.1 1:0.5 2:0.5 3:0.8333333333333335 
0.1 0.0 1:0.5 2:0.5 3:0.0029182879377431907 
0.1 0.1 1:0.5 2:0.5 3:4.768344297346321E-64 
0.1 0.1 1:0.5 2:0.5 3:3.38684549210865E-54 
0.1 0.0 1:0.5 2:0.5 3:0.54 
0.1 0.1 1:0.5 2:0.5 3:0.84 
0.1 0.1 1:0.5 2:0.5 3:1.6934514233459215E-54 
0.1 0.1 1:0.5 2:0.5 3:0.8754 
0.1 0.1 1:0.5 2:0.5 3:0.754 
0.1 0.0 1:0.5 2:0.5 3:0.54 
0.1 0.1 1:0.5 2:0.5 3:0.6666666666666666 
0.1 0.1 1:0.5 2:0.5 3:0.84 
0.1 0.0 1:0.5 2:0.5 3:0.0029182879377431907 
0.1 0.1 1:0.5 2:0.5 3:0.6666666666666666 
0.1 0.1 1:0.5 2:0.5 3:1.6934514233459215E-54 
0.1 0.0 1:0.5 2:0.5 3:0.0019474196689386564 
0.1 0.0 1:0.5 2:0.5 3:0.0029182879377431907 
0.1 0.1 1:0.5 2:0.5 3:0.6666666666666666 
0.1 0.1 1:0.5 2:0.5 3:1.6934514233459215E-54 
0.1 0.1 1:0.5 2:0.5 3:0.64 
0.1 0.0 1:0.5 2:0.5 3:0.54 
0.1 0.0 1:0.5 2:0.5 3:0.0019474196689386564 
0.1 0.1 1:0.5 2:0.5 3:0.6666666666666666 
0.1 0.1 1:0.5 2:0.5 3:0.64 
0.1 0.0 1:0.5 2:0.5 3:0.54 
0.1 0.1 1:0.5 2:0.5 3:0.754 
0.1 0.0 1:0.5 2:0.5 3:0.54 
0.1 0.0 1:0.5 2:0.5 3:0.54 
0.1 0.1 1:0.5 2:0.5 3:0.6666666666666666 
0.1 0.1 1:0.5 2:0.5 3:0.8888888888888888 
0.1 0.0 1:0.5 2:0.5 3:0.3333333333333333 
0.1 0.0 1:0.5 2:0.5 3:0.0029182879377431907 
0.1 0.0 1:0.5 2:0.5 3:0.54 
0.1 0.1 1:0.5 2:0.5 3:0.6666666666666666 
0.1 0.1 1:0.5 2:0.5 3:0.0019474196689386564 
0.1 0.1 1:0.5 2:0.5 3:0.6666666666666666 
0.1 0.1 1:0.5 2:0.5 3:6.773461577539203E-54 
0.1 0.1 1:0.5 2:0.5 3:0.6666666666666666 
0.1 0.1 1:0.5 2:0.5 3:9.746588693957114E-44 
0.1 0.1 1:0.5 2:0.5 3:1.9073431758599017E-64 
0.1 0.1 1:0.5 2:0.5 3:1.6934514233459215E-54 
0.1 0.1 1:0.5 2:0.5 3:0.754 
0.1 0.0 1:0.5 2:0.5 3:0.3333333333333333 
0.1 0.1 1:0.5 2:0.5 3:0.754 
0.1 0.1 1:0.5 2:0.5 3:0.754 
0.1 0.0 1:0.5 2:0.5 3:0.54 
0.1 0.0 1:0.5 2:0.5 3:0.54 
0.1 0.0 1:0.5 2:0.5 3:0.54 
0.1 0.0 1:0.5 2:0.5 3:0.54 
0.1 0.0 1:0.5 2:0.5 3:0.007744433688286544 
0.1 0.1 1:0.5 2:0.5 3:0.8571428571428571 
0.1 0.0 1:0.5 2:0.5 3:0.3333333333333333 
0.1 0.0 1:0.5 2:0.5 3:0.54 
0.1 0.1 1:0.5 2:0.5 3:0.3333333333333333 
0.1 0.1 1:0.5 2:0.5 3:0.54 
0.1 0.1 1:0.5 2:0.5 3:6.773461577539203E-54 
0.1 0.1 1:0.5 2:0.5 3:0.3333333333333333 
0.1 0.1 1:0.5 2:0.5 3:0.84 
0.1 0.1 1:0.5 2:0.5 3:0.6666666666666666 
0.1 0.1 1:0.5 2:0.5 3:0.3333333333333333 
0.1 0.1 1:0.5 2:0.5 3:0.54 
0.1 0.1 1:0.5 2:0.5 3:0.754 
0.1 0.1 1:0.5 2:0.5 3:0.64 
0.1 0.1 1:0.5 2:0.5 3:0.754 
0.1 0.1 1:0.5 2:0.5 3:0.54 
0.1 0.1 1:0.5 2:0.5 3:0.54 
0.1 0.1 1:0.5 2:0.5 3:0.54 
0.1 0.1 1:0.5 2:0.5 3:0.754 
0.1 0.1 1:0.5 2:0.5 3:0.54 
0.1 0.1 1:0.5 2:0.5 3:0.54 
0.1 0.1 1:0.5 2:0.5 3:0.6666666666666666 
0.1 0.1 1:0.5 2:0.5 3:0.6666666666666666 
0.1 0.1 1:0.5 2:0.5 3:0.6666666666666666 
0.1 0.1 1:0.5 2:0.5 3:0.3333333333333333 
0.1 0.1 1:0.5 2:0.5 3:0.3333333333333333 
0.1 0.1 1:0.5 2:0.5 3:0.3333333333333333 
0.1 0.1 1:0.5 2:0.5 3:0.54 
0.1 0.1 1:0.5 2:0.5 3:0.54 
0.1 0.1 1:0.5 2:0.5 3:0.6666666666666666 
0.1 0.1 1:0.5 2:0.5 3:0.754 
0.1 0.1 1:0.5 2:0.5 3:0.754 
0.1 0.1 1:0.5 2:0.5 3:0.3333333333333333 
0.1 0.1 1:0.5 2:0.5 3:0.6666666666666666 
0.1 0.1 1:0.5 2:0.5 3:0.54 
0.1 0.1 1:0.5 2:0.5 3:0.6666666666666666 
0.1 0.1 1:0.5 2:0.5 3:0.3333333333333333 
0.1 0.1 1:0.5 2:0.5 3:0.54 
0.1 0.1 1:0.5 2:0.5 3:0.3333333333333333 
0.1 0.1 1:0.5 2:0.5 3:0.6666666666666666 
0.1 0.1 1:0.5 2:0.5 3:0.3333333333333333 
0.1 0.1 1:0.5 2:0.5 3:0.6666666666666666 
0.1 0.1 1:0.5 2:0.5 3:0.754 
0.1 0.1 1:0.5 2:0.5 3:0.84 
0.1 0.1 1:0.5 2:0.5 3:0.6666666666666666 
0.1 0.1 1:0.5 2:0.5 3:0.54 
0.1 0.1 1:0.5 2:0.5 3:0.54 
0.1 0.1 1:0.5 2:0.5 3:0.754 
0.1 0.1 1:0.5 2:0.5 3:0.6666666666666666 
0.1 0.1 1:0.5 2:0.5 3:0.54 
0.1 0.030450791594980098 1:0.5 2:0.5 3:0.54 
0.1 0.0 1:0.5 2:0.5 3:0.54 
0.1 0.0 1:0.5 2:0.5 3:0.54 
0.1 0.0 1:0.5 2:0.5 3:0.54 
-0.0 0.1 1:0.5 2:0.5 3:0.7142857142857143 
-0.0 0.1 1:0.5 2:0.5 3:0.8754 
-0.0 0.1 1:0.5 2:0.5 3:0.84 
-0.0 0.1 1:0.5 2:0.5 3:0.7142857142857143 
-0.0 0.1 1:0.5 2:0.5 3:0.8571428571428571 
-0.1 0.1 1:0.5 2:0.5 3:0.754 
-0.1 0.1 1:0.5 2:0.5 3:0.7777777777777778 
-0.0 0.1 1:0.5 2:0.5 3:0.84 
-0.1 0.1 1:0.5 2:0.5 3:0.754 
-0.0 0.1 1:0.5 2:0.5 3:0.84 
-0.0 0.1 1:0.5 2:0.5 3:0.84 
-0.1 0.1 1:0.5 2:0.5 3:0.8571428571428571 
-0.1 0.1 1:0.5 2:0.5 3:0.754 
-0.0 0.1 1:0.5 2:0.5 3:0.7142857142857143 
-0.1 0.0 1:0.5 2:0.5 3:0.0038872691933916426 
-0.1 0.1 1:0.5 2:0.5 3:0.7777777777777778 
-0.1 0.0 1:0.5 2:0.5 3:0.0029182879377431907 
-0.0 0.1 1:0.5 2:0.5 3:0.84 
-0.1 0.1 1:0.5 2:0.5 3:0.8754 
-0.1 0.0 1:0.5 2:0.5 3:0.64 
-0.0 0.1 1:0.5 2:0.5 3:4.095997902849073E-74 
-0.0 0.1 1:0.5 2:0.5 3:9.746588693957114E-44 
-0.1 0.1 1:0.5 2:0.5 3:0.8754 
-0.0 0.1 1:0.5 2:0.5 3:4.961451178162735E-84 
-0.0 0.1 1:0.5 2:0.5 3:9.746588693957114E-44 
-0.0 0.1 1:0.5 2:0.5 3:1.9073431758599017E-64 
-0.0 0.1 1:0.5 2:0.5 3:9.746588693957114E-44 
-0.1 0.06814160438276141 1:0.5 2:0.5 3:0.6666666666666666 
-0.0 0.1 1:0.5 2:0.5 3:6.143995595983957E-74 
-0.0 0.1 1:0.5 2:0.5 3:0.8181818181818182 
-0.1 0.1 1:0.5 2:0.5 3:0.6666666666666666 
-0.1 0.0 1:0.5 2:0.5 3:0.0029182879377431907 
-0.0 0.1 1:0.5 2:0.5 3:6.615268128145881E-84 
-0.0 0.1 1:0.5 2:0.5 3:0.8333333333333335 
-0.1 0.1 1:0.5 2:0.5 3:0.754 
-0.1 0.1 1:0.5 2:0.5 3:0.6666666666666666 
-0.1 0.1 1:0.5 2:0.5 3:9.746588693957114E-44 
-0.1 0.1 1:0.5 2:0.5 3:0.84 
-0.1 0.0 1:0.5 2:0.5 3:0.0038872691933916426 
-0.1 0.0 1:0.5 2:0.5 3:0.0029182879377431907 
-0.1 0.1 1:0.5 2:0.5 3:0.6666666666666666 
-0.1 0.1 1:0.5 2:0.5 3:0.84 
-0.0 0.1 1:0.5 2:0.5 3:0.8333333333333335 
-0.1 0.1 1:0.5 2:0.5 3:0.84 
-0.1 0.1 1:0.5 2:0.5 3:0.7777777777777778 
-0.1 0.1 1:0.5 2:0.5 3:0.84 
-0.1 0.1 1:0.5 2:0.5 3:0.7777777777777778 
-0.1 0.1 1:0.5 2:0.5 3:0.754 
-0.1 0.1 1:0.5 2:0.5 3:0.754 
-0.1 0.1 1:0.5 2:0.5 3:5.0801822092019033E-54 
-0.1 0.1 1:0.5 2:0.5 3:0.6666666666666666 
-0.1 0.1 1:0.5 2:0.5 3:0.8571428571428571 
-0.1 0.0 1:0.5 2:0.5 3:0.64 
-0.1 0.1 1:0.5 2:0.5 3:0.6666666666666666 
-0.1 0.1 1:0.5 2:0.5 3:9.746588693957114E-44 
-0.1 0.1 1:0.5 2:0.5 3:0.6666666666666666 
-0.1 0.0 1:0.5 2:0.5 3:0.007744433688286544 
-0.1 0.0 1:0.5 2:0.5 3:0.0029182879377431907 
-0.1 0.1 1:0.5 2:0.5 3:5.0801822092019033E-54 
-0.1 0.1 1:0.5 2:0.5 3:9.746588693957114E-44 
-0.1 0.0 1:0.5 2:0.5 3:0.64 
-0.1 0.1 1:0.5 2:0.5 3:4.961451178162735E-84 
-0.1 0.1 1:0.5 2:0.5 3:0.6666666666666666 
-0.1 0.1 1:0.5 2:0.5 3:0.84 
-0.1 0.1 1:0.5 2:0.5 3:0.6666666666666666 
-0.1 0.1 1:0.5 2:0.5 3:0.8333333333333335 
-0.1 0.1 1:0.5 2:0.5 3:1.6934514233459215E-54 
-0.0 0.1 1:0.5 2:0.5 3:0.9090909090909092 
-0.1 0.1 1:0.5 2:0.5 3:0.6666666666666666 
-0.1 0.0 1:0.5 2:0.5 3:0.64 
-0.1 0.1 1:0.5 2:0.5 3:0.6666666666666666 
-0.1 0.0 1:0.5 2:0.5 3:0.54 
-0.1 0.1 1:0.5 2:0.5 3:0.6666666666666666 
-0.1 0.0 1:0.5 2:0.5 3:0.3333333333333333 
-0.1 0.0 1:0.5 2:0.5 3:0.64 
-0.1 0.0 1:0.5 2:0.5 3:0.54 
-0.1 0.0 1:0.5 2:0.5 3:0.54 
-0.1 0.0 1:0.5 2:0.5 3:0.3333333333333333 
-0.1 0.0 1:0.5 2:0.5 3:0.54 
-0.1 0.1 1:0.5 2:0.5 3:2.861012035323962E-64 
-0.1 0.0 1:0.5 2:0.5 3:0.3333333333333333 
-0.1 0.0 1:0.5 2:0.5 3:0.54 
-0.1 0.1 1:0.5 2:0.5 3:0.754 
-0.1 0.0 1:0.5 2:0.5 3:0.54 
-0.1 0.1 1:0.5 2:0.5 3:5.0801822092019033E-54 
-0.1 0.1 1:0.5 2:0.5 3:0.6666666666666666 
-0.1 0.1 1:0.5 2:0.5 3:0.754 
-0.1 0.1 1:0.5 2:0.5 3:5.722007699915028E-64 
-0.1 0.0 1:0.5 2:0.5 3:0.3333333333333333 
-0.1 0.0 1:0.5 2:0.5 3:0.3333333333333333 
-0.1 0.0 1:0.5 2:0.5 3:0.64 
-0.1 0.1 1:0.5 2:0.5 3:0.754 
-0.1 0.0 1:0.5 2:0.5 3:0.3333333333333333 
-0.1 0.1 1:0.5 2:0.5 3:0.8333333333333335 
-0.1 0.1 1:0.5 2:0.5 3:2.861012035323962E-64 
-0.1 0.1 1:0.5 2:0.5 3:9.746588693957114E-44 
-0.1 0.0 1:0.5 2:0.5 3:0.54 
-0.1 0.0 1:0.5 2:0.5 3:0.3333333333333333 
-0.1 0.0 1:0.5 2:0.5 3:0.54 
-0.1 0.1 1:0.5 2:0.5 3:1.0239988465676992E-64 
-0.1 0.0 1:0.5 2:0.5 3:0.54 
-0.1 0.1 1:0.5 2:0.5 3:3.8146790758177E-64 
-0.1 0.0 1:0.5 2:0.5 3:0.3333333333333333 
-0.1 0.0 1:0.5 2:0.5 3:0.54 
-0.1 0.0 1:0.5 2:0.5 3:0.54 
-0.1 0.0 1:0.5 2:0.5 3:0.0019474196689386564 
-0.1 0.1 1:0.5 2:0.5 3:6.773461577539203E-54 
-0.1 0.1 1:0.5 2:0.5 3:9.746588693957114E-44 
-0.1 0.0 1:0.5 2:0.5 3:0.54 
-0.1 0.1 1:0.5 2:0.5 3:0.7142857142857143 
-0.1 0.0 1:0.5 2:0.5 3:0.54 
-0.1 0.0 1:0.5 2:0.5 3:0.3333333333333333 
-0.1 0.1 1:0.5 2:0.5 3:9.746588693957114E-44 
-0.1 0.0 1:0.5 2:0.5 3:0.3333333333333333 
-0.1 0.0 1:0.5 2:0.5 3:0.54 
-0.1 0.1 1:0.5 2:0.5 3:0.6666666666666666 
-0.1 0.1 1:0.5 2:0.5 3:0.6666666666666666 
-0.1 0.0 1:0.5 2:0.5 3:0.54 
-0.1 0.0 1:0.5 2:0.5 3:0.54 
-0.1 0.1 1:0.5 2:0.5 3:0.6666666666666666 
-0.1 0.1 1:0.5 2:0.5 3:0.6666666666666666 
-0.1 0.1 1:0.5 2:0.5 3:0.6666666666666666 
-0.1 0.0 1:0.5 2:0.5 3:0.54 
-0.1 0.0 1:0.5 2:0.5 3:0.3333333333333333 
-0.1 0.0 1:0.5 2:0.5 3:0.54 
-0.1 0.0 1:0.5 2:0.5 3:0.54 
-0.1 0.1 1:0.5 2:0.5 3:1.9073431758599017E-64 
-0.1 0.0 1:0.5 2:0.5 3:0.54 
-0.1 0.0 1:0.5 2:0.5 3:0.54 
-0.1 0.0 1:0.5 2:0.5 3:0.54 
-0.1 0.1 1:0.5 2:0.5 3:0.6666666666666666 
-0.1 0.1 1:0.5 2:0.5 3:0.6666666666666666 
-0.1 0.0 1:0.5 2:0.5 3:0.54 
-0.1 0.1 1:0.5 2:0.5 3:0.754 
-0.1 0.0 1:0.5 2:0.5 3:0.3333333333333333 
-0.1 0.1 1:0.5 2:0.5 3:0.6666666666666666 
-0.1 0.0 1:0.5 2:0.5 3:0.3333333333333333 
-0.1 0.1 1:0.5 2:0.5 3:0.754 
-0.1 0.1 1:0.5 2:0.5 3:0.6666666666666666 
-0.1 0.0 1:0.5 2:0.5 3:0.54 
-0.1 0.0 1:0.5 2:0.5 3:0.54 
-0.1 0.1 1:0.5 2:0.5 3:0.6666666666666666 
-0.1 0.0 1:0.5 2:0.5 3:0.54 
-0.1 0.0 1:0.5 2:0.5 3:0.3333333333333333 
-0.1 0.0 1:0.5 2:0.5 3:0.54 
-0.1 0.1 1:0.5 2:0.5 3:0.7142857142857143 
-0.1 0.1 1:0.5 2:0.5 3:9.746588693957114E-44 
-0.1 0.1 1:0.5 2:0.5 3:0.6666666666666666 
-0.1 0.0 1:0.5 2:0.5 3:0.0019474196689386564 
-0.1 0.0 1:0.5 2:0.5 3:0.0019474196689386564 
-0.1 0.1 1:0.5 2:0.5 3:0.6666666666666666 
-0.1 0.0 1:0.5 2:0.5 3:0.54 
-0.1 0.0 1:0.5 2:0.5 3:0.54 
-0.1 0.1 1:0.5 2:0.5 3:9.746588693957114E-44 
-0.1 0.1 1:0.5 2:0.5 3:0.6666666666666666 
-0.1 0.0 1:0.5 2:0.5 3:0.54 
-0.1 0.0 1:0.5 2:0.5 3:0.54 
-0.1 0.0 1:0.5 2:0.5 3:0.3333333333333333 
-0.1 0.1 1:0.5 2:0.5 3:0.6666666666666666 
-0.1 0.0 1:0.5 2:0.5 3:0.54 
-0.1 0.0 1:0.5 2:0.5 3:0.54 
-0.1 0.1 1:0.5 2:0.5 3:0.6666666666666666 
-0.1 0.0 1:0.5 2:0.5 3:0.54 
-0.1 0.0 1:0.5 2:0.5 3:0.3333333333333333 
-0.1 0.0 1:0.5 2:0.5 3:0.54 
-0.1 0.0 1:0.5 2:0.5 3:0.54 
-0.1 0.0 1:0.5 2:0.5 3:0.54 
-0.1 0.1 1:0.5 2:0.5 3:1.6934514233459215E-54 
-0.1 0.0 1:0.5 2:0.5 3:0.54 
-0.1 0.0 1:0.5 2:0.5 3:0.64 
-0.1 0.0 1:0.5 2:0.5 3:0.54 
-0.1 0.0 1:0.5 2:0.5 3:0.3333333333333333 
-0.1 0.1 1:0.5 2:0.5 3:0.0029182879377431907 
-0.1 0.1 1:0.5 2:0.5 3:0.6666666666666666 
-0.1 0.1 1:0.5 2:0.5 3:0.754 
-0.1 0.1 1:0.5 2:0.5 3:0.54 
-0.1 0.1 1:0.5 2:0.5 3:0.54 
-0.1 0.1 1:0.5 2:0.5 3:0.3333333333333333 
-0.1 0.1 1:0.5 2:0.5 3:0.754 
-0.1 0.1 1:0.5 2:0.5 3:0.54 
-0.1 0.1 1:0.5 2:0.5 3:0.54 
-0.1 0.1 1:0.5 2:0.5 3:0.54 
-0.1 0.1 1:0.5 2:0.5 3:1.6934514233459215E-54 
-0.1 0.1 1:0.5 2:0.5 3:0.54 
-0.1 0.0 1:0.5 2:0.5 3:0.64 
-0.1 0.1 1:0.5 2:0.5 3:0.754 
-0.1 0.1 1:0.5 2:0.5 3:0.0019474196689386564 
-0.1 0.03185839561723859 1:0.5 2:0.5 3:0.54 
-0.1 0.1 1:0.5 2:0.5 3:0.3333333333333333 
-0.1 0.1 1:0.5 2:0.5 3:0.84 
-0.1 -0.1 1:0.5 2:0.5 3:0.010617760617760617 
-0.1 -0.1 1:0.5 2:0.5 3:0.7142857142857143 
-0.1 -0.1 1:0.5 2:0.5 3:0.6666666666666666 
-0.1 -0.1 1:0.5 2:0.5 3:0.6666666666666666 
-0.1 -0.1 1:0.5 2:0.5 3:0.54 
-0.1 -0.1 1:0.5 2:0.5 3:0.6666666666666666 
-0.1 -0.1 1:0.5 2:0.5 3:0.6666666666666666 
-0.1 -0.1 1:0.5 2:0.5 3:0.54 
-0.1 -0.1 1:0.5 2:0.5 3:0.54 
-0.1 -0.1 1:0.5 2:0.5 3:0.3333333333333333 
-0.1 -0.1 1:0.5 2:0.5 3:0.54 
-0.1 -0.1 1:0.5 2:0.5 3:0.6666666666666666 
-0.1 -0.1 1:0.5 2:0.5 3:0.84 
-0.1 -0.1 1:0.5 2:0.5 3:0.54 
-0.1 -0.1 1:0.5 2:0.5 3:0.54 
-0.1 -0.1 1:0.5 2:0.5 3:0.0038872691933916426 
-0.1 -0.1 1:0.5 2:0.5 3:0.6666666666666666 
-0.1 -0.1 1:0.5 2:0.5 3:0.54 
-0.1 -0.1 1:0.5 2:0.5 3:0.0019474196689386564 
-0.1 -0.1 1:0.5 2:0.5 3:0.754 
-0.1 -0.1 1:0.5 2:0.5 3:0.54 
-0.1 -0.1 1:0.5 2:0.5 3:0.54 
-0.1 -0.1 1:0.5 2:0.5 3:0.54 
-0.1 -0.1 1:0.5 2:0.5 3:0.54 
-0.1 -0.1 1:0.5 2:0.5 3:0.3333333333333333 
-0.1 -0.1 1:0.5 2:0.5 3:1.6934514233459215E-54 
-0.1 -0.1 1:0.5 2:0.5 3:0.54 
-0.1 -0.1 1:0.5 2:0.5 3:1.0159848279599025E-44 
-0.1 -0.1 1:0.5 2:0.5 3:0.84 
-0.1 -0.1 1:0.5 2:0.5 3:0.3333333333333333 
-0.1 -0.1 1:0.5 2:0.5 3:0.54 
-0.1 -0.1 1:0.5 2:0.5 3:0.54 
-0.1 -0.1 1:0.5 2:0.5 3:0.94 
-0.1 -0.1 1:0.5 2:0.5 3:0.0019474196689386564 
-0.1 -0.1 1:0.5 2:0.5 3:0.0048543689320388345 
-0.1 -0.1 1:0.5 2:0.5 3:5.0801822092019033E-54 
-0.1 -0.1 1:0.5 2:0.5 3:0.54 
-0.1 -0.1 1:0.5 2:0.5 3:0.0048543689320388345 
-0.1 -0.1 1:0.5 2:0.5 3:0.6666666666666666 
-0.1 -0.1 1:0.5 2:0.5 3:0.64 
-0.1 -0.1 1:0.5 2:0.5 3:0.6666666666666666 
-0.1 -0.1 1:0.5 2:0.5 3:0.6666666666666666 
-0.1 -0.1 1:0.5 2:0.5 3:0.754 
-0.1 -0.1 1:0.5 2:0.5 3:0.6666666666666666 
-0.1 -0.1 1:0.5 2:0.5 3:0.54 
-0.1 -0.1 1:0.5 2:0.5 3:0.3333333333333333 
-0.1 -0.1 1:0.5 2:0.5 3:9.746588693957114E-44 
-0.1 -0.1 1:0.5 2:0.5 3:0.8333333333333335 
-0.1 -0.1 1:0.5 2:0.5 3:0.6666666666666666 
-0.1 -0.1 1:0.5 2:0.5 3:0.6666666666666666 
-0.1 -0.1 1:0.5 2:0.5 3:0.84 
-0.1 -0.1 1:0.5 2:0.5 3:0.54 
-0.1 -0.1 1:0.5 2:0.5 3:0.8333333333333335 
-0.1 -0.1 1:0.5 2:0.5 3:0.54 
-0.1 -0.1 1:0.5 2:0.5 3:0.6666666666666666 
-0.1 -0.1 1:0.5 2:0.5 3:0.54 
-0.1 -0.1 1:0.5 2:0.5 3:0.54 
-0.1 -0.1 1:0.5 2:0.5 3:0.754 
-0.1 -0.1 1:0.5 2:0.5 3:0.6666666666666666 
-0.1 -0.1 1:0.5 2:0.5 3:0.54 
-0.1 -0.1 1:0.5 2:0.5 3:0.6666666666666666 
-0.1 -0.1 1:0.5 2:0.5 3:0.754 
-0.1 -0.1 1:0.5 2:0.5 3:0.3333333333333333 
-0.1 -0.1 1:0.5 2:0.5 3:0.54 
-0.1 -0.1 1:0.5 2:0.5 3:0.7142857142857143 
-0.1 -0.1 1:0.5 2:0.5 3:0.3333333333333333 
-0.1 -0.1 1:0.5 2:0.5 3:5.0801822092019033E-54 
-0.1 -0.1 1:0.5 2:0.5 3:0.54 
-0.1 -0.1 1:0.5 2:0.5 3:0.54 
-0.1 -0.1 1:0.5 2:0.5 3:0.6666666666666666 
-0.1 -0.1 1:0.5 2:0.5 3:0.3333333333333333 
-0.1 -0.1 1:0.5 2:0.5 3:0.54 
-0.1 -0.1 1:0.5 2:0.5 3:0.54 
-0.1 -0.1 1:0.5 2:0.5 3:0.754 
-0.1 -0.1 1:0.5 2:0.5 3:0.64 
-0.1 -0.1 1:0.5 2:0.5 3:0.6666666666666666 
-0.1 -0.1 1:0.5 2:0.5 3:0.54 
-0.1 -0.1 1:0.5 2:0.5 3:0.007744433688286544 
-0.1 -0.1 1:0.5 2:0.5 3:0.6666666666666666 
-0.1 -0.1 1:0.5 2:0.5 3:0.6666666666666666 
-0.1 -0.1 1:0.5 2:0.5 3:0.54 
-0.1 -0.1 1:0.5 2:0.5 3:0.54 
-0.1 -0.1 1:0.5 2:0.5 3:9.536724974203159E-74 
-0.1 -0.1 1:0.5 2:0.5 3:0.84 
-0.1 -0.1 1:0.5 2:0.5 3:0.6666666666666666 
-0.1 -0.1 1:0.5 2:0.5 3:0.54 
-0.1 -0.1 1:0.5 2:0.5 3:0.54 
-0.1 -0.1 1:0.5 2:0.5 3:0.3333333333333333 
-0.1 -0.1 1:0.5 2:0.5 3:0.0048543689320388345 
-0.1 -0.1 1:0.5 2:0.5 3:0.54 
-0.1 -0.1 1:0.5 2:0.5 3:0.54 
-0.1 -0.1 1:0.5 2:0.5 3:0.64 
-0.1 -0.1 1:0.5 2:0.5 3:2.861012035323962E-64 
-0.1 -0.1 1:0.5 2:0.5 3:0.754 
-0.1 -0.1 1:0.5 2:0.5 3:0.84 
-0.1 -0.1 1:0.5 2:0.5 3:0.6666666666666666 
-0.1 -0.1 1:0.5 2:0.5 3:0.6666666666666666 
-0.1 -0.1 1:0.5 2:0.5 3:0.54 
-0.1 -0.1 1:0.5 2:0.5 3:0.54 
-0.1 -0.1 1:0.5 2:0.5 3:0.754 
-0.1 -0.1 1:0.5 2:0.5 3:0.754 
-0.1 -0.1 1:0.5 2:0.5 3:0.6666666666666666 
-0.1 -0.1 1:0.5 2:0.5 3:0.54 
-0.1 -0.1 1:0.5 2:0.5 3:0.54 
-0.1 -0.1 1:0.5 2:0.5 3:0.54 
-0.1 -0.1 1:0.5 2:0.5 3:0.54 
-0.1 -0.1 1:0.5 2:0.5 3:0.54 
-0.1 -0.1 1:0.5 2:0.5 3:0.54 
-0.1 -0.1 1:0.5 2:0.5 3:0.54 
-0.1 -0.1 1:0.5 2:0.5 3:0.54 
-0.1 -0.1 1:0.5 2:0.5 3:0.54 
-0.1 -0.1 1:0.5 2:0.5 3:0.54 
-0.1 -0.1 1:0.5 2:0.5 3:0.54 
-0.1 -0.1 1:0.5 2:0.5 3:0.54 
-0.1 -0.1 1:0.5 2:0.5 3:0.3333333333333333 
