svm_type c_svc
kernel_type linear
nr_class 3
total_sv 471
rho 0.7406368669382258 -0.2916455490303487 -0.8362976154712282
label 0 1 2
nr_sv 143 203 125
SV
1.0 1.0 1:0.1322751322751323 2:0.1322751322751323 3:0.29100529100529104 4:0.1322751322751323 5:0.1322751322751323 6:0.1322751322751323 7:0.1322751322751323 8:0.1322751322751323 9:0.1322751322751323 10:0.1322751322751323 11:0.1322751322751323 12:0.1322751322751323 13:0.29100529100529104 14:0.1322751322751323 15:0.1322751322751323 16:0.1322751322751323 17:0.29100529100529104 18:0.1322751322751323 19:0.1322751322751323 20:0.1322751322751323 21:0.1322751322751323 22:0.1322751322751323 23:0.1322751322751323 24:0.1322751322751323 25:0.1322751322751323 26:0.1322751322751323 27:0.1322751322751323 28:0.29100529100529104 29:0.1322751322751323 30:0.1322751322751323 31:0.1322751322751323 32:0.1322751322751323 33:0.1322751322751323 34:0.29100529100529104 35:0.6084656084656085 36:0.1322751322751323 37:0.1322751322751323 38:0.1322751322751323 39:0.1322751322751323 40:0.1322751322751323 41:0.1322751322751323 42:0.1322751322751323 43:0.1322751322751323 44:0.1322751322751323 45:0.1322751322751323 46:0.1322751322751323 47:0.1322751322751323 48:0.1322751322751323 49:0.1322751322751323 50:0.44973544973544977 51:0.6084656084656085 52:0.1322751322751323 53:0.1322751322751323 54:0.1322751322751323 55:0.1322751322751323 56:0.1322751322751323 57:0.1322751322751323 58:0.1322751322751323 59:0.1322751322751323 60:0.1322751322751323 
1.0 1.0 1:0.1388888888888889 2:0.3055555555555556 3:0.1388888888888889 4:0.47222222222222227 5:0.1388888888888889 6:0.1388888888888889 7:0.1388888888888889 8:0.1388888888888889 9:0.1388888888888889 10:0.1388888888888889 11:0.1388888888888889 12:0.3055555555555556 13:0.1388888888888889 14:0.1388888888888889 15:0.3055555555555556 16:0.1388888888888889 17:0.1388888888888889 18:0.1388888888888889 19:0.1388888888888889 20:0.1388888888888889 21:0.1388888888888889 22:0.1388888888888889 23:0.1388888888888889 24:0.1388888888888889 25:0.3055555555555556 26:0.1388888888888889 27:0.1388888888888889 28:0.3055555555555556 29:0.1388888888888889 30:0.1388888888888889 31:0.1388888888888889 32:0.1388888888888889 33:0.1388888888888889 34:0.1388888888888889 35:0.3055555555555556 36:0.1388888888888889 37:0.1388888888888889 38:0.1388888888888889 39:0.3055555555555556 40:0.1388888888888889 41:0.1388888888888889 42:0.1388888888888889 43:0.1388888888888889 44:0.1388888888888889 45:0.1388888888888889 46:0.1388888888888889 47:0.1388888888888889 48:0.1388888888888889 49:0.1388888888888889 50:0.1388888888888889 51:0.1388888888888889 52:0.1388888888888889 53:0.3055555555555556 54:0.1388888888888889 55:0.1388888888888889 56:0.1388888888888889 57:0.1388888888888889 58:0.1388888888888889 59:0.1388888888888889 60:0.1388888888888889 
1.0 1.0 1:0.14124293785310735 2:0.3107344632768362 3:0.14124293785310735 4:0.14124293785310735 5:0.14124293785310735 6:0.14124293785310735 7:0.14124293785310735 8:0.3107344632768362 9:0.14124293785310735 10:0.14124293785310735 11:0.14124293785310735 12:0.14124293785310735 13:0.14124293785310735 14:0.14124293785310735 15:0.14124293785310735 16:0.3107344632768362 17:0.14124293785310735 18:0.14124293785310735 19:0.14124293785310735 20:0.14124293785310735 21:0.14124293785310735 22:0.14124293785310735 23:0.14124293785310735 24:0.14124293785310735 25:0.3107344632768362 26:0.14124293785310735 27:0.14124293785310735 28:0.14124293785310735 29:0.14124293785310735 30:0.14124293785310735 31:0.14124293785310735 32:0.14124293785310735 33:0.3107344632768362 34:0.14124293785310735 35:0.14124293785310735 36:0.14124293785310735 37:0.14124293785310735 38:0.14124293785310735 39:0.14124293785310735 40:0.14124293785310735 41:0.14124293785310735 42:0.14124293785310735 43:0.14124293785310735 44:0.3107344632768362 45:0.14124293785310735 46:0.3107344632768362 47:0.3107344632768362 48:0.14124293785310735 49:0.14124293785310735 50:0.14124293785310735 51:0.14124293785310735 52:0.14124293785310735 53:0.14124293785310735 54:0.14124293785310735 55:0.14124293785310735 56:0.3107344632768362 57:0.14124293785310735 58:0.14124293785310735 59:0.14124293785310735 60:0.14124293785310735 
1.0 0.35595256733105984 1:0.1322751322751323 2:0.1322751322751323 3:0.44973544973544977 4:0.1322751322751323 5:0.1322751322751323 6:0.1322751322751323 7:0.1322751322751323 8:0.1322751322751323 9:0.1322751322751323 10:0.1322751322751323 11:0.1322751322751323 12:0.29100529100529104 13:0.1322751322751323 14:0.1322751322751323 15:0.1322751322751323 16:0.1322751322751323 17:0.1322751322751323 18:0.1322751322751323 19:0.1322751322751323 20:0.1322751322751323 21:0.1322751322751323 22:0.1322751322751323 23:0.1322751322751323 24:0.29100529100529104 25:0.44973544973544977 26:0.1322751322751323 27:0.1322751322751323 28:0.1322751322751323 29:0.1322751322751323 30:0.1322751322751323 31:0.1322751322751323 32:0.1322751322751323 33:0.1322751322751323 34:0.1322751322751323 35:0.1322751322751323 36:0.1322751322751323 37:0.1322751322751323 38:0.1322751322751323 39:0.1322751322751323 40:0.6084656084656085 41:0.1322751322751323 42:0.1322751322751323 43:0.1322751322751323 44:0.1322751322751323 45:0.1322751322751323 46:0.1322751322751323 47:0.1322751322751323 48:0.1322751322751323 49:0.1322751322751323 50:0.1322751322751323 51:0.1322751322751323 52:0.1322751322751323 53:0.1322751322751323 54:0.1322751322751323 55:0.1322751322751323 56:0.1322751322751323 57:0.44973544973544977 58:0.29100529100529104 59:0.29100529100529104 60:0.1322751322751323 
1.0 1.0 1:0.1488095238095238 2:0.1488095238095238 3:0.1488095238095238 4:0.1488095238095238 5:0.1488095238095238 6:0.1488095238095238 7:0.1488095238095238 8:0.1488095238095238 9:0.1488095238095238 10:0.1488095238095238 11:0.1488095238095238 12:0.1488095238095238 13:0.1488095238095238 14:0.1488095238095238 15:0.1488095238095238 16:0.1488095238095238 17:0.1488095238095238 18:0.1488095238095238 19:0.1488095238095238 20:0.1488095238095238 21:0.1488095238095238 22:0.1488095238095238 23:0.1488095238095238 24:0.1488095238095238 25:0.1488095238095238 26:0.3273809523809524 27:0.1488095238095238 28:0.1488095238095238 29:0.1488095238095238 30:0.1488095238095238 31:0.1488095238095238 32:0.3273809523809524 33:0.1488095238095238 34:0.1488095238095238 35:0.1488095238095238 36:0.1488095238095238 37:0.1488095238095238 38:0.3273809523809524 39:0.1488095238095238 40:0.1488095238095238 41:0.1488095238095238 42:0.1488095238095238 43:0.1488095238095238 44:0.3273809523809524 45:0.3273809523809524 46:0.3273809523809524 47:0.1488095238095238 48:0.1488095238095238 49:0.1488095238095238 50:0.1488095238095238 51:0.1488095238095238 52:0.1488095238095238 53:0.1488095238095238 54:0.1488095238095238 55:0.1488095238095238 56:0.1488095238095238 57:0.1488095238095238 58:0.1488095238095238 59:0.1488095238095238 60:0.1488095238095238 
1.0 1.0 1:0.12626262626262627 2:0.12626262626262627 3:0.12626262626262627 4:0.12626262626262627 5:0.12626262626262627 6:0.12626262626262627 7:0.12626262626262627 8:0.12626262626262627 9:0.12626262626262627 10:0.2777777777777778 11:0.12626262626262627 12:0.12626262626262627 13:0.12626262626262627 14:0.12626262626262627 15:0.12626262626262627 16:0.12626262626262627 17:0.12626262626262627 18:0.12626262626262627 19:0.12626262626262627 20:0.12626262626262627 21:0.12626262626262627 22:0.12626262626262627 23:0.12626262626262627 24:0.12626262626262627 25:0.12626262626262627 26:0.2777777777777778 27:0.12626262626262627 28:0.2777777777777778 29:0.12626262626262627 30:0.12626262626262627 31:0.7323232323232323 32:0.12626262626262627 33:0.12626262626262627 34:0.12626262626262627 35:0.12626262626262627 36:0.4292929292929293 37:0.12626262626262627 38:0.12626262626262627 39:0.2777777777777778 40:0.12626262626262627 41:0.2777777777777778 42:0.2777777777777778 43:0.12626262626262627 44:0.12626262626262627 45:0.12626262626262627 46:0.12626262626262627 47:0.4292929292929293 48:0.12626262626262627 49:0.12626262626262627 50:0.12626262626262627 51:0.12626262626262627 52:0.12626262626262627 53:0.12626262626262627 54:0.12626262626262627 55:0.12626262626262627 56:0.12626262626262627 57:0.12626262626262627 58:0.12626262626262627 59:0.4292929292929293 60:0.12626262626262627 
1.0 0.0 1:0.154320987654321 2:0.154320987654321 3:0.154320987654321 4:0.154320987654321 5:0.154320987654321 6:0.154320987654321 7:0.154320987654321 8:0.154320987654321 9:0.154320987654321 10:0.154320987654321 11:0.154320987654321 12:0.154320987654321 13:0.154320987654321 14:0.154320987654321 15:0.154320987654321 16:0.154320987654321 17:0.154320987654321 18:0.154320987654321 19:0.154320987654321 20:0.154320987654321 21:0.154320987654321 22:0.154320987654321 23:0.154320987654321 24:0.154320987654321 25:0.33950617283950624 26:0.154320987654321 27:0.154320987654321 28:0.154320987654321 29:0.154320987654321 30:0.154320987654321 31:0.154320987654321 32:0.154320987654321 33:0.154320987654321 34:0.154320987654321 35:0.154320987654321 36:0.154320987654321 37:0.154320987654321 38:0.33950617283950624 39:0.5246913580246914 40:0.154320987654321 41:0.154320987654321 42:0.154320987654321 43:0.154320987654321 44:0.154320987654321 45:0.154320987654321 46:0.154320987654321 47:0.154320987654321 48:0.154320987654321 49:0.154320987654321 50:0.154320987654321 51:0.154320987654321 52:0.154320987654321 53:0.154320987654321 54:0.154320987654321 55:0.154320987654321 56:0.154320987654321 57:0.154320987654321 58:0.154320987654321 59:0.154320987654321 60:0.154320987654321 
1.0 1.0 1:0.14619883040935674 2:0.14619883040935674 3:0.14619883040935674 4:0.14619883040935674 5:0.14619883040935674 6:0.14619883040935674 7:0.14619883040935674 8:0.14619883040935674 9:0.14619883040935674 10:0.14619883040935674 11:0.14619883040935674 12:0.14619883040935674 13:0.14619883040935674 14:0.14619883040935674 15:0.14619883040935674 16:0.14619883040935674 17:0.14619883040935674 18:0.14619883040935674 19:0.14619883040935674 20:0.14619883040935674 21:0.32163742690058483 22:0.14619883040935674 23:0.14619883040935674 24:0.14619883040935674 25:0.14619883040935674 26:0.14619883040935674 27:0.32163742690058483 28:0.14619883040935674 29:0.14619883040935674 30:0.14619883040935674 31:0.14619883040935674 32:0.14619883040935674 33:0.32163742690058483 34:0.14619883040935674 35:0.32163742690058483 36:0.14619883040935674 37:0.14619883040935674 38:0.14619883040935674 39:0.32163742690058483 40:0.32163742690058483 41:0.14619883040935674 42:0.14619883040935674 43:0.14619883040935674 44:0.14619883040935674 45:0.14619883040935674 46:0.14619883040935674 47:0.14619883040935674 48:0.14619883040935674 49:0.14619883040935674 50:0.32163742690058483 51:0.14619883040935674 52:0.14619883040935674 53:0.14619883040935674 54:0.14619883040935674 55:0.14619883040935674 56:0.14619883040935674 57:0.14619883040935674 58:0.14619883040935674 59:0.14619883040935674 60:0.14619883040935674 
1.0 0.0 1:0.09920634920634921 2:0.09920634920634921 3:0.09920634920634921 4:0.09920634920634921 5:0.09920634920634921 6:0.3373015873015873 7:0.09920634920634921 8:0.09920634920634921 9:0.21825396825396828 10:0.09920634920634921 11:0.09920634920634921 12:0.3373015873015873 13:0.09920634920634921 14:0.09920634920634921 15:0.4563492063492064 16:0.09920634920634921 17:0.3373015873015873 18:0.09920634920634921 19:0.09920634920634921 20:0.09920634920634921 21:0.3373015873015873 22:0.09920634920634921 23:0.09920634920634921 24:0.21825396825396828 25:0.09920634920634921 26:0.09920634920634921 27:0.21825396825396828 28:0.09920634920634921 29:0.21825396825396828 30:0.09920634920634921 31:0.09920634920634921 32:0.09920634920634921 33:0.09920634920634921 34:0.21825396825396828 35:0.21825396825396828 36:0.09920634920634921 37:0.09920634920634921 38:0.3373015873015873 39:0.4563492063492064 40:0.21825396825396828 41:0.3373015873015873 42:0.09920634920634921 43:0.09920634920634921 44:0.09920634920634921 45:0.09920634920634921 46:0.09920634920634921 47:0.09920634920634921 48:0.09920634920634921 49:0.09920634920634921 50:0.09920634920634921 51:0.09920634920634921 52:0.5753968253968254 53:0.09920634920634921 54:0.3373015873015873 55:0.21825396825396828 56:0.3373015873015873 57:0.09920634920634921 58:0.09920634920634921 59:0.09920634920634921 60:0.09920634920634921 
1.0 1.0 1:0.13440860215053763 2:0.13440860215053763 3:0.13440860215053763 4:0.13440860215053763 5:0.13440860215053763 6:0.13440860215053763 7:0.13440860215053763 8:0.13440860215053763 9:0.13440860215053763 10:0.13440860215053763 11:0.2956989247311828 12:0.13440860215053763 13:0.13440860215053763 14:0.13440860215053763 15:0.2956989247311828 16:0.13440860215053763 17:0.13440860215053763 18:0.13440860215053763 19:0.13440860215053763 20:0.13440860215053763 21:0.13440860215053763 22:0.13440860215053763 23:0.13440860215053763 24:0.13440860215053763 25:0.13440860215053763 26:0.13440860215053763 27:0.2956989247311828 28:0.13440860215053763 29:0.13440860215053763 30:0.2956989247311828 31:0.2956989247311828 32:0.13440860215053763 33:0.13440860215053763 34:0.13440860215053763 35:0.13440860215053763 36:0.13440860215053763 37:0.13440860215053763 38:0.13440860215053763 39:0.13440860215053763 40:0.456989247311828 41:0.13440860215053763 42:0.13440860215053763 43:0.13440860215053763 44:0.13440860215053763 45:0.13440860215053763 46:0.13440860215053763 47:0.2956989247311828 48:0.13440860215053763 49:0.13440860215053763 50:0.13440860215053763 51:0.13440860215053763 52:0.13440860215053763 53:0.456989247311828 54:0.13440860215053763 55:0.13440860215053763 56:0.2956989247311828 57:0.2956989247311828 58:0.13440860215053763 59:0.13440860215053763 60:0.13440860215053763 
1.0 1.0 1:0.14367816091954022 2:0.14367816091954022 3:0.14367816091954022 4:0.14367816091954022 5:0.14367816091954022 6:0.14367816091954022 7:0.14367816091954022 8:0.14367816091954022 9:0.14367816091954022 10:0.14367816091954022 11:0.14367816091954022 12:0.14367816091954022 13:0.14367816091954022 14:0.14367816091954022 15:0.14367816091954022 16:0.14367816091954022 17:0.14367816091954022 18:0.3160919540229885 19:0.3160919540229885 20:0.14367816091954022 21:0.14367816091954022 22:0.14367816091954022 23:0.14367816091954022 24:0.14367816091954022 25:0.14367816091954022 26:0.14367816091954022 27:0.3160919540229885 28:0.14367816091954022 29:0.14367816091954022 30:0.14367816091954022 31:0.14367816091954022 32:0.14367816091954022 33:0.14367816091954022 34:0.14367816091954022 35:0.14367816091954022 36:0.14367816091954022 37:0.14367816091954022 38:0.14367816091954022 39:0.14367816091954022 40:0.14367816091954022 41:0.14367816091954022 42:0.14367816091954022 43:0.3160919540229885 44:0.14367816091954022 45:0.3160919540229885 46:0.14367816091954022 47:0.14367816091954022 48:0.14367816091954022 49:0.3160919540229885 50:0.14367816091954022 51:0.14367816091954022 52:0.14367816091954022 53:0.14367816091954022 54:0.14367816091954022 55:0.14367816091954022 56:0.14367816091954022 57:0.3160919540229885 58:0.14367816091954022 59:0.14367816091954022 60:0.3160919540229885 
1.0 1.0 1:0.23504273504273507 2:0.3632478632478633 3:0.10683760683760685 4:0.10683760683760685 5:0.6196581196581196 6:0.10683760683760685 7:0.10683760683760685 8:0.10683760683760685 9:0.10683760683760685 10:1.0042735042735043 11:0.23504273504273507 12:0.23504273504273507 13:0.10683760683760685 14:0.10683760683760685 15:0.10683760683760685 16:0.10683760683760685 17:0.10683760683760685 18:0.10683760683760685 19:0.3632478632478633 20:0.10683760683760685 21:0.10683760683760685 22:0.10683760683760685 23:0.10683760683760685 24:0.10683760683760685 25:0.10683760683760685 26:0.23504273504273507 27:0.23504273504273507 28:0.10683760683760685 29:0.10683760683760685 30:0.10683760683760685 31:0.10683760683760685 32:0.10683760683760685 33:0.10683760683760685 34:0.10683760683760685 35:0.10683760683760685 36:0.10683760683760685 37:0.10683760683760685 38:0.10683760683760685 39:0.10683760683760685 40:0.10683760683760685 41:0.23504273504273507 42:0.10683760683760685 43:0.23504273504273507 44:0.23504273504273507 45:0.10683760683760685 46:0.10683760683760685 47:0.10683760683760685 48:0.10683760683760685 49:0.10683760683760685 50:0.10683760683760685 51:0.10683760683760685 52:0.10683760683760685 53:0.10683760683760685 54:0.6196581196581196 55:0.10683760683760685 56:0.10683760683760685 57:0.23504273504273507 58:0.10683760683760685 59:0.10683760683760685 60:0.10683760683760685 
1.0 0.0 1:0.2619047619047619 2:0.11904761904761905 3:0.11904761904761905 4:0.11904761904761905 5:0.11904761904761905 6:0.11904761904761905 7:0.11904761904761905 8:0.11904761904761905 9:0.11904761904761905 10:0.11904761904761905 11:0.11904761904761905 12:0.11904761904761905 13:0.11904761904761905 14:0.11904761904761905 15:0.11904761904761905 16:0.11904761904761905 17:0.40476190476190477 18:0.2619047619047619 19:0.11904761904761905 20:0.11904761904761905 21:0.11904761904761905 22:0.6904761904761904 23:0.11904761904761905 24:0.11904761904761905 25:0.11904761904761905 26:0.11904761904761905 27:0.11904761904761905 28:0.11904761904761905 29:0.11904761904761905 30:0.11904761904761905 31:0.11904761904761905 32:0.5476190476190477 33:0.11904761904761905 34:0.11904761904761905 35:0.11904761904761905 36:0.2619047619047619 37:0.11904761904761905 38:0.11904761904761905 39:0.11904761904761905 40:0.11904761904761905 41:0.2619047619047619 42:0.11904761904761905 43:0.11904761904761905 44:0.11904761904761905 45:0.40476190476190477 46:0.11904761904761905 47:0.11904761904761905 48:0.11904761904761905 49:0.11904761904761905 50:0.11904761904761905 51:0.11904761904761905 52:0.11904761904761905 53:0.11904761904761905 54:0.2619047619047619 55:0.11904761904761905 56:0.11904761904761905 57:0.11904761904761905 58:0.2619047619047619 59:0.11904761904761905 60:0.5476190476190477 
1.0 1.0 1:0.154320987654321 2:0.154320987654321 3:0.154320987654321 4:0.154320987654321 5:0.154320987654321 6:0.154320987654321 7:0.33950617283950624 8:0.154320987654321 9:0.154320987654321 10:0.154320987654321 11:0.154320987654321 12:0.154320987654321 13:0.154320987654321 14:0.154320987654321 15:0.154320987654321 16:0.154320987654321 17:0.154320987654321 18:0.154320987654321 19:0.154320987654321 20:0.154320987654321 21:0.154320987654321 22:0.154320987654321 23:0.154320987654321 24:0.33950617283950624 25:0.154320987654321 26:0.154320987654321 27:0.154320987654321 28:0.154320987654321 29:0.154320987654321 30:0.154320987654321 31:0.154320987654321 32:0.154320987654321 33:0.154320987654321 34:0.154320987654321 35:0.33950617283950624 36:0.154320987654321 37:0.154320987654321 38:0.154320987654321 39:0.154320987654321 40:0.154320987654321 41:0.154320987654321 42:0.154320987654321 43:0.154320987654321 44:0.154320987654321 45:0.154320987654321 46:0.154320987654321 47:0.154320987654321 48:0.154320987654321 49:0.154320987654321 50:0.154320987654321 51:0.154320987654321 52:0.33950617283950624 53:0.154320987654321 54:0.154320987654321 55:0.154320987654321 56:0.154320987654321 57:0.154320987654321 58:0.154320987654321 59:0.154320987654321 60:0.154320987654321 
1.0 1.0 1:0.10822510822510824 2:0.10822510822510824 3:0.367965367965368 4:0.10822510822510824 5:0.2380952380952381 6:0.10822510822510824 7:0.10822510822510824 8:0.2380952380952381 9:0.10822510822510824 10:0.10822510822510824 11:0.2380952380952381 12:0.10822510822510824 13:0.10822510822510824 14:0.10822510822510824 15:0.10822510822510824 16:0.10822510822510824 17:0.10822510822510824 18:0.10822510822510824 19:0.10822510822510824 20:0.10822510822510824 21:0.10822510822510824 22:0.10822510822510824 23:0.10822510822510824 24:0.10822510822510824 25:0.10822510822510824 26:0.10822510822510824 27:0.10822510822510824 28:0.10822510822510824 29:0.10822510822510824 30:0.10822510822510824 31:0.367965367965368 32:0.49783549783549785 33:0.10822510822510824 34:0.2380952380952381 35:0.10822510822510824 36:0.10822510822510824 37:0.10822510822510824 38:0.10822510822510824 39:0.367965367965368 40:0.10822510822510824 41:0.6277056277056277 42:0.10822510822510824 43:0.10822510822510824 44:0.10822510822510824 45:0.10822510822510824 46:0.2380952380952381 47:0.10822510822510824 48:0.10822510822510824 49:0.367965367965368 50:0.10822510822510824 51:0.367965367965368 52:0.10822510822510824 53:0.367965367965368 54:0.2380952380952381 55:0.10822510822510824 56:0.367965367965368 57:0.10822510822510824 58:0.10822510822510824 59:0.10822510822510824 60:0.10822510822510824 
0.32385848676499457 0.0 1:0.10822510822510824 2:0.10822510822510824 3:0.2380952380952381 4:0.10822510822510824 5:0.2380952380952381 6:0.10822510822510824 7:0.10822510822510824 8:0.10822510822510824 9:0.2380952380952381 10:0.2380952380952381 11:0.10822510822510824 12:0.8874458874458874 13:0.10822510822510824 14:0.10822510822510824 15:0.2380952380952381 16:0.10822510822510824 17:0.10822510822510824 18:0.10822510822510824 19:0.367965367965368 20:0.10822510822510824 21:0.2380952380952381 22:0.2380952380952381 23:0.10822510822510824 24:0.367965367965368 25:0.2380952380952381 26:0.10822510822510824 27:0.2380952380952381 28:0.10822510822510824 29:0.10822510822510824 30:0.10822510822510824 31:0.10822510822510824 32:0.10822510822510824 33:0.10822510822510824 34:0.10822510822510824 35:0.2380952380952381 36:0.10822510822510824 37:0.10822510822510824 38:0.10822510822510824 39:0.49783549783549785 40:0.10822510822510824 41:0.2380952380952381 42:0.10822510822510824 43:0.10822510822510824 44:0.10822510822510824 45:0.10822510822510824 46:0.10822510822510824 47:0.367965367965368 48:0.10822510822510824 49:0.10822510822510824 50:0.10822510822510824 51:0.10822510822510824 52:0.10822510822510824 53:0.10822510822510824 54:0.10822510822510824 55:0.10822510822510824 56:0.10822510822510824 57:0.10822510822510824 58:0.2380952380952381 59:0.10822510822510824 60:0.10822510822510824 
1.0 0.9292895589173894 1:0.14367816091954022 2:0.14367816091954022 3:0.14367816091954022 4:0.14367816091954022 5:0.14367816091954022 6:0.14367816091954022 7:0.14367816091954022 8:0.14367816091954022 9:0.14367816091954022 10:0.14367816091954022 11:0.14367816091954022 12:0.14367816091954022 13:0.14367816091954022 14:0.4885057471264368 15:0.14367816091954022 16:0.14367816091954022 17:0.14367816091954022 18:0.14367816091954022 19:0.14367816091954022 20:0.14367816091954022 21:0.14367816091954022 22:0.4885057471264368 23:0.14367816091954022 24:0.3160919540229885 25:0.14367816091954022 26:0.14367816091954022 27:0.14367816091954022 28:0.14367816091954022 29:0.14367816091954022 30:0.14367816091954022 31:0.14367816091954022 32:0.14367816091954022 33:0.14367816091954022 34:0.14367816091954022 35:0.14367816091954022 36:0.14367816091954022 37:0.14367816091954022 38:0.3160919540229885 39:0.14367816091954022 40:0.14367816091954022 41:0.14367816091954022 42:0.14367816091954022 43:0.14367816091954022 44:0.14367816091954022 45:0.14367816091954022 46:0.14367816091954022 47:0.14367816091954022 48:0.4885057471264368 49:0.14367816091954022 50:0.14367816091954022 51:0.14367816091954022 52:0.14367816091954022 53:0.14367816091954022 54:0.14367816091954022 55:0.14367816091954022 56:0.14367816091954022 57:0.14367816091954022 58:0.14367816091954022 59:0.14367816091954022 60:0.14367816091954022 
1.0 1.0 1:0.12820512820512822 2:0.43589743589743596 3:0.12820512820512822 4:0.12820512820512822 5:0.2820512820512821 6:0.12820512820512822 7:0.12820512820512822 8:0.12820512820512822 9:0.12820512820512822 10:0.12820512820512822 11:0.12820512820512822 12:0.12820512820512822 13:0.12820512820512822 14:0.12820512820512822 15:0.12820512820512822 16:0.12820512820512822 17:0.12820512820512822 18:0.2820512820512821 19:0.12820512820512822 20:0.12820512820512822 21:0.12820512820512822 22:0.2820512820512821 23:0.12820512820512822 24:0.12820512820512822 25:0.12820512820512822 26:0.12820512820512822 27:0.12820512820512822 28:0.12820512820512822 29:0.12820512820512822 30:0.12820512820512822 31:0.12820512820512822 32:0.12820512820512822 33:0.12820512820512822 34:0.12820512820512822 35:0.12820512820512822 36:0.12820512820512822 37:0.2820512820512821 38:0.12820512820512822 39:0.12820512820512822 40:0.12820512820512822 41:0.12820512820512822 42:0.12820512820512822 43:0.12820512820512822 44:0.43589743589743596 45:0.12820512820512822 46:0.12820512820512822 47:0.12820512820512822 48:0.2820512820512821 49:0.12820512820512822 50:0.12820512820512822 51:0.12820512820512822 52:0.12820512820512822 53:0.12820512820512822 54:0.12820512820512822 55:0.12820512820512822 56:0.12820512820512822 57:0.12820512820512822 58:0.12820512820512822 59:0.8974358974358975 60:0.2820512820512821 
1.0 1.0 1:0.11904761904761905 2:0.11904761904761905 3:0.11904761904761905 4:0.11904761904761905 5:0.11904761904761905 6:0.11904761904761905 7:0.11904761904761905 8:0.5476190476190477 9:0.2619047619047619 10:0.2619047619047619 11:0.11904761904761905 12:0.11904761904761905 13:0.11904761904761905 14:0.11904761904761905 15:0.2619047619047619 16:0.11904761904761905 17:0.11904761904761905 18:0.11904761904761905 19:0.11904761904761905 20:0.11904761904761905 21:0.11904761904761905 22:0.11904761904761905 23:0.2619047619047619 24:0.11904761904761905 25:0.11904761904761905 26:0.11904761904761905 27:0.11904761904761905 28:0.11904761904761905 29:0.11904761904761905 30:0.11904761904761905 31:0.11904761904761905 32:0.11904761904761905 33:0.11904761904761905 34:0.11904761904761905 35:0.11904761904761905 36:0.11904761904761905 37:0.11904761904761905 38:0.40476190476190477 39:0.2619047619047619 40:0.5476190476190477 41:0.11904761904761905 42:0.11904761904761905 43:0.40476190476190477 44:0.11904761904761905 45:0.11904761904761905 46:0.11904761904761905 47:0.11904761904761905 48:0.11904761904761905 49:0.2619047619047619 50:0.11904761904761905 51:0.2619047619047619 52:0.11904761904761905 53:0.2619047619047619 54:0.11904761904761905 55:0.11904761904761905 56:0.11904761904761905 57:0.2619047619047619 58:0.11904761904761905 59:0.11904761904761905 60:0.2619047619047619 
1.0 1.0 1:0.15151515151515152 2:0.15151515151515152 3:0.3333333333333333 4:0.15151515151515152 5:0.15151515151515152 6:0.15151515151515152 7:0.15151515151515152 8:0.15151515151515152 9:0.15151515151515152 10:0.15151515151515152 11:0.15151515151515152 12:0.15151515151515152 13:0.15151515151515152 14:0.15151515151515152 15:0.15151515151515152 16:0.15151515151515152 17:0.15151515151515152 18:0.15151515151515152 19:0.15151515151515152 20:0.15151515151515152 21:0.15151515151515152 22:0.15151515151515152 23:0.15151515151515152 24:0.15151515151515152 25:0.3333333333333333 26:0.15151515151515152 27:0.15151515151515152 28:0.15151515151515152 29:0.15151515151515152 30:0.15151515151515152 31:0.15151515151515152 32:0.3333333333333333 33:0.15151515151515152 34:0.15151515151515152 35:0.15151515151515152 36:0.15151515151515152 37:0.15151515151515152 38:0.15151515151515152 39:0.15151515151515152 40:0.15151515151515152 41:0.15151515151515152 42:0.15151515151515152 43:0.15151515151515152 44:0.15151515151515152 45:0.15151515151515152 46:0.15151515151515152 47:0.15151515151515152 48:0.15151515151515152 49:0.15151515151515152 50:0.15151515151515152 51:0.15151515151515152 52:0.15151515151515152 53:0.15151515151515152 54:0.3333333333333333 55:0.3333333333333333 56:0.15151515151515152 57:0.15151515151515152 58:0.15151515151515152 59:0.15151515151515152 60:0.15151515151515152 
0.14649984561729923 0.023574329497928995 1:0.367965367965368 2:0.367965367965368 3:0.10822510822510824 4:0.10822510822510824 5:0.10822510822510824 6:0.10822510822510824 7:0.10822510822510824 8:0.2380952380952381 9:0.10822510822510824 10:0.10822510822510824 11:0.2380952380952381 12:0.10822510822510824 13:0.10822510822510824 14:0.10822510822510824 15:0.10822510822510824 16:0.10822510822510824 17:0.2380952380952381 18:0.10822510822510824 19:0.10822510822510824 20:0.10822510822510824 21:0.10822510822510824 22:0.10822510822510824 23:0.2380952380952381 24:2.1861471861471857 25:0.10822510822510824 26:0.10822510822510824 27:0.2380952380952381 28:0.10822510822510824 29:0.10822510822510824 30:0.10822510822510824 31:0.10822510822510824 32:0.2380952380952381 33:0.10822510822510824 34:0.10822510822510824 35:0.10822510822510824 36:0.10822510822510824 37:0.10822510822510824 38:0.10822510822510824 39:0.10822510822510824 40:0.10822510822510824 41:0.10822510822510824 42:0.10822510822510824 43:0.10822510822510824 44:0.10822510822510824 45:0.10822510822510824 46:0.10822510822510824 47:0.10822510822510824 48:0.10822510822510824 49:0.10822510822510824 50:0.10822510822510824 51:0.10822510822510824 52:0.10822510822510824 53:0.10822510822510824 54:0.10822510822510824 55:0.10822510822510824 56:0.10822510822510824 57:0.10822510822510824 58:0.10822510822510824 59:0.2380952380952381 60:0.10822510822510824 
1.0 1.0 1:0.1488095238095238 2:0.1488095238095238 3:0.1488095238095238 4:0.1488095238095238 5:0.1488095238095238 6:0.1488095238095238 7:0.1488095238095238 8:0.1488095238095238 9:0.1488095238095238 10:0.1488095238095238 11:0.1488095238095238 12:0.1488095238095238 13:0.1488095238095238 14:0.1488095238095238 15:0.1488095238095238 16:0.1488095238095238 17:0.1488095238095238 18:0.1488095238095238 19:0.1488095238095238 20:0.5059523809523809 21:0.3273809523809524 22:0.1488095238095238 23:0.1488095238095238 24:0.1488095238095238 25:0.1488095238095238 26:0.3273809523809524 27:0.1488095238095238 28:0.1488095238095238 29:0.3273809523809524 30:0.1488095238095238 31:0.1488095238095238 32:0.1488095238095238 33:0.1488095238095238 34:0.1488095238095238 35:0.1488095238095238 36:0.1488095238095238 37:0.1488095238095238 38:0.1488095238095238 39:0.3273809523809524 40:0.1488095238095238 41:0.1488095238095238 42:0.1488095238095238 43:0.1488095238095238 44:0.1488095238095238 45:0.1488095238095238 46:0.1488095238095238 47:0.1488095238095238 48:0.1488095238095238 49:0.1488095238095238 50:0.1488095238095238 51:0.1488095238095238 52:0.1488095238095238 53:0.1488095238095238 54:0.1488095238095238 55:0.1488095238095238 56:0.1488095238095238 57:0.1488095238095238 58:0.1488095238095238 59:0.1488095238095238 60:0.1488095238095238 
0.2704511108918621 0.0 1:0.25462962962962965 2:0.25462962962962965 3:0.11574074074074076 4:0.11574074074074076 5:0.11574074074074076 6:0.11574074074074076 7:0.11574074074074076 8:0.11574074074074076 9:0.11574074074074076 10:0.11574074074074076 11:0.11574074074074076 12:0.11574074074074076 13:0.11574074074074076 14:0.11574074074074076 15:0.25462962962962965 16:0.11574074074074076 17:0.39351851851851855 18:0.11574074074074076 19:0.11574074074074076 20:0.11574074074074076 21:0.11574074074074076 22:0.11574074074074076 23:0.11574074074074076 24:0.39351851851851855 25:0.11574074074074076 26:0.11574074074074076 27:0.11574074074074076 28:0.11574074074074076 29:0.11574074074074076 30:0.11574074074074076 31:0.11574074074074076 32:0.11574074074074076 33:0.25462962962962965 34:0.11574074074074076 35:0.11574074074074076 36:0.11574074074074076 37:0.39351851851851855 38:0.11574074074074076 39:0.11574074074074076 40:0.11574074074074076 41:0.11574074074074076 42:0.11574074074074076 43:0.11574074074074076 44:0.11574074074074076 45:0.11574074074074076 46:0.11574074074074076 47:0.25462962962962965 48:0.11574074074074076 49:0.11574074074074076 50:0.25462962962962965 51:0.11574074074074076 52:0.25462962962962965 53:0.11574074074074076 54:0.11574074074074076 55:0.11574074074074076 56:0.11574074074074076 57:0.11574074074074076 58:0.11574074074074076 59:1.3657407407407407 60:0.11574074074074076 
1.0 0.7834023323863931 1:0.2777777777777778 2:0.4292929292929293 3:0.12626262626262627 4:0.12626262626262627 5:0.2777777777777778 6:0.12626262626262627 7:0.12626262626262627 8:0.12626262626262627 9:0.12626262626262627 10:0.2777777777777778 11:0.12626262626262627 12:0.12626262626262627 13:0.12626262626262627 14:0.12626262626262627 15:0.12626262626262627 16:0.12626262626262627 17:0.12626262626262627 18:0.12626262626262627 19:0.12626262626262627 20:0.12626262626262627 21:0.2777777777777778 22:0.12626262626262627 23:0.12626262626262627 24:0.12626262626262627 25:0.12626262626262627 26:0.2777777777777778 27:0.12626262626262627 28:0.12626262626262627 29:0.12626262626262627 30:0.12626262626262627 31:0.12626262626262627 32:0.12626262626262627 33:0.12626262626262627 34:0.12626262626262627 35:0.12626262626262627 36:0.12626262626262627 37:0.12626262626262627 38:0.12626262626262627 39:0.12626262626262627 40:0.12626262626262627 41:0.12626262626262627 42:0.12626262626262627 43:0.12626262626262627 44:0.12626262626262627 45:0.12626262626262627 46:0.12626262626262627 47:0.12626262626262627 48:0.12626262626262627 49:0.12626262626262627 50:0.2777777777777778 51:0.12626262626262627 52:0.2777777777777778 53:0.12626262626262627 54:0.12626262626262627 55:0.12626262626262627 56:0.12626262626262627 57:0.12626262626262627 58:0.2777777777777778 59:1.0353535353535355 60:0.12626262626262627 
1.0 1.0 1:0.2820512820512821 2:0.12820512820512822 3:0.12820512820512822 4:0.12820512820512822 5:0.2820512820512821 6:0.12820512820512822 7:0.12820512820512822 8:0.12820512820512822 9:0.12820512820512822 10:0.12820512820512822 11:0.12820512820512822 12:0.12820512820512822 13:0.43589743589743596 14:0.12820512820512822 15:0.12820512820512822 16:0.12820512820512822 17:0.12820512820512822 18:0.12820512820512822 19:0.43589743589743596 20:0.12820512820512822 21:0.43589743589743596 22:0.12820512820512822 23:0.12820512820512822 24:0.12820512820512822 25:0.43589743589743596 26:0.2820512820512821 27:0.12820512820512822 28:0.12820512820512822 29:0.12820512820512822 30:0.12820512820512822 31:0.12820512820512822 32:0.12820512820512822 33:0.12820512820512822 34:0.12820512820512822 35:0.12820512820512822 36:0.12820512820512822 37:0.12820512820512822 38:0.12820512820512822 39:0.12820512820512822 40:0.12820512820512822 41:0.12820512820512822 42:0.12820512820512822 43:0.12820512820512822 44:0.12820512820512822 45:0.2820512820512821 46:0.12820512820512822 47:0.12820512820512822 48:0.12820512820512822 49:0.12820512820512822 50:0.12820512820512822 51:0.43589743589743596 52:0.12820512820512822 53:0.12820512820512822 54:0.12820512820512822 55:0.12820512820512822 56:0.12820512820512822 57:0.12820512820512822 58:0.12820512820512822 59:0.12820512820512822 60:0.2820512820512821 
1.0 1.0 1:0.1488095238095238 2:0.1488095238095238 3:0.1488095238095238 4:0.1488095238095238 5:0.1488095238095238 6:0.1488095238095238 7:0.1488095238095238 8:0.1488095238095238 9:0.1488095238095238 10:0.1488095238095238 11:0.1488095238095238 12:0.3273809523809524 13:0.1488095238095238 14:0.1488095238095238 15:0.1488095238095238 16:0.1488095238095238 17:0.1488095238095238 18:0.1488095238095238 19:0.1488095238095238 20:0.1488095238095238 21:0.1488095238095238 22:0.1488095238095238 23:0.1488095238095238 24:0.1488095238095238 25:0.1488095238095238 26:0.1488095238095238 27:0.1488095238095238 28:0.1488095238095238 29:0.1488095238095238 30:0.1488095238095238 31:0.8630952380952381 32:0.1488095238095238 33:0.1488095238095238 34:0.1488095238095238 35:0.1488095238095238 36:0.1488095238095238 37:0.1488095238095238 38:0.1488095238095238 39:0.1488095238095238 40:0.1488095238095238 41:0.1488095238095238 42:0.1488095238095238 43:0.1488095238095238 44:0.1488095238095238 45:0.1488095238095238 46:0.1488095238095238 47:0.1488095238095238 48:0.1488095238095238 49:0.1488095238095238 50:0.1488095238095238 51:0.1488095238095238 52:0.1488095238095238 53:0.1488095238095238 54:0.1488095238095238 55:0.1488095238095238 56:0.1488095238095238 57:0.1488095238095238 58:0.1488095238095238 59:0.1488095238095238 60:0.3273809523809524 
1.0 1.0 1:0.154320987654321 2:0.154320987654321 3:0.154320987654321 4:0.33950617283950624 5:0.154320987654321 6:0.154320987654321 7:0.154320987654321 8:0.154320987654321 9:0.154320987654321 10:0.33950617283950624 11:0.154320987654321 12:0.154320987654321 13:0.154320987654321 14:0.154320987654321 15:0.154320987654321 16:0.154320987654321 17:0.154320987654321 18:0.154320987654321 19:0.154320987654321 20:0.154320987654321 21:0.154320987654321 22:0.154320987654321 23:0.154320987654321 24:0.154320987654321 25:0.154320987654321 26:0.154320987654321 27:0.154320987654321 28:0.154320987654321 29:0.154320987654321 30:0.154320987654321 31:0.154320987654321 32:0.154320987654321 33:0.154320987654321 34:0.154320987654321 35:0.154320987654321 36:0.154320987654321 37:0.154320987654321 38:0.154320987654321 39:0.5246913580246914 40:0.154320987654321 41:0.154320987654321 42:0.154320987654321 43:0.154320987654321 44:0.154320987654321 45:0.154320987654321 46:0.154320987654321 47:0.154320987654321 48:0.154320987654321 49:0.154320987654321 50:0.154320987654321 51:0.154320987654321 52:0.154320987654321 53:0.154320987654321 54:0.154320987654321 55:0.154320987654321 56:0.154320987654321 57:0.154320987654321 58:0.154320987654321 59:0.154320987654321 60:0.154320987654321 
1.0 0.5393342278321237 1:0.10416666666666669 2:0.10416666666666669 3:0.10416666666666669 4:0.10416666666666669 5:0.10416666666666669 6:0.10416666666666669 7:0.10416666666666669 8:0.10416666666666669 9:0.22916666666666669 10:0.10416666666666669 11:0.10416666666666669 12:0.10416666666666669 13:0.22916666666666669 14:0.22916666666666669 15:0.10416666666666669 16:0.4791666666666667 17:0.22916666666666669 18:0.10416666666666669 19:0.10416666666666669 20:0.10416666666666669 21:0.10416666666666669 22:0.22916666666666669 23:0.6041666666666666 24:0.22916666666666669 25:0.10416666666666669 26:0.10416666666666669 27:0.35416666666666663 28:0.10416666666666669 29:0.10416666666666669 30:0.35416666666666663 31:0.22916666666666669 32:0.10416666666666669 33:0.35416666666666663 34:0.10416666666666669 35:0.10416666666666669 36:0.10416666666666669 37:0.10416666666666669 38:0.10416666666666669 39:0.22916666666666669 40:0.22916666666666669 41:0.10416666666666669 42:0.10416666666666669 43:0.10416666666666669 44:0.10416666666666669 45:0.10416666666666669 46:0.35416666666666663 47:0.10416666666666669 48:0.10416666666666669 49:0.4791666666666667 50:0.10416666666666669 51:0.10416666666666669 52:0.10416666666666669 53:0.10416666666666669 54:0.10416666666666669 55:0.10416666666666669 56:0.10416666666666669 57:0.10416666666666669 58:0.10416666666666669 59:0.22916666666666669 60:0.35416666666666663 
1.0 1.0 1:0.11904761904761905 2:0.11904761904761905 3:0.2619047619047619 4:0.11904761904761905 5:0.11904761904761905 6:0.2619047619047619 7:0.40476190476190477 8:0.11904761904761905 9:0.40476190476190477 10:0.2619047619047619 11:0.11904761904761905 12:0.11904761904761905 13:0.11904761904761905 14:0.11904761904761905 15:0.11904761904761905 16:0.2619047619047619 17:0.11904761904761905 18:0.11904761904761905 19:0.11904761904761905 20:0.11904761904761905 21:0.11904761904761905 22:0.11904761904761905 23:0.11904761904761905 24:0.11904761904761905 25:0.11904761904761905 26:0.6904761904761904 27:0.2619047619047619 28:0.11904761904761905 29:0.2619047619047619 30:0.11904761904761905 31:0.11904761904761905 32:0.11904761904761905 33:0.11904761904761905 34:0.11904761904761905 35:0.11904761904761905 36:0.11904761904761905 37:0.11904761904761905 38:0.11904761904761905 39:0.2619047619047619 40:0.11904761904761905 41:0.11904761904761905 42:0.2619047619047619 43:0.11904761904761905 44:0.11904761904761905 45:0.11904761904761905 46:0.2619047619047619 47:0.11904761904761905 48:0.11904761904761905 49:0.11904761904761905 50:0.2619047619047619 51:0.11904761904761905 52:0.11904761904761905 53:0.40476190476190477 54:0.11904761904761905 55:0.11904761904761905 56:0.11904761904761905 57:0.11904761904761905 58:0.11904761904761905 59:0.11904761904761905 60:0.11904761904761905 
1.0 1.0 1:0.12820512820512822 2:0.12820512820512822 3:0.12820512820512822 4:0.12820512820512822 5:0.12820512820512822 6:0.12820512820512822 7:0.12820512820512822 8:0.12820512820512822 9:0.12820512820512822 10:0.12820512820512822 11:0.12820512820512822 12:0.2820512820512821 13:0.12820512820512822 14:0.12820512820512822 15:0.12820512820512822 16:0.12820512820512822 17:0.2820512820512821 18:0.12820512820512822 19:0.12820512820512822 20:0.12820512820512822 21:0.2820512820512821 22:0.12820512820512822 23:0.12820512820512822 24:0.12820512820512822 25:0.2820512820512821 26:0.2820512820512821 27:0.2820512820512821 28:0.12820512820512822 29:0.12820512820512822 30:0.12820512820512822 31:0.2820512820512821 32:0.12820512820512822 33:0.12820512820512822 34:0.12820512820512822 35:0.12820512820512822 36:0.12820512820512822 37:0.12820512820512822 38:0.7435897435897436 39:0.12820512820512822 40:0.12820512820512822 41:0.12820512820512822 42:0.12820512820512822 43:0.12820512820512822 44:0.2820512820512821 45:0.12820512820512822 46:0.12820512820512822 47:0.12820512820512822 48:0.12820512820512822 49:0.12820512820512822 50:0.12820512820512822 51:0.12820512820512822 52:0.12820512820512822 53:0.2820512820512821 54:0.12820512820512822 55:0.12820512820512822 56:0.12820512820512822 57:0.2820512820512821 58:0.2820512820512821 59:0.12820512820512822 60:0.12820512820512822 
1.0 0.0 1:0.1366120218579235 2:0.1366120218579235 3:0.3005464480874317 4:0.1366120218579235 5:0.1366120218579235 6:0.1366120218579235 7:0.1366120218579235 8:0.1366120218579235 9:0.1366120218579235 10:0.1366120218579235 11:0.1366120218579235 12:0.1366120218579235 13:0.1366120218579235 14:0.1366120218579235 15:0.1366120218579235 16:0.1366120218579235 17:0.1366120218579235 18:0.1366120218579235 19:0.1366120218579235 20:0.1366120218579235 21:0.3005464480874317 22:0.3005464480874317 23:0.1366120218579235 24:0.1366120218579235 25:0.1366120218579235 26:0.1366120218579235 27:0.1366120218579235 28:0.1366120218579235 29:0.1366120218579235 30:0.1366120218579235 31:0.1366120218579235 32:0.1366120218579235 33:0.1366120218579235 34:0.1366120218579235 35:0.1366120218579235 36:0.1366120218579235 37:0.1366120218579235 38:0.1366120218579235 39:0.1366120218579235 40:0.1366120218579235 41:0.1366120218579235 42:0.1366120218579235 43:0.1366120218579235 44:0.3005464480874317 45:0.1366120218579235 46:0.1366120218579235 47:0.1366120218579235 48:0.1366120218579235 49:0.1366120218579235 50:0.1366120218579235 51:0.1366120218579235 52:0.1366120218579235 53:0.1366120218579235 54:0.1366120218579235 55:0.1366120218579235 56:0.1366120218579235 57:0.1366120218579235 58:0.1366120218579235 59:1.284153005464481 60:0.1366120218579235 
1.0 1.0 1:0.14124293785310735 2:0.3107344632768362 3:0.14124293785310735 4:0.14124293785310735 5:0.3107344632768362 6:0.14124293785310735 7:0.14124293785310735 8:0.14124293785310735 9:0.14124293785310735 10:0.14124293785310735 11:0.14124293785310735 12:0.14124293785310735 13:0.14124293785310735 14:0.14124293785310735 15:0.14124293785310735 16:0.3107344632768362 17:0.14124293785310735 18:0.14124293785310735 19:0.480225988700565 20:0.14124293785310735 21:0.14124293785310735 22:0.14124293785310735 23:0.480225988700565 24:0.14124293785310735 25:0.14124293785310735 26:0.14124293785310735 27:0.14124293785310735 28:0.14124293785310735 29:0.14124293785310735 30:0.14124293785310735 31:0.14124293785310735 32:0.14124293785310735 33:0.14124293785310735 34:0.14124293785310735 35:0.14124293785310735 36:0.14124293785310735 37:0.14124293785310735 38:0.14124293785310735 39:0.14124293785310735 40:0.14124293785310735 41:0.14124293785310735 42:0.14124293785310735 43:0.14124293785310735 44:0.14124293785310735 45:0.14124293785310735 46:0.14124293785310735 47:0.14124293785310735 48:0.14124293785310735 49:0.14124293785310735 50:0.14124293785310735 51:0.14124293785310735 52:0.3107344632768362 53:0.3107344632768362 54:0.14124293785310735 55:0.14124293785310735 56:0.14124293785310735 57:0.14124293785310735 58:0.14124293785310735 59:0.14124293785310735 60:0.14124293785310735 
1.0 0.4636895127135756 1:0.12077294685990338 2:0.12077294685990338 3:0.12077294685990338 4:0.12077294685990338 5:0.12077294685990338 6:0.41062801932367154 7:0.12077294685990338 8:0.12077294685990338 9:0.12077294685990338 10:0.12077294685990338 11:0.12077294685990338 12:0.12077294685990338 13:0.5555555555555556 14:0.12077294685990338 15:0.12077294685990338 16:0.12077294685990338 17:0.26570048309178745 18:0.12077294685990338 19:0.12077294685990338 20:0.12077294685990338 21:0.12077294685990338 22:0.12077294685990338 23:0.26570048309178745 24:0.12077294685990338 25:0.26570048309178745 26:0.12077294685990338 27:0.12077294685990338 28:0.26570048309178745 29:0.12077294685990338 30:0.12077294685990338 31:0.12077294685990338 32:0.12077294685990338 33:0.12077294685990338 34:0.12077294685990338 35:0.12077294685990338 36:0.12077294685990338 37:0.12077294685990338 38:0.9903381642512077 39:0.41062801932367154 40:0.12077294685990338 41:0.12077294685990338 42:0.12077294685990338 43:0.12077294685990338 44:0.12077294685990338 45:0.12077294685990338 46:0.12077294685990338 47:0.41062801932367154 48:0.12077294685990338 49:0.12077294685990338 50:0.12077294685990338 51:0.12077294685990338 52:0.12077294685990338 53:0.12077294685990338 54:0.12077294685990338 55:0.12077294685990338 56:0.12077294685990338 57:0.12077294685990338 58:0.12077294685990338 59:0.12077294685990338 60:0.12077294685990338 
1.0 1.0 1:0.4292929292929293 2:0.12626262626262627 3:0.12626262626262627 4:0.2777777777777778 5:0.12626262626262627 6:0.12626262626262627 7:0.2777777777777778 8:0.12626262626262627 9:0.12626262626262627 10:0.2777777777777778 11:0.12626262626262627 12:0.12626262626262627 13:0.12626262626262627 14:0.12626262626262627 15:0.12626262626262627 16:0.12626262626262627 17:0.2777777777777778 18:0.12626262626262627 19:0.12626262626262627 20:0.12626262626262627 21:0.12626262626262627 22:0.12626262626262627 23:0.12626262626262627 24:0.12626262626262627 25:0.12626262626262627 26:0.2777777777777778 27:0.12626262626262627 28:0.12626262626262627 29:0.2777777777777778 30:0.12626262626262627 31:0.12626262626262627 32:0.12626262626262627 33:0.12626262626262627 34:0.12626262626262627 35:0.12626262626262627 36:0.12626262626262627 37:0.12626262626262627 38:0.12626262626262627 39:0.12626262626262627 40:0.2777777777777778 41:0.12626262626262627 42:0.12626262626262627 43:0.12626262626262627 44:0.12626262626262627 45:0.12626262626262627 46:0.12626262626262627 47:0.12626262626262627 48:0.12626262626262627 49:0.12626262626262627 50:1.0353535353535355 51:0.12626262626262627 52:0.12626262626262627 53:0.12626262626262627 54:0.12626262626262627 55:0.12626262626262627 56:0.12626262626262627 57:0.12626262626262627 58:0.2777777777777778 59:0.12626262626262627 60:0.12626262626262627 
1.0 1.0 1:0.22088353413654618 2:0.10040160642570281 3:0.10040160642570281 4:0.10040160642570281 5:0.10040160642570281 6:0.10040160642570281 7:0.10040160642570281 8:0.3413654618473896 9:0.10040160642570281 10:0.10040160642570281 11:0.10040160642570281 12:0.10040160642570281 13:0.10040160642570281 14:0.10040160642570281 15:0.22088353413654618 16:0.10040160642570281 17:0.3413654618473896 18:0.10040160642570281 19:0.10040160642570281 20:0.22088353413654618 21:0.10040160642570281 22:0.10040160642570281 23:0.22088353413654618 24:0.10040160642570281 25:0.10040160642570281 26:0.10040160642570281 27:0.10040160642570281 28:0.10040160642570281 29:0.4618473895582329 30:0.10040160642570281 31:0.10040160642570281 32:0.10040160642570281 33:0.10040160642570281 34:0.10040160642570281 35:0.10040160642570281 36:0.10040160642570281 37:0.22088353413654618 38:0.4618473895582329 39:0.10040160642570281 40:0.4618473895582329 41:0.10040160642570281 42:0.9437751004016064 43:0.10040160642570281 44:0.22088353413654618 45:0.22088353413654618 46:0.10040160642570281 47:0.10040160642570281 48:0.10040160642570281 49:0.10040160642570281 50:0.10040160642570281 51:0.3413654618473896 52:0.10040160642570281 53:0.10040160642570281 54:0.10040160642570281 55:0.4618473895582329 56:0.22088353413654618 57:0.10040160642570281 58:0.10040160642570281 59:0.10040160642570281 60:0.10040160642570281 
1.0 1.0 1:0.1488095238095238 2:0.1488095238095238 3:0.1488095238095238 4:0.1488095238095238 5:0.1488095238095238 6:0.1488095238095238 7:0.1488095238095238 8:0.1488095238095238 9:0.1488095238095238 10:0.1488095238095238 11:0.1488095238095238 12:0.1488095238095238 13:0.1488095238095238 14:0.1488095238095238 15:0.1488095238095238 16:0.1488095238095238 17:0.1488095238095238 18:0.1488095238095238 19:0.1488095238095238 20:0.3273809523809524 21:0.1488095238095238 22:0.1488095238095238 23:0.1488095238095238 24:0.1488095238095238 25:0.1488095238095238 26:0.3273809523809524 27:0.1488095238095238 28:0.1488095238095238 29:0.1488095238095238 30:0.1488095238095238 31:0.1488095238095238 32:0.1488095238095238 33:0.1488095238095238 34:0.1488095238095238 35:0.1488095238095238 36:0.1488095238095238 37:0.1488095238095238 38:0.3273809523809524 39:0.3273809523809524 40:0.1488095238095238 41:0.1488095238095238 42:0.1488095238095238 43:0.1488095238095238 44:0.1488095238095238 45:0.1488095238095238 46:0.1488095238095238 47:0.1488095238095238 48:0.1488095238095238 49:0.3273809523809524 50:0.1488095238095238 51:0.1488095238095238 52:0.1488095238095238 53:0.1488095238095238 54:0.1488095238095238 55:0.1488095238095238 56:0.1488095238095238 57:0.1488095238095238 58:0.3273809523809524 59:0.1488095238095238 60:0.1488095238095238 
1.0 0.0 1:0.10548523206751056 2:0.35864978902953587 3:0.10548523206751056 4:0.10548523206751056 5:0.2320675105485232 6:0.10548523206751056 7:0.10548523206751056 8:0.10548523206751056 9:0.10548523206751056 10:0.10548523206751056 11:0.10548523206751056 12:0.10548523206751056 13:0.10548523206751056 14:0.10548523206751056 15:0.10548523206751056 16:0.10548523206751056 17:0.2320675105485232 18:0.10548523206751056 19:0.10548523206751056 20:0.10548523206751056 21:0.10548523206751056 22:0.10548523206751056 23:0.10548523206751056 24:0.10548523206751056 25:0.10548523206751056 26:0.2320675105485232 27:0.2320675105485232 28:0.10548523206751056 29:0.2320675105485232 30:0.10548523206751056 31:0.35864978902953587 32:0.6118143459915611 33:0.10548523206751056 34:0.10548523206751056 35:0.6118143459915611 36:0.2320675105485232 37:0.10548523206751056 38:0.10548523206751056 39:0.4852320675105486 40:0.10548523206751056 41:0.10548523206751056 42:0.2320675105485232 43:0.2320675105485232 44:0.10548523206751056 45:0.35864978902953587 46:0.10548523206751056 47:0.10548523206751056 48:0.10548523206751056 49:0.10548523206751056 50:0.2320675105485232 51:0.10548523206751056 52:0.10548523206751056 53:0.10548523206751056 54:0.10548523206751056 55:0.10548523206751056 56:0.4852320675105486 57:0.10548523206751056 58:0.10548523206751056 59:0.10548523206751056 60:0.10548523206751056 
1.0 1.0 1:0.154320987654321 2:0.154320987654321 3:0.154320987654321 4:0.154320987654321 5:0.154320987654321 6:0.154320987654321 7:0.154320987654321 8:0.154320987654321 9:0.154320987654321 10:0.154320987654321 11:0.154320987654321 12:0.154320987654321 13:0.154320987654321 14:0.33950617283950624 15:0.154320987654321 16:0.154320987654321 17:0.154320987654321 18:0.154320987654321 19:0.154320987654321 20:0.154320987654321 21:0.154320987654321 22:0.154320987654321 23:0.154320987654321 24:0.154320987654321 25:0.154320987654321 26:0.154320987654321 27:0.154320987654321 28:0.154320987654321 29:0.154320987654321 30:0.154320987654321 31:0.154320987654321 32:0.154320987654321 33:0.154320987654321 34:0.154320987654321 35:0.154320987654321 36:0.154320987654321 37:0.154320987654321 38:0.154320987654321 39:0.154320987654321 40:0.154320987654321 41:0.154320987654321 42:0.33950617283950624 43:0.154320987654321 44:0.154320987654321 45:0.154320987654321 46:0.154320987654321 47:0.33950617283950624 48:0.33950617283950624 49:0.154320987654321 50:0.154320987654321 51:0.154320987654321 52:0.154320987654321 53:0.154320987654321 54:0.154320987654321 55:0.154320987654321 56:0.154320987654321 57:0.154320987654321 58:0.154320987654321 59:0.154320987654321 60:0.154320987654321 
1.0 1.0 1:0.10964912280701755 2:0.10964912280701755 3:0.24122807017543862 4:0.10964912280701755 5:0.10964912280701755 6:0.10964912280701755 7:0.5043859649122807 8:0.10964912280701755 9:0.6359649122807016 10:0.24122807017543862 11:0.3728070175438597 12:0.10964912280701755 13:0.10964912280701755 14:0.10964912280701755 15:0.24122807017543862 16:0.10964912280701755 17:0.10964912280701755 18:0.10964912280701755 19:0.10964912280701755 20:0.24122807017543862 21:0.24122807017543862 22:0.5043859649122807 23:0.10964912280701755 24:0.10964912280701755 25:0.24122807017543862 26:0.10964912280701755 27:0.10964912280701755 28:0.10964912280701755 29:0.10964912280701755 30:0.10964912280701755 31:0.10964912280701755 32:0.10964912280701755 33:0.10964912280701755 34:0.10964912280701755 35:0.10964912280701755 36:0.10964912280701755 37:0.10964912280701755 38:0.10964912280701755 39:0.10964912280701755 40:0.5043859649122807 41:0.6359649122807016 42:0.10964912280701755 43:0.10964912280701755 44:0.10964912280701755 45:0.10964912280701755 46:0.10964912280701755 47:0.10964912280701755 48:0.10964912280701755 49:0.10964912280701755 50:0.10964912280701755 51:0.10964912280701755 52:0.10964912280701755 53:0.10964912280701755 54:0.10964912280701755 55:0.10964912280701755 56:0.10964912280701755 57:0.10964912280701755 58:0.10964912280701755 59:0.10964912280701755 60:0.24122807017543862 
1.0 1.0 1:0.12077294685990338 2:0.12077294685990338 3:0.41062801932367154 4:0.12077294685990338 5:0.12077294685990338 6:0.12077294685990338 7:0.12077294685990338 8:0.12077294685990338 9:0.12077294685990338 10:0.26570048309178745 11:0.26570048309178745 12:0.12077294685990338 13:0.12077294685990338 14:0.12077294685990338 15:0.12077294685990338 16:0.12077294685990338 17:0.12077294685990338 18:0.12077294685990338 19:0.26570048309178745 20:0.12077294685990338 21:0.41062801932367154 22:0.12077294685990338 23:0.12077294685990338 24:0.12077294685990338 25:0.12077294685990338 26:0.26570048309178745 27:0.26570048309178745 28:0.26570048309178745 29:0.12077294685990338 30:0.8454106280193237 31:0.12077294685990338 32:0.12077294685990338 33:0.12077294685990338 34:0.12077294685990338 35:0.12077294685990338 36:0.12077294685990338 37:0.12077294685990338 38:0.12077294685990338 39:0.12077294685990338 40:0.12077294685990338 41:0.12077294685990338 42:0.26570048309178745 43:0.12077294685990338 44:0.12077294685990338 45:0.12077294685990338 46:0.26570048309178745 47:0.12077294685990338 48:0.12077294685990338 49:0.12077294685990338 50:0.12077294685990338 51:0.12077294685990338 52:0.26570048309178745 53:0.12077294685990338 54:0.26570048309178745 55:0.12077294685990338 56:0.12077294685990338 57:0.12077294685990338 58:0.12077294685990338 59:0.12077294685990338 60:0.12077294685990338 
1.0 0.0 1:0.25114155251141557 2:0.11415525114155252 3:0.11415525114155252 4:0.11415525114155252 5:0.11415525114155252 6:0.11415525114155252 7:0.11415525114155252 8:0.11415525114155252 9:0.11415525114155252 10:0.11415525114155252 11:0.25114155251141557 12:0.11415525114155252 13:0.11415525114155252 14:0.25114155251141557 15:0.11415525114155252 16:0.25114155251141557 17:0.11415525114155252 18:0.11415525114155252 19:0.25114155251141557 20:0.11415525114155252 21:0.11415525114155252 22:0.11415525114155252 23:0.11415525114155252 24:0.11415525114155252 25:0.11415525114155252 26:0.3881278538812786 27:0.25114155251141557 28:0.11415525114155252 29:0.11415525114155252 30:0.9360730593607305 31:0.11415525114155252 32:0.25114155251141557 33:0.11415525114155252 34:0.11415525114155252 35:0.11415525114155252 36:0.25114155251141557 37:0.11415525114155252 38:0.25114155251141557 39:0.25114155251141557 40:0.11415525114155252 41:0.11415525114155252 42:0.11415525114155252 43:0.11415525114155252 44:0.11415525114155252 45:0.11415525114155252 46:0.25114155251141557 47:0.11415525114155252 48:0.11415525114155252 49:0.25114155251141557 50:0.11415525114155252 51:0.11415525114155252 52:0.11415525114155252 53:0.11415525114155252 54:0.3881278538812786 55:0.11415525114155252 56:0.11415525114155252 57:0.11415525114155252 58:0.11415525114155252 59:0.25114155251141557 60:0.11415525114155252 
1.0 1.0 1:0.14124293785310735 2:0.14124293785310735 3:0.14124293785310735 4:0.14124293785310735 5:0.14124293785310735 6:0.14124293785310735 7:0.480225988700565 8:0.14124293785310735 9:0.14124293785310735 10:0.14124293785310735 11:0.3107344632768362 12:0.14124293785310735 13:0.14124293785310735 14:0.3107344632768362 15:0.6497175141242938 16:0.14124293785310735 17:0.14124293785310735 18:0.14124293785310735 19:0.14124293785310735 20:0.14124293785310735 21:0.14124293785310735 22:0.14124293785310735 23:0.14124293785310735 24:0.14124293785310735 25:0.14124293785310735 26:0.14124293785310735 27:0.14124293785310735 28:0.14124293785310735 29:0.14124293785310735 30:0.14124293785310735 31:0.14124293785310735 32:0.14124293785310735 33:0.14124293785310735 34:0.14124293785310735 35:0.14124293785310735 36:0.14124293785310735 37:0.14124293785310735 38:0.14124293785310735 39:0.14124293785310735 40:0.14124293785310735 41:0.14124293785310735 42:0.3107344632768362 43:0.14124293785310735 44:0.14124293785310735 45:0.14124293785310735 46:0.14124293785310735 47:0.14124293785310735 48:0.14124293785310735 49:0.14124293785310735 50:0.14124293785310735 51:0.14124293785310735 52:0.14124293785310735 53:0.14124293785310735 54:0.14124293785310735 55:0.14124293785310735 56:0.14124293785310735 57:0.14124293785310735 58:0.3107344632768362 59:0.14124293785310735 60:0.14124293785310735 
1.0 0.0 1:0.14367816091954022 2:0.14367816091954022 3:0.14367816091954022 4:0.14367816091954022 5:0.14367816091954022 6:0.14367816091954022 7:0.14367816091954022 8:0.14367816091954022 9:0.14367816091954022 10:0.14367816091954022 11:0.14367816091954022 12:0.14367816091954022 13:0.14367816091954022 14:0.14367816091954022 15:0.14367816091954022 16:0.14367816091954022 17:0.3160919540229885 18:0.14367816091954022 19:0.14367816091954022 20:0.3160919540229885 21:0.14367816091954022 22:0.4885057471264368 23:0.14367816091954022 24:0.14367816091954022 25:0.14367816091954022 26:0.14367816091954022 27:0.14367816091954022 28:0.14367816091954022 29:0.14367816091954022 30:0.14367816091954022 31:0.14367816091954022 32:0.14367816091954022 33:0.14367816091954022 34:0.14367816091954022 35:0.14367816091954022 36:0.14367816091954022 37:0.14367816091954022 38:0.14367816091954022 39:0.6609195402298851 40:0.14367816091954022 41:0.14367816091954022 42:0.14367816091954022 43:0.14367816091954022 44:0.14367816091954022 45:0.14367816091954022 46:0.14367816091954022 47:0.14367816091954022 48:0.14367816091954022 49:0.14367816091954022 50:0.14367816091954022 51:0.14367816091954022 52:0.14367816091954022 53:0.14367816091954022 54:0.14367816091954022 55:0.14367816091954022 56:0.3160919540229885 57:0.14367816091954022 58:0.14367816091954022 59:0.14367816091954022 60:0.14367816091954022 
1.0 1.0 1:0.14619883040935674 2:0.14619883040935674 3:0.32163742690058483 4:0.14619883040935674 5:0.14619883040935674 6:0.14619883040935674 7:0.14619883040935674 8:0.14619883040935674 9:0.14619883040935674 10:0.32163742690058483 11:0.14619883040935674 12:0.14619883040935674 13:0.14619883040935674 14:0.14619883040935674 15:0.14619883040935674 16:0.14619883040935674 17:0.32163742690058483 18:0.14619883040935674 19:0.14619883040935674 20:0.14619883040935674 21:0.14619883040935674 22:0.14619883040935674 23:0.14619883040935674 24:0.14619883040935674 25:0.4970760233918129 26:0.14619883040935674 27:0.14619883040935674 28:0.14619883040935674 29:0.14619883040935674 30:0.14619883040935674 31:0.14619883040935674 32:0.14619883040935674 33:0.14619883040935674 34:0.14619883040935674 35:0.14619883040935674 36:0.14619883040935674 37:0.14619883040935674 38:0.14619883040935674 39:0.32163742690058483 40:0.14619883040935674 41:0.14619883040935674 42:0.14619883040935674 43:0.14619883040935674 44:0.14619883040935674 45:0.14619883040935674 46:0.14619883040935674 47:0.32163742690058483 48:0.14619883040935674 49:0.14619883040935674 50:0.14619883040935674 51:0.14619883040935674 52:0.14619883040935674 53:0.14619883040935674 54:0.14619883040935674 55:0.14619883040935674 56:0.14619883040935674 57:0.14619883040935674 58:0.14619883040935674 59:0.14619883040935674 60:0.14619883040935674 
0.6095715629178943 0.0 1:0.11737089201877936 2:0.11737089201877936 3:0.25821596244131456 4:0.11737089201877936 5:0.25821596244131456 6:0.11737089201877936 7:0.11737089201877936 8:0.11737089201877936 9:0.11737089201877936 10:0.11737089201877936 11:0.11737089201877936 12:1.666666666666667 13:0.11737089201877936 14:0.11737089201877936 15:0.11737089201877936 16:0.11737089201877936 17:0.11737089201877936 18:0.11737089201877936 19:0.11737089201877936 20:0.11737089201877936 21:0.25821596244131456 22:0.11737089201877936 23:0.11737089201877936 24:0.11737089201877936 25:0.11737089201877936 26:0.25821596244131456 27:0.11737089201877936 28:0.11737089201877936 29:0.11737089201877936 30:0.11737089201877936 31:0.11737089201877936 32:0.25821596244131456 33:0.11737089201877936 34:0.11737089201877936 35:0.11737089201877936 36:0.11737089201877936 37:0.11737089201877936 38:0.11737089201877936 39:0.11737089201877936 40:0.25821596244131456 41:0.11737089201877936 42:0.11737089201877936 43:0.11737089201877936 44:0.11737089201877936 45:0.11737089201877936 46:0.11737089201877936 47:0.11737089201877936 48:0.11737089201877936 49:0.11737089201877936 50:0.11737089201877936 51:0.11737089201877936 52:0.11737089201877936 53:0.11737089201877936 54:0.25821596244131456 55:0.11737089201877936 56:0.11737089201877936 57:0.11737089201877936 58:0.11737089201877936 59:0.11737089201877936 60:0.539906103286385 
1.0 0.0 1:0.25114155251141557 2:0.11415525114155252 3:0.11415525114155252 4:0.25114155251141557 5:0.11415525114155252 6:0.11415525114155252 7:0.11415525114155252 8:0.11415525114155252 9:0.11415525114155252 10:0.11415525114155252 11:0.11415525114155252 12:0.11415525114155252 13:0.11415525114155252 14:0.11415525114155252 15:0.11415525114155252 16:0.25114155251141557 17:0.25114155251141557 18:0.11415525114155252 19:0.11415525114155252 20:0.3881278538812786 21:0.11415525114155252 22:0.11415525114155252 23:0.25114155251141557 24:0.11415525114155252 25:0.5251141552511416 26:0.25114155251141557 27:0.25114155251141557 28:0.11415525114155252 29:0.11415525114155252 30:0.11415525114155252 31:0.11415525114155252 32:0.11415525114155252 33:0.25114155251141557 34:0.25114155251141557 35:0.11415525114155252 36:0.25114155251141557 37:0.25114155251141557 38:0.25114155251141557 39:0.11415525114155252 40:0.11415525114155252 41:0.11415525114155252 42:0.11415525114155252 43:0.11415525114155252 44:0.11415525114155252 45:0.11415525114155252 46:0.11415525114155252 47:0.11415525114155252 48:0.11415525114155252 49:0.11415525114155252 50:0.11415525114155252 51:0.11415525114155252 52:0.11415525114155252 53:0.11415525114155252 54:0.25114155251141557 55:0.11415525114155252 56:0.11415525114155252 57:0.11415525114155252 58:0.25114155251141557 59:0.6621004566210045 60:0.11415525114155252 
1.0 1.0 1:0.16339869281045752 2:0.16339869281045752 3:0.16339869281045752 4:0.16339869281045752 5:0.16339869281045752 6:0.16339869281045752 7:0.16339869281045752 8:0.16339869281045752 9:0.16339869281045752 10:0.16339869281045752 11:0.16339869281045752 12:0.16339869281045752 13:0.16339869281045752 14:0.16339869281045752 15:0.16339869281045752 16:0.16339869281045752 17:0.16339869281045752 18:0.16339869281045752 19:0.16339869281045752 20:0.16339869281045752 21:0.16339869281045752 22:0.16339869281045752 23:0.16339869281045752 24:0.16339869281045752 25:0.3594771241830066 26:0.16339869281045752 27:0.16339869281045752 28:0.16339869281045752 29:0.16339869281045752 30:0.16339869281045752 31:0.16339869281045752 32:0.16339869281045752 33:0.16339869281045752 34:0.16339869281045752 35:0.16339869281045752 36:0.16339869281045752 37:0.16339869281045752 38:0.16339869281045752 39:0.16339869281045752 40:0.16339869281045752 41:0.16339869281045752 42:0.16339869281045752 43:0.16339869281045752 44:0.16339869281045752 45:0.16339869281045752 46:0.16339869281045752 47:0.16339869281045752 48:0.16339869281045752 49:0.16339869281045752 50:0.16339869281045752 51:0.16339869281045752 52:0.16339869281045752 53:0.16339869281045752 54:0.16339869281045752 55:0.16339869281045752 56:0.16339869281045752 57:0.16339869281045752 58:0.16339869281045752 59:0.16339869281045752 60:0.16339869281045752 
1.0 0.0 1:0.2619047619047619 2:0.11904761904761905 3:0.11904761904761905 4:0.11904761904761905 5:0.11904761904761905 6:0.11904761904761905 7:0.11904761904761905 8:0.11904761904761905 9:0.11904761904761905 10:0.11904761904761905 11:0.11904761904761905 12:0.11904761904761905 13:0.2619047619047619 14:0.6904761904761904 15:0.11904761904761905 16:0.11904761904761905 17:0.11904761904761905 18:0.11904761904761905 19:0.11904761904761905 20:0.11904761904761905 21:0.11904761904761905 22:0.11904761904761905 23:0.11904761904761905 24:0.11904761904761905 25:0.11904761904761905 26:0.11904761904761905 27:0.11904761904761905 28:0.11904761904761905 29:0.11904761904761905 30:0.11904761904761905 31:0.11904761904761905 32:0.40476190476190477 33:0.11904761904761905 34:0.11904761904761905 35:0.11904761904761905 36:0.11904761904761905 37:0.11904761904761905 38:0.11904761904761905 39:0.11904761904761905 40:0.5476190476190477 41:0.11904761904761905 42:0.11904761904761905 43:0.11904761904761905 44:0.11904761904761905 45:0.11904761904761905 46:0.11904761904761905 47:0.11904761904761905 48:0.11904761904761905 49:0.11904761904761905 50:0.2619047619047619 51:0.11904761904761905 52:0.11904761904761905 53:0.2619047619047619 54:0.8333333333333333 55:0.11904761904761905 56:0.2619047619047619 57:0.11904761904761905 58:0.2619047619047619 59:0.11904761904761905 60:0.11904761904761905 
0.9018794802591634 1.0 1:0.367965367965368 2:0.367965367965368 3:0.10822510822510824 4:0.10822510822510824 5:0.10822510822510824 6:0.10822510822510824 7:0.10822510822510824 8:0.367965367965368 9:0.10822510822510824 10:0.10822510822510824 11:0.10822510822510824 12:0.10822510822510824 13:0.10822510822510824 14:0.10822510822510824 15:0.10822510822510824 16:0.10822510822510824 17:0.10822510822510824 18:0.10822510822510824 19:0.10822510822510824 20:0.10822510822510824 21:0.10822510822510824 22:0.10822510822510824 23:0.2380952380952381 24:2.1861471861471857 25:0.367965367965368 26:0.10822510822510824 27:0.10822510822510824 28:0.10822510822510824 29:0.10822510822510824 30:0.10822510822510824 31:0.10822510822510824 32:0.10822510822510824 33:0.10822510822510824 34:0.10822510822510824 35:0.10822510822510824 36:0.10822510822510824 37:0.10822510822510824 38:0.10822510822510824 39:0.10822510822510824 40:0.2380952380952381 41:0.10822510822510824 42:0.10822510822510824 43:0.10822510822510824 44:0.10822510822510824 45:0.10822510822510824 46:0.10822510822510824 47:0.10822510822510824 48:0.10822510822510824 49:0.10822510822510824 50:0.10822510822510824 51:0.10822510822510824 52:0.10822510822510824 53:0.10822510822510824 54:0.10822510822510824 55:0.10822510822510824 56:0.10822510822510824 57:0.10822510822510824 58:0.2380952380952381 59:0.10822510822510824 60:0.10822510822510824 
1.0 0.0 1:0.10964912280701755 2:0.10964912280701755 3:0.10964912280701755 4:0.10964912280701755 5:0.10964912280701755 6:0.24122807017543862 7:0.10964912280701755 8:0.10964912280701755 9:0.10964912280701755 10:0.3728070175438597 11:0.24122807017543862 12:0.10964912280701755 13:0.10964912280701755 14:0.10964912280701755 15:0.10964912280701755 16:0.10964912280701755 17:0.3728070175438597 18:0.10964912280701755 19:0.24122807017543862 20:0.10964912280701755 21:0.24122807017543862 22:0.24122807017543862 23:0.10964912280701755 24:0.10964912280701755 25:0.24122807017543862 26:0.24122807017543862 27:0.24122807017543862 28:0.10964912280701755 29:0.10964912280701755 30:0.10964912280701755 31:0.10964912280701755 32:0.10964912280701755 33:0.10964912280701755 34:0.10964912280701755 35:0.10964912280701755 36:0.24122807017543862 37:0.10964912280701755 38:0.10964912280701755 39:0.24122807017543862 40:0.6359649122807016 41:0.10964912280701755 42:0.10964912280701755 43:0.10964912280701755 44:0.10964912280701755 45:0.10964912280701755 46:0.3728070175438597 47:0.10964912280701755 48:0.10964912280701755 49:0.10964912280701755 50:0.10964912280701755 51:0.10964912280701755 52:0.10964912280701755 53:0.10964912280701755 54:0.10964912280701755 55:0.10964912280701755 56:0.10964912280701755 57:0.24122807017543862 58:0.6359649122807016 59:0.10964912280701755 60:0.24122807017543862 
1.0 1.0 1:0.25114155251141557 2:0.11415525114155252 3:0.11415525114155252 4:0.11415525114155252 5:0.11415525114155252 6:0.11415525114155252 7:0.11415525114155252 8:0.11415525114155252 9:0.11415525114155252 10:0.11415525114155252 11:0.25114155251141557 12:0.11415525114155252 13:0.25114155251141557 14:0.25114155251141557 15:0.11415525114155252 16:0.11415525114155252 17:0.11415525114155252 18:0.11415525114155252 19:0.25114155251141557 20:0.11415525114155252 21:0.11415525114155252 22:0.11415525114155252 23:0.11415525114155252 24:0.11415525114155252 25:0.11415525114155252 26:0.25114155251141557 27:0.3881278538812786 28:0.11415525114155252 29:0.25114155251141557 30:0.7990867579908676 31:0.11415525114155252 32:0.11415525114155252 33:0.3881278538812786 34:0.11415525114155252 35:0.11415525114155252 36:0.25114155251141557 37:0.11415525114155252 38:0.25114155251141557 39:0.11415525114155252 40:0.11415525114155252 41:0.11415525114155252 42:0.11415525114155252 43:0.11415525114155252 44:0.11415525114155252 45:0.11415525114155252 46:0.3881278538812786 47:0.11415525114155252 48:0.11415525114155252 49:0.11415525114155252 50:0.11415525114155252 51:0.11415525114155252 52:0.11415525114155252 53:0.11415525114155252 54:0.3881278538812786 55:0.11415525114155252 56:0.11415525114155252 57:0.11415525114155252 58:0.11415525114155252 59:0.25114155251141557 60:0.11415525114155252 
1.0 1.0 1:0.31135531135531136 2:0.09157509157509158 3:0.20146520146520147 4:0.20146520146520147 5:0.20146520146520147 6:0.09157509157509158 7:0.09157509157509158 8:0.09157509157509158 9:1.0805860805860807 10:0.20146520146520147 11:0.09157509157509158 12:0.09157509157509158 13:0.09157509157509158 14:0.641025641025641 15:0.09157509157509158 16:0.09157509157509158 17:0.20146520146520147 18:0.09157509157509158 19:0.09157509157509158 20:0.20146520146520147 21:0.20146520146520147 22:0.09157509157509158 23:0.20146520146520147 24:0.09157509157509158 25:0.31135531135531136 26:0.20146520146520147 27:0.09157509157509158 28:0.09157509157509158 29:0.09157509157509158 30:0.09157509157509158 31:0.09157509157509158 32:0.20146520146520147 33:0.31135531135531136 34:0.20146520146520147 35:0.09157509157509158 36:0.09157509157509158 37:0.09157509157509158 38:0.09157509157509158 39:0.09157509157509158 40:0.09157509157509158 41:0.20146520146520147 42:0.09157509157509158 43:0.09157509157509158 44:0.20146520146520147 45:0.09157509157509158 46:0.09157509157509158 47:0.09157509157509158 48:0.09157509157509158 49:0.09157509157509158 50:0.09157509157509158 51:0.5311355311355311 52:0.09157509157509158 53:0.09157509157509158 54:0.20146520146520147 55:0.09157509157509158 56:0.4212454212454213 57:0.09157509157509158 58:0.09157509157509158 59:0.09157509157509158 60:0.09157509157509158 
1.0 1.0 1:0.16025641025641027 2:0.16025641025641027 3:0.16025641025641027 4:0.16025641025641027 5:0.16025641025641027 6:0.16025641025641027 7:0.16025641025641027 8:0.16025641025641027 9:0.16025641025641027 10:0.16025641025641027 11:0.16025641025641027 12:0.16025641025641027 13:0.16025641025641027 14:0.16025641025641027 15:0.5448717948717949 16:0.16025641025641027 17:0.16025641025641027 18:0.16025641025641027 19:0.16025641025641027 20:0.16025641025641027 21:0.16025641025641027 22:0.16025641025641027 23:0.16025641025641027 24:0.16025641025641027 25:0.16025641025641027 26:0.16025641025641027 27:0.16025641025641027 28:0.16025641025641027 29:0.16025641025641027 30:0.16025641025641027 31:0.16025641025641027 32:0.16025641025641027 33:0.16025641025641027 34:0.16025641025641027 35:0.16025641025641027 36:0.16025641025641027 37:0.16025641025641027 38:0.16025641025641027 39:0.16025641025641027 40:0.16025641025641027 41:0.16025641025641027 42:0.16025641025641027 43:0.16025641025641027 44:0.16025641025641027 45:0.16025641025641027 46:0.16025641025641027 47:0.16025641025641027 48:0.16025641025641027 49:0.16025641025641027 50:0.16025641025641027 51:0.16025641025641027 52:0.16025641025641027 53:0.16025641025641027 54:0.16025641025641027 55:0.16025641025641027 56:0.16025641025641027 57:0.16025641025641027 58:0.16025641025641027 59:0.16025641025641027 60:0.16025641025641027 
1.0 1.0 1:0.1488095238095238 2:0.3273809523809524 3:0.1488095238095238 4:0.1488095238095238 5:0.1488095238095238 6:0.1488095238095238 7:0.1488095238095238 8:0.1488095238095238 9:0.1488095238095238 10:0.1488095238095238 11:0.1488095238095238 12:0.1488095238095238 13:0.1488095238095238 14:0.1488095238095238 15:0.1488095238095238 16:0.1488095238095238 17:0.3273809523809524 18:0.1488095238095238 19:0.1488095238095238 20:0.1488095238095238 21:0.1488095238095238 22:0.1488095238095238 23:0.1488095238095238 24:0.3273809523809524 25:0.1488095238095238 26:0.1488095238095238 27:0.3273809523809524 28:0.1488095238095238 29:0.1488095238095238 30:0.1488095238095238 31:0.1488095238095238 32:0.1488095238095238 33:0.1488095238095238 34:0.1488095238095238 35:0.1488095238095238 36:0.1488095238095238 37:0.1488095238095238 38:0.1488095238095238 39:0.3273809523809524 40:0.1488095238095238 41:0.1488095238095238 42:0.1488095238095238 43:0.1488095238095238 44:0.1488095238095238 45:0.1488095238095238 46:0.3273809523809524 47:0.1488095238095238 48:0.1488095238095238 49:0.1488095238095238 50:0.1488095238095238 51:0.1488095238095238 52:0.1488095238095238 53:0.1488095238095238 54:0.1488095238095238 55:0.1488095238095238 56:0.1488095238095238 57:0.1488095238095238 58:0.1488095238095238 59:0.1488095238095238 60:0.1488095238095238 
1.0 1.0 1:0.12077294685990338 2:0.12077294685990338 3:0.12077294685990338 4:0.12077294685990338 5:0.12077294685990338 6:0.12077294685990338 7:0.12077294685990338 8:0.12077294685990338 9:0.12077294685990338 10:0.12077294685990338 11:0.12077294685990338 12:0.12077294685990338 13:0.12077294685990338 14:0.26570048309178745 15:0.26570048309178745 16:0.12077294685990338 17:0.12077294685990338 18:0.12077294685990338 19:0.5555555555555556 20:0.12077294685990338 21:0.26570048309178745 22:0.12077294685990338 23:0.7004830917874395 24:0.12077294685990338 25:0.12077294685990338 26:0.26570048309178745 27:0.12077294685990338 28:0.26570048309178745 29:0.12077294685990338 30:0.12077294685990338 31:0.12077294685990338 32:0.26570048309178745 33:0.12077294685990338 34:0.12077294685990338 35:0.12077294685990338 36:0.12077294685990338 37:0.12077294685990338 38:0.12077294685990338 39:0.26570048309178745 40:0.12077294685990338 41:0.12077294685990338 42:0.12077294685990338 43:0.12077294685990338 44:0.41062801932367154 45:0.12077294685990338 46:0.5555555555555556 47:0.12077294685990338 48:0.12077294685990338 49:0.12077294685990338 50:0.12077294685990338 51:0.12077294685990338 52:0.12077294685990338 53:0.12077294685990338 54:0.12077294685990338 55:0.12077294685990338 56:0.12077294685990338 57:0.12077294685990338 58:0.12077294685990338 59:0.12077294685990338 60:0.12077294685990338 
1.0 1.0 1:0.12626262626262627 2:0.2777777777777778 3:0.12626262626262627 4:0.12626262626262627 5:0.2777777777777778 6:0.12626262626262627 7:0.12626262626262627 8:0.12626262626262627 9:0.12626262626262627 10:0.12626262626262627 11:0.12626262626262627 12:0.2777777777777778 13:0.12626262626262627 14:0.12626262626262627 15:0.4292929292929293 16:0.12626262626262627 17:0.4292929292929293 18:0.12626262626262627 19:0.12626262626262627 20:0.12626262626262627 21:0.12626262626262627 22:0.12626262626262627 23:0.12626262626262627 24:0.2777777777777778 25:0.12626262626262627 26:0.12626262626262627 27:0.12626262626262627 28:0.12626262626262627 29:0.12626262626262627 30:0.12626262626262627 31:0.12626262626262627 32:0.12626262626262627 33:0.4292929292929293 34:0.12626262626262627 35:0.12626262626262627 36:0.12626262626262627 37:0.12626262626262627 38:0.12626262626262627 39:0.2777777777777778 40:0.2777777777777778 41:0.2777777777777778 42:0.12626262626262627 43:0.12626262626262627 44:0.4292929292929293 45:0.12626262626262627 46:0.12626262626262627 47:0.12626262626262627 48:0.12626262626262627 49:0.12626262626262627 50:0.12626262626262627 51:0.12626262626262627 52:0.12626262626262627 53:0.12626262626262627 54:0.2777777777777778 55:0.12626262626262627 56:0.12626262626262627 57:0.12626262626262627 58:0.12626262626262627 59:0.12626262626262627 60:0.12626262626262627 
1.0 1.0 1:0.19097222222222224 2:0.08680555555555555 3:0.2951388888888889 4:0.08680555555555555 5:0.08680555555555555 6:0.08680555555555555 7:0.08680555555555555 8:0.08680555555555555 9:0.08680555555555555 10:0.08680555555555555 11:0.08680555555555555 12:0.08680555555555555 13:0.08680555555555555 14:0.08680555555555555 15:0.08680555555555555 16:0.08680555555555555 17:0.08680555555555555 18:0.2951388888888889 19:0.08680555555555555 20:0.19097222222222224 21:0.08680555555555555 22:0.08680555555555555 23:0.08680555555555555 24:0.08680555555555555 25:0.19097222222222224 26:0.19097222222222224 27:0.19097222222222224 28:0.08680555555555555 29:0.2951388888888889 30:0.08680555555555555 31:0.6076388888888888 32:0.19097222222222224 33:0.08680555555555555 34:0.19097222222222224 35:0.08680555555555555 36:0.08680555555555555 37:0.920138888888889 38:0.08680555555555555 39:0.08680555555555555 40:0.08680555555555555 41:0.08680555555555555 42:0.19097222222222224 43:0.08680555555555555 44:0.08680555555555555 45:0.08680555555555555 46:0.2951388888888889 47:0.08680555555555555 48:0.08680555555555555 49:0.08680555555555555 50:1.2326388888888888 51:0.08680555555555555 52:0.3993055555555556 53:0.08680555555555555 54:0.08680555555555555 55:0.08680555555555555 56:0.19097222222222224 57:0.08680555555555555 58:0.08680555555555555 59:0.2951388888888889 60:0.08680555555555555 
1.0 1.0 1:0.16666666666666666 2:0.16666666666666666 3:0.16666666666666666 4:0.16666666666666666 5:0.16666666666666666 6:0.16666666666666666 7:0.16666666666666666 8:0.16666666666666666 9:0.16666666666666666 10:0.16666666666666666 11:0.16666666666666666 12:0.16666666666666666 13:0.16666666666666666 14:0.16666666666666666 15:0.16666666666666666 16:0.16666666666666666 17:0.16666666666666666 18:0.16666666666666666 19:0.16666666666666666 20:0.16666666666666666 21:0.16666666666666666 22:0.16666666666666666 23:0.16666666666666666 24:0.16666666666666666 25:0.16666666666666666 26:0.16666666666666666 27:0.16666666666666666 28:0.16666666666666666 29:0.16666666666666666 30:0.16666666666666666 31:0.16666666666666666 32:0.16666666666666666 33:0.16666666666666666 34:0.16666666666666666 35:0.16666666666666666 36:0.16666666666666666 37:0.16666666666666666 38:0.16666666666666666 39:0.16666666666666666 40:0.16666666666666666 41:0.16666666666666666 42:0.16666666666666666 43:0.16666666666666666 44:0.16666666666666666 45:0.16666666666666666 46:0.16666666666666666 47:0.16666666666666666 48:0.16666666666666666 49:0.16666666666666666 50:0.16666666666666666 51:0.16666666666666666 52:0.16666666666666666 53:0.16666666666666666 54:0.16666666666666666 55:0.16666666666666666 56:0.16666666666666666 57:0.16666666666666666 58:0.16666666666666666 59:0.16666666666666666 60:0.16666666666666666 
1.0 0.0 1:0.12437810945273632 2:0.12437810945273632 3:0.12437810945273632 4:0.12437810945273632 5:0.12437810945273632 6:0.12437810945273632 7:0.4228855721393035 8:0.12437810945273632 9:0.12437810945273632 10:0.12437810945273632 11:0.12437810945273632 12:0.12437810945273632 13:0.12437810945273632 14:0.12437810945273632 15:0.12437810945273632 16:0.12437810945273632 17:0.27363184079601993 18:0.12437810945273632 19:0.27363184079601993 20:0.27363184079601993 21:0.12437810945273632 22:0.12437810945273632 23:0.12437810945273632 24:0.12437810945273632 25:0.12437810945273632 26:0.12437810945273632 27:0.12437810945273632 28:0.12437810945273632 29:0.27363184079601993 30:0.12437810945273632 31:0.12437810945273632 32:0.12437810945273632 33:0.12437810945273632 34:0.12437810945273632 35:0.12437810945273632 36:0.27363184079601993 37:0.27363184079601993 38:0.12437810945273632 39:0.12437810945273632 40:0.7213930348258706 41:0.12437810945273632 42:0.12437810945273632 43:0.12437810945273632 44:0.12437810945273632 45:0.12437810945273632 46:0.12437810945273632 47:0.12437810945273632 48:0.27363184079601993 49:0.12437810945273632 50:0.12437810945273632 51:0.27363184079601993 52:0.27363184079601993 53:0.12437810945273632 54:0.12437810945273632 55:0.27363184079601993 56:0.27363184079601993 57:0.12437810945273632 58:0.12437810945273632 59:0.12437810945273632 60:0.12437810945273632 
1.0 1.0 1:0.12254901960784313 2:0.26960784313725494 3:0.12254901960784313 4:0.41666666666666674 5:0.12254901960784313 6:0.12254901960784313 7:0.12254901960784313 8:0.12254901960784313 9:0.5637254901960784 10:0.12254901960784313 11:0.12254901960784313 12:0.12254901960784313 13:0.12254901960784313 14:0.12254901960784313 15:0.12254901960784313 16:0.12254901960784313 17:0.12254901960784313 18:0.26960784313725494 19:0.12254901960784313 20:0.12254901960784313 21:0.12254901960784313 22:0.12254901960784313 23:0.857843137254902 24:0.12254901960784313 25:0.12254901960784313 26:0.12254901960784313 27:0.12254901960784313 28:0.12254901960784313 29:0.12254901960784313 30:0.12254901960784313 31:0.12254901960784313 32:0.12254901960784313 33:0.12254901960784313 34:0.12254901960784313 35:0.12254901960784313 36:0.12254901960784313 37:0.12254901960784313 38:0.26960784313725494 39:0.12254901960784313 40:0.12254901960784313 41:0.12254901960784313 42:0.12254901960784313 43:0.12254901960784313 44:0.12254901960784313 45:0.5637254901960784 46:0.12254901960784313 47:0.12254901960784313 48:0.12254901960784313 49:0.26960784313725494 50:0.12254901960784313 51:0.12254901960784313 52:0.12254901960784313 53:0.12254901960784313 54:0.12254901960784313 55:0.12254901960784313 56:0.12254901960784313 57:0.26960784313725494 58:0.12254901960784313 59:0.12254901960784313 60:0.12254901960784313 
1.0 0.0 1:0.09578544061302682 2:0.09578544061302682 3:0.09578544061302682 4:0.09578544061302682 5:0.09578544061302682 6:0.210727969348659 7:0.210727969348659 8:0.5555555555555556 9:0.09578544061302682 10:0.09578544061302682 11:0.3256704980842912 12:0.09578544061302682 13:0.210727969348659 14:0.210727969348659 15:0.09578544061302682 16:0.09578544061302682 17:0.09578544061302682 18:0.09578544061302682 19:0.09578544061302682 20:0.09578544061302682 21:0.09578544061302682 22:0.210727969348659 23:0.5555555555555556 24:0.09578544061302682 25:0.210727969348659 26:0.210727969348659 27:0.09578544061302682 28:0.3256704980842912 29:0.210727969348659 30:0.09578544061302682 31:0.09578544061302682 32:0.5555555555555556 33:0.09578544061302682 34:0.09578544061302682 35:0.09578544061302682 36:0.210727969348659 37:0.210727969348659 38:0.210727969348659 39:0.210727969348659 40:0.210727969348659 41:0.09578544061302682 42:0.210727969348659 43:0.09578544061302682 44:0.09578544061302682 45:0.09578544061302682 46:0.09578544061302682 47:0.3256704980842912 48:0.09578544061302682 49:0.09578544061302682 50:0.09578544061302682 51:0.4406130268199234 52:0.09578544061302682 53:0.09578544061302682 54:0.09578544061302682 55:0.09578544061302682 56:0.09578544061302682 57:0.09578544061302682 58:0.09578544061302682 59:0.3256704980842912 60:0.09578544061302682 
1.0 1.0 1:0.3055555555555556 2:0.1388888888888889 3:0.1388888888888889 4:0.1388888888888889 5:0.1388888888888889 6:0.1388888888888889 7:0.1388888888888889 8:0.1388888888888889 9:0.1388888888888889 10:0.1388888888888889 11:0.1388888888888889 12:0.1388888888888889 13:0.1388888888888889 14:0.3055555555555556 15:0.1388888888888889 16:0.1388888888888889 17:0.1388888888888889 18:0.1388888888888889 19:0.1388888888888889 20:0.1388888888888889 21:0.1388888888888889 22:0.1388888888888889 23:0.1388888888888889 24:0.1388888888888889 25:0.1388888888888889 26:0.1388888888888889 27:0.1388888888888889 28:0.1388888888888889 29:0.1388888888888889 30:0.1388888888888889 31:0.1388888888888889 32:0.47222222222222227 33:0.1388888888888889 34:0.1388888888888889 35:0.1388888888888889 36:0.1388888888888889 37:0.1388888888888889 38:0.1388888888888889 39:0.1388888888888889 40:0.1388888888888889 41:0.1388888888888889 42:0.1388888888888889 43:0.1388888888888889 44:0.1388888888888889 45:0.3055555555555556 46:0.1388888888888889 47:0.1388888888888889 48:0.1388888888888889 49:0.1388888888888889 50:0.1388888888888889 51:0.1388888888888889 52:0.1388888888888889 53:0.1388888888888889 54:0.1388888888888889 55:0.3055555555555556 56:0.3055555555555556 57:0.1388888888888889 58:0.1388888888888889 59:0.1388888888888889 60:0.638888888888889 
1.0 1.0 1:0.16339869281045752 2:0.16339869281045752 3:0.16339869281045752 4:0.16339869281045752 5:0.16339869281045752 6:0.16339869281045752 7:0.16339869281045752 8:0.16339869281045752 9:0.16339869281045752 10:0.16339869281045752 11:0.16339869281045752 12:0.16339869281045752 13:0.16339869281045752 14:0.16339869281045752 15:0.16339869281045752 16:0.16339869281045752 17:0.16339869281045752 18:0.16339869281045752 19:0.16339869281045752 20:0.16339869281045752 21:0.16339869281045752 22:0.16339869281045752 23:0.16339869281045752 24:0.16339869281045752 25:0.16339869281045752 26:0.16339869281045752 27:0.16339869281045752 28:0.16339869281045752 29:0.16339869281045752 30:0.16339869281045752 31:0.16339869281045752 32:0.16339869281045752 33:0.16339869281045752 34:0.16339869281045752 35:0.16339869281045752 36:0.16339869281045752 37:0.16339869281045752 38:0.16339869281045752 39:0.16339869281045752 40:0.16339869281045752 41:0.16339869281045752 42:0.16339869281045752 43:0.16339869281045752 44:0.16339869281045752 45:0.16339869281045752 46:0.16339869281045752 47:0.16339869281045752 48:0.16339869281045752 49:0.16339869281045752 50:0.16339869281045752 51:0.16339869281045752 52:0.16339869281045752 53:0.16339869281045752 54:0.3594771241830066 55:0.16339869281045752 56:0.16339869281045752 57:0.16339869281045752 58:0.16339869281045752 59:0.16339869281045752 60:0.16339869281045752 
1.0 1.0 1:0.14367816091954022 2:0.14367816091954022 3:0.14367816091954022 4:0.3160919540229885 5:0.14367816091954022 6:0.14367816091954022 7:0.14367816091954022 8:0.3160919540229885 9:0.14367816091954022 10:0.3160919540229885 11:0.14367816091954022 12:0.14367816091954022 13:0.14367816091954022 14:0.14367816091954022 15:0.14367816091954022 16:0.14367816091954022 17:0.3160919540229885 18:0.14367816091954022 19:0.14367816091954022 20:0.14367816091954022 21:0.14367816091954022 22:0.14367816091954022 23:0.14367816091954022 24:0.14367816091954022 25:0.3160919540229885 26:0.14367816091954022 27:0.14367816091954022 28:0.3160919540229885 29:0.14367816091954022 30:0.14367816091954022 31:0.14367816091954022 32:0.14367816091954022 33:0.14367816091954022 34:0.14367816091954022 35:0.14367816091954022 36:0.14367816091954022 37:0.14367816091954022 38:0.14367816091954022 39:0.14367816091954022 40:0.14367816091954022 41:0.14367816091954022 42:0.14367816091954022 43:0.14367816091954022 44:0.3160919540229885 45:0.14367816091954022 46:0.14367816091954022 47:0.14367816091954022 48:0.14367816091954022 49:0.14367816091954022 50:0.14367816091954022 51:0.14367816091954022 52:0.14367816091954022 53:0.14367816091954022 54:0.3160919540229885 55:0.14367816091954022 56:0.14367816091954022 57:0.14367816091954022 58:0.14367816091954022 59:0.14367816091954022 60:0.14367816091954022 
1.0 0.7852834905611679 1:0.0946969696969697 2:0.890151515151515 3:0.20833333333333337 4:0.43560606060606066 5:0.0946969696969697 6:0.0946969696969697 7:0.0946969696969697 8:0.20833333333333337 9:0.0946969696969697 10:0.0946969696969697 11:0.0946969696969697 12:0.20833333333333337 13:0.20833333333333337 14:0.0946969696969697 15:0.0946969696969697 16:0.0946969696969697 17:0.0946969696969697 18:0.20833333333333337 19:0.5492424242424242 20:0.0946969696969697 21:0.0946969696969697 22:0.0946969696969697 23:0.20833333333333337 24:0.0946969696969697 25:0.20833333333333337 26:0.0946969696969697 27:0.20833333333333337 28:0.0946969696969697 29:0.20833333333333337 30:0.0946969696969697 31:0.0946969696969697 32:0.32196969696969696 33:0.0946969696969697 34:0.0946969696969697 35:0.20833333333333337 36:0.0946969696969697 37:0.0946969696969697 38:0.0946969696969697 39:0.0946969696969697 40:0.0946969696969697 41:0.0946969696969697 42:0.32196969696969696 43:0.0946969696969697 44:0.0946969696969697 45:0.20833333333333337 46:0.0946969696969697 47:0.32196969696969696 48:0.0946969696969697 49:0.0946969696969697 50:0.32196969696969696 51:0.0946969696969697 52:0.0946969696969697 53:0.0946969696969697 54:0.0946969696969697 55:0.0946969696969697 56:0.32196969696969696 57:0.0946969696969697 58:0.0946969696969697 59:0.32196969696969696 60:0.20833333333333337 
0.0 1.0 1:0.09578544061302682 2:0.210727969348659 3:0.210727969348659 4:0.09578544061302682 5:0.09578544061302682 6:0.09578544061302682 7:0.210727969348659 8:0.210727969348659 9:0.09578544061302682 10:0.09578544061302682 11:0.09578544061302682 12:0.09578544061302682 13:0.09578544061302682 14:0.09578544061302682 15:0.09578544061302682 16:0.09578544061302682 17:0.09578544061302682 18:0.3256704980842912 19:0.09578544061302682 20:0.210727969348659 21:0.09578544061302682 22:0.09578544061302682 23:0.09578544061302682 24:0.09578544061302682 25:0.09578544061302682 26:0.09578544061302682 27:0.210727969348659 28:0.09578544061302682 29:0.210727969348659 30:0.210727969348659 31:1.2452107279693487 32:0.09578544061302682 33:0.09578544061302682 34:0.09578544061302682 35:0.09578544061302682 36:0.09578544061302682 37:0.09578544061302682 38:0.210727969348659 39:0.09578544061302682 40:0.09578544061302682 41:0.09578544061302682 42:0.09578544061302682 43:0.09578544061302682 44:0.09578544061302682 45:0.210727969348659 46:0.09578544061302682 47:0.09578544061302682 48:0.09578544061302682 49:0.09578544061302682 50:0.09578544061302682 51:0.3256704980842912 52:0.09578544061302682 53:0.09578544061302682 54:0.09578544061302682 55:0.09578544061302682 56:0.09578544061302682 57:0.09578544061302682 58:0.09578544061302682 59:1.5900383141762453 60:0.09578544061302682 
1.0 0.0 1:0.10822510822510824 2:0.10822510822510824 3:0.10822510822510824 4:0.10822510822510824 5:0.10822510822510824 6:0.2380952380952381 7:0.10822510822510824 8:0.10822510822510824 9:0.10822510822510824 10:0.10822510822510824 11:0.2380952380952381 12:0.10822510822510824 13:0.10822510822510824 14:0.2380952380952381 15:0.10822510822510824 16:0.10822510822510824 17:0.10822510822510824 18:0.10822510822510824 19:0.367965367965368 20:0.10822510822510824 21:0.2380952380952381 22:0.367965367965368 23:0.10822510822510824 24:0.49783549783549785 25:0.2380952380952381 26:0.2380952380952381 27:0.10822510822510824 28:0.10822510822510824 29:0.10822510822510824 30:0.2380952380952381 31:0.10822510822510824 32:0.367965367965368 33:0.10822510822510824 34:0.2380952380952381 35:0.367965367965368 36:0.10822510822510824 37:0.10822510822510824 38:0.10822510822510824 39:0.10822510822510824 40:0.10822510822510824 41:0.10822510822510824 42:0.10822510822510824 43:0.2380952380952381 44:0.10822510822510824 45:0.10822510822510824 46:0.10822510822510824 47:0.10822510822510824 48:0.10822510822510824 49:0.367965367965368 50:0.10822510822510824 51:0.10822510822510824 52:0.367965367965368 53:0.10822510822510824 54:0.2380952380952381 55:0.2380952380952381 56:0.10822510822510824 57:0.10822510822510824 58:0.10822510822510824 59:0.2380952380952381 60:0.10822510822510824 
0.3346037261477707 0.0 1:0.24444444444444446 2:0.11111111111111112 3:0.11111111111111112 4:0.11111111111111112 5:0.24444444444444446 6:0.24444444444444446 7:0.11111111111111112 8:0.24444444444444446 9:0.37777777777777777 10:0.11111111111111112 11:0.11111111111111112 12:0.11111111111111112 13:0.11111111111111112 14:0.11111111111111112 15:0.11111111111111112 16:0.11111111111111112 17:0.11111111111111112 18:0.11111111111111112 19:0.11111111111111112 20:0.11111111111111112 21:0.11111111111111112 22:0.24444444444444446 23:0.37777777777777777 24:0.11111111111111112 25:0.37777777777777777 26:0.11111111111111112 27:0.11111111111111112 28:0.11111111111111112 29:0.11111111111111112 30:0.11111111111111112 31:0.24444444444444446 32:0.11111111111111112 33:0.11111111111111112 34:0.11111111111111112 35:0.24444444444444446 36:0.11111111111111112 37:0.11111111111111112 38:0.11111111111111112 39:0.24444444444444446 40:0.7777777777777778 41:0.11111111111111112 42:0.11111111111111112 43:0.11111111111111112 44:0.24444444444444446 45:0.24444444444444446 46:0.5111111111111112 47:0.11111111111111112 48:0.11111111111111112 49:0.11111111111111112 50:0.11111111111111112 51:0.11111111111111112 52:0.11111111111111112 53:0.11111111111111112 54:0.11111111111111112 55:0.11111111111111112 56:0.11111111111111112 57:0.24444444444444446 58:0.11111111111111112 59:0.11111111111111112 60:0.11111111111111112 
1.0 1.0 1:0.12437810945273632 2:0.12437810945273632 3:0.12437810945273632 4:0.12437810945273632 5:0.12437810945273632 6:0.12437810945273632 7:0.12437810945273632 8:0.12437810945273632 9:0.4228855721393035 10:0.12437810945273632 11:0.12437810945273632 12:0.4228855721393035 13:0.12437810945273632 14:0.12437810945273632 15:0.27363184079601993 16:0.12437810945273632 17:0.12437810945273632 18:0.12437810945273632 19:0.12437810945273632 20:0.12437810945273632 21:0.12437810945273632 22:0.12437810945273632 23:0.12437810945273632 24:0.12437810945273632 25:0.12437810945273632 26:0.12437810945273632 27:0.12437810945273632 28:0.12437810945273632 29:0.12437810945273632 30:0.27363184079601993 31:0.12437810945273632 32:0.12437810945273632 33:0.12437810945273632 34:0.12437810945273632 35:0.27363184079601993 36:0.12437810945273632 37:0.12437810945273632 38:0.12437810945273632 39:0.12437810945273632 40:0.12437810945273632 41:0.12437810945273632 42:0.12437810945273632 43:0.12437810945273632 44:0.4228855721393035 45:0.12437810945273632 46:0.12437810945273632 47:0.12437810945273632 48:0.12437810945273632 49:0.4228855721393035 50:0.12437810945273632 51:0.12437810945273632 52:0.27363184079601993 53:0.27363184079601993 54:0.5721393034825871 55:0.27363184079601993 56:0.12437810945273632 57:0.12437810945273632 58:0.12437810945273632 59:0.12437810945273632 60:0.12437810945273632 
1.0 1.0 1:0.2891156462585034 2:0.18707482993197277 3:0.2891156462585034 4:0.08503401360544219 5:0.5952380952380952 6:0.08503401360544219 7:0.08503401360544219 8:0.08503401360544219 9:0.08503401360544219 10:0.08503401360544219 11:0.08503401360544219 12:0.08503401360544219 13:0.18707482993197277 14:0.08503401360544219 15:0.2891156462585034 16:0.08503401360544219 17:0.08503401360544219 18:0.4931972789115646 19:0.08503401360544219 20:0.08503401360544219 21:0.08503401360544219 22:0.08503401360544219 23:0.08503401360544219 24:0.2891156462585034 25:0.08503401360544219 26:0.08503401360544219 27:0.08503401360544219 28:0.08503401360544219 29:0.08503401360544219 30:0.08503401360544219 31:0.08503401360544219 32:0.08503401360544219 33:0.08503401360544219 34:0.08503401360544219 35:0.08503401360544219 36:0.08503401360544219 37:1.717687074829932 38:0.08503401360544219 39:0.08503401360544219 40:0.08503401360544219 41:0.08503401360544219 42:0.08503401360544219 43:0.08503401360544219 44:0.5952380952380952 45:0.08503401360544219 46:0.08503401360544219 47:0.18707482993197277 48:0.08503401360544219 49:0.08503401360544219 50:0.08503401360544219 51:0.08503401360544219 52:0.08503401360544219 53:0.08503401360544219 54:0.08503401360544219 55:0.08503401360544219 56:0.08503401360544219 57:0.08503401360544219 58:0.08503401360544219 59:0.5952380952380952 60:0.2891156462585034 
1.0 1.0 1:0.12077294685990338 2:0.12077294685990338 3:0.41062801932367154 4:0.12077294685990338 5:0.12077294685990338 6:0.12077294685990338 7:0.12077294685990338 8:0.26570048309178745 9:0.12077294685990338 10:0.12077294685990338 11:0.26570048309178745 12:0.12077294685990338 13:0.12077294685990338 14:0.12077294685990338 15:0.12077294685990338 16:0.12077294685990338 17:0.12077294685990338 18:0.26570048309178745 19:0.12077294685990338 20:0.12077294685990338 21:0.41062801932367154 22:0.12077294685990338 23:0.12077294685990338 24:0.12077294685990338 25:0.12077294685990338 26:0.12077294685990338 27:0.12077294685990338 28:0.12077294685990338 29:0.12077294685990338 30:1.1352657004830917 31:0.12077294685990338 32:0.12077294685990338 33:0.12077294685990338 34:0.12077294685990338 35:0.12077294685990338 36:0.12077294685990338 37:0.12077294685990338 38:0.12077294685990338 39:0.12077294685990338 40:0.12077294685990338 41:0.12077294685990338 42:0.26570048309178745 43:0.12077294685990338 44:0.12077294685990338 45:0.12077294685990338 46:0.26570048309178745 47:0.26570048309178745 48:0.12077294685990338 49:0.12077294685990338 50:0.12077294685990338 51:0.12077294685990338 52:0.26570048309178745 53:0.12077294685990338 54:0.26570048309178745 55:0.12077294685990338 56:0.12077294685990338 57:0.12077294685990338 58:0.12077294685990338 59:0.12077294685990338 60:0.12077294685990338 
1.0 1.0 1:0.14124293785310735 2:0.14124293785310735 3:0.14124293785310735 4:0.14124293785310735 5:0.3107344632768362 6:0.3107344632768362 7:0.14124293785310735 8:0.14124293785310735 9:0.14124293785310735 10:0.14124293785310735 11:0.14124293785310735 12:0.3107344632768362 13:0.14124293785310735 14:0.14124293785310735 15:0.14124293785310735 16:0.14124293785310735 17:0.14124293785310735 18:0.14124293785310735 19:0.3107344632768362 20:0.14124293785310735 21:0.3107344632768362 22:0.14124293785310735 23:0.14124293785310735 24:0.3107344632768362 25:0.14124293785310735 26:0.14124293785310735 27:0.14124293785310735 28:0.14124293785310735 29:0.14124293785310735 30:0.14124293785310735 31:0.14124293785310735 32:0.14124293785310735 33:0.14124293785310735 34:0.14124293785310735 35:0.14124293785310735 36:0.14124293785310735 37:0.14124293785310735 38:0.14124293785310735 39:0.14124293785310735 40:0.14124293785310735 41:0.14124293785310735 42:0.14124293785310735 43:0.14124293785310735 44:0.14124293785310735 45:0.14124293785310735 46:0.14124293785310735 47:0.14124293785310735 48:0.480225988700565 49:0.14124293785310735 50:0.14124293785310735 51:0.14124293785310735 52:0.14124293785310735 53:0.14124293785310735 54:0.14124293785310735 55:0.14124293785310735 56:0.3107344632768362 57:0.14124293785310735 58:0.14124293785310735 59:0.14124293785310735 60:0.14124293785310735 
0.0 0.027641274159089943 1:0.09157509157509158 2:0.09157509157509158 3:0.09157509157509158 4:0.4212454212454213 5:0.7509157509157509 6:0.09157509157509158 7:0.09157509157509158 8:0.09157509157509158 9:0.09157509157509158 10:0.09157509157509158 11:0.20146520146520147 12:0.20146520146520147 13:0.09157509157509158 14:0.09157509157509158 15:0.09157509157509158 16:0.09157509157509158 17:0.4212454212454213 18:0.09157509157509158 19:0.09157509157509158 20:0.09157509157509158 21:0.09157509157509158 22:0.09157509157509158 23:0.09157509157509158 24:0.09157509157509158 25:0.09157509157509158 26:0.20146520146520147 27:0.09157509157509158 28:0.09157509157509158 29:0.09157509157509158 30:1.0805860805860807 31:0.8608058608058609 32:0.09157509157509158 33:0.09157509157509158 34:0.09157509157509158 35:0.09157509157509158 36:0.09157509157509158 37:0.09157509157509158 38:0.09157509157509158 39:0.09157509157509158 40:0.20146520146520147 41:0.09157509157509158 42:0.09157509157509158 43:0.09157509157509158 44:0.09157509157509158 45:0.09157509157509158 46:0.09157509157509158 47:0.09157509157509158 48:0.09157509157509158 49:0.09157509157509158 50:0.09157509157509158 51:0.09157509157509158 52:0.09157509157509158 53:0.09157509157509158 54:0.09157509157509158 55:0.31135531135531136 56:0.09157509157509158 57:0.09157509157509158 58:0.20146520146520147 59:0.7509157509157509 60:0.09157509157509158 
